%YAML:1.0
---
opencv_ml_svm:
   format: 3
   svmType: C_SVC
   kernel:
      type: LINEAR
   C: 2.6699999999999999e+00
   term_criteria: { epsilon:1.1920928955078125e-07, iterations:1000 }
   var_count: 312
   class_count: 10
   class_labels: !!opencv-matrix
      rows: 10
      cols: 1
      dt: i
      data: [ 0, 1, 2, 3, 4, 5, 6, 7, 8, 9 ]
   sv_total: 45
   support_vectors:
      - [ 1.05486549e-07, -1.81108106e-07, 3.38829977e-07,
          -3.42819419e-07, 2.29354001e-07, 6.81649396e-07,
          -2.55506137e-07, -5.57885755e-07, -2.66775135e-08,
          -1.67365727e-06, -2.66775135e-08, -2.03287907e-20,
          -1.27753069e-07, 1.44744106e-07, -8.00325424e-08,
          4.52907130e-07, -3.34792617e-06, 4.30132673e-07,
          3.16753642e-07, 6.32705337e-07, -2.03287907e-20,
          -1.11577151e-06, -2.66775135e-08, -2.66775135e-08,
          6.13338926e-08, -1.09031748e-06, 7.16219404e-07,
          -6.18711681e-07, 3.38829977e-07, 1.11066231e-06,
          -3.60398360e-07, -1.67365727e-06, -1.11577151e-06,
          -5.84563281e-07, -5.57885755e-07, -5.33550271e-08,
          -6.14618443e-07, 3.06669463e-08, 1.05486549e-07,
          6.13338926e-08, -1.45859087e-06, 5.66984284e-07,
          2.60657611e-08, 5.21315222e-08, -2.66775135e-08,
          -2.03287907e-20, -5.33550271e-08, -1.16912656e-06,
          5.27432746e-08, -7.60431078e-08, -1.54200109e-06,
          2.67809611e-07, 7.76610432e-06, -1.05486549e-07,
          -8.61275257e-05, 3.07067182e-07, -5.57885755e-07,
          -6.91273328e-07, -1.11577151e-06, -2.03287907e-20,
          5.22133519e-07, 6.24916709e-07, -4.74475542e-07,
          8.27227996e-06, -2.60657611e-08, -1.35040102e-06,
          4.65884909e-07, -8.68317802e-05, -2.03287907e-20,
          -2.03287907e-20, -2.03287907e-20, -2.23154302e-06,
          -5.33550271e-08, -5.57885755e-07, 2.19055764e-07, 0.,
          -3.04975543e-07, -2.45629479e-07, -1.93359188e-06,
          -7.28987579e-05, -7.36065158e-06, -5.57885755e-07,
          -1.33387573e-07, -2.03287907e-20, 4.49546071e-08,
          2.66586113e-07, -5.90482659e-06, -9.46251675e-05,
          -8.58260137e-07, 1.11577151e-06, -2.15066336e-07,
          -1.26814411e-04, -1.49063635e-04, -5.57885755e-07,
          -2.03287907e-20, -5.33550271e-08, 4.69074649e-07,
          -5.99339216e-07, -1.48340579e-04, -1.48859632e-04,
          7.44409044e-05, 1.48290594e-04, 7.38680537e-05,
          -1.48011444e-04, -1.49063635e-04, -2.03287907e-20,
          -2.03287907e-20, -5.33550271e-08, -1.23870038e-07,
          2.65078057e-07, -1.47780986e-04, -1.47764673e-04,
          -5.02229852e-07, 1.48716834e-04, 1.47763756e-04,
          -1.11602931e-04, -1.49036947e-04, -2.03287907e-20,
          -5.33550271e-08, -2.03287907e-20, -2.03287907e-20,
          -3.07878736e-07, -1.48426712e-04, -1.48953026e-04,
          -3.71777642e-05, 1.48713676e-04, 1.16668474e-04,
          -1.11126246e-04, -1.49063635e-04, -6.80276571e-06,
          -2.03287907e-20, -2.03287907e-20, -3.38814736e-08,
          5.78683839e-08, -1.47356404e-04, -1.48543331e-04,
          -3.74596821e-05, 1.17554620e-04, 8.02270806e-05,
          -1.11785441e-04, -1.49010273e-04, -6.80276571e-06,
          -2.03287907e-20, -2.66775135e-08, -1.56196606e-07,
          -1.84540298e-07, -1.48002830e-04, -1.48051025e-04,
          -3.03373781e-05, 1.47886982e-04, 8.04348238e-05,
          -1.48571125e-04, -1.49063635e-04, -2.03287907e-20,
          -2.03287907e-20, -2.03287907e-20, -1.74012001e-07,
          7.99700160e-07, -1.48874809e-04, -1.48340579e-04,
          -7.33132474e-05, 1.48633640e-04, 3.70218004e-05,
          -1.48478677e-04, -1.49036947e-04, -8.00325424e-08,
          -2.03287907e-20, -8.00325424e-08, -3.09749709e-07,
          -2.41313955e-07, -1.45966187e-04, -1.48446896e-04,
          -7.44815188e-05, 7.43688724e-05, 7.45029683e-05,
          -1.27363543e-04, -1.49063635e-04, -2.03287907e-20,
          -2.03287907e-20, -2.66775135e-08, 1.25076312e-07,
          3.55505449e-07, -1.48443592e-04, -1.48238149e-04,
          -5.94559679e-05, 7.43054115e-05, 7.42898992e-05,
          -1.14180293e-04, -1.49063635e-04, -2.66775135e-08,
          -2.03287907e-20, -2.03287907e-20, -1.77553900e-07,
          -2.48247943e-07, -1.48377905e-04, -1.49063635e-04,
          -9.01588355e-05, 7.38322342e-05, 4.37027811e-05,
          -1.13582406e-04, -1.48860883e-04, 8.07785000e-07,
          5.27432746e-08, -2.27570510e-07, 2.72934727e-07,
          -1.02446421e-07, 1.13802503e-06, -1.33355876e-04,
          3.68070602e-07, -3.55244907e-07, 8.13939209e-07,
          -5.71008457e-07, -1.48754072e-04, 4.87584259e-07,
          -2.65083531e-06, 1.95802670e-07, -3.14170904e-07,
          -8.65390746e-08, -4.73734303e-07, -5.71940691e-05,
          -1.75985253e-08, -3.86306681e-07, -5.40744338e-07,
          3.24888390e-07, 5.85743801e-05, 1.05486549e-07, 1.80026348e-06,
          6.13338926e-08, 7.88090375e-08, 8.33396285e-08, 5.55678128e-07,
          1.04246385e-04, -1.23724249e-07, 5.79975108e-07,
          -3.96716928e-07, 1.84802204e-07, 1.48605395e-04,
          1.16469346e-05, -2.03287907e-20, 1.51735401e-06,
          -4.67146180e-07, 5.84845338e-07, -2.40772575e-08,
          1.54679474e-05, 1.40848657e-04, -7.42334265e-08,
          4.10945717e-07, 1.40431250e-04, 2.04437292e-05,
          -2.03287907e-20, 2.65811309e-07, -1.01780256e-06,
          4.35725639e-07, -2.04459070e-06, 3.72051687e-07,
          4.57961676e-07, 2.30434296e-07, 3.31856569e-07,
          -3.10991425e-07, 1.26834016e-06, 5.96811958e-07,
          3.99825296e-07, -2.03287907e-20, -5.41321583e-07,
          -3.20719835e-07, 4.49512214e-07, -4.21452427e-07,
          -2.65723781e-08, -7.90306103e-07, 1.15736768e-07,
          -6.29558656e-07, -4.12741372e-07, 2.86157302e-07,
          -1.20656978e-07, -4.33239336e-07, 8.36805782e-07,
          1.75545637e-07, 8.26302823e-07, -7.27517488e-07,
          2.28288911e-07, -2.94199882e-08, -1.27540460e-07,
          1.13324234e-07, -1.29913545e-07, -4.63906275e-07,
          -3.61970933e-07, -1.12757043e-07, 3.90406797e-07,
          -2.03287907e-20, -2.03287907e-20, -2.03287907e-20,
          -2.03287907e-20, -2.03287907e-20, -2.03287907e-20,
          -2.03287907e-20, -2.03287907e-20, -2.03287907e-20,
          -2.03287907e-20, -2.03287907e-20, -2.03287907e-20,
          -2.03287907e-20, -2.03287907e-20, -2.03287907e-20,
          -2.03287907e-20, -2.03287907e-20, -2.03287907e-20,
          -2.03287907e-20, -2.03287907e-20, -2.03287907e-20,
          -2.03287907e-20, -2.03287907e-20, -2.03287907e-20 ]
      - [ 2.66772588e-07, -9.39739166e-08, -4.70762188e-07,
          1.61839139e-07, -1.07640714e-08, 1.22384392e-07,
          -2.99857192e-07, -4.91713052e-08, -5.60935831e-08,
          1.68280749e-07, -5.60935831e-08, -7.45388994e-20,
          -2.25848055e-07, 4.90794747e-08, -1.51370671e-07,
          -1.22704057e-06, -8.52006281e-07, -1.81729391e-07,
          6.29904378e-08, 4.25139035e-08, -7.45388994e-20,
          1.12187166e-07, -5.60935831e-08, -5.60935831e-08,
          9.11041184e-07, -1.15124112e-06, 4.60590684e-07,
          -3.52696588e-07, -2.87531662e-07, 5.00374142e-07,
          2.70105062e-07, -3.50097963e-07, 1.12187166e-07,
          -7.45388994e-20, 5.60935831e-08, -1.12187166e-07,
          -1.01726494e-06, 8.35475987e-07, 4.38028962e-07,
          -1.76484477e-07, -3.29481992e-07, 2.50148524e-08,
          -2.73979695e-05, -3.80225174e-07, -5.60935831e-08,
          -7.45388994e-20, -1.12187166e-07, -6.09863722e-20,
          1.14452473e-06, -6.94100208e-07, -1.08720678e-06,
          1.60605370e-04, 6.62710372e-05, -2.38891516e-07,
          1.40883998e-07, 2.02412975e-05, 5.60935831e-08,
          -2.24374332e-07, 1.12187166e-07, -7.45388994e-20,
          -9.86620194e-07, 3.97398196e-07, 1.74752087e-04,
          1.32984744e-04, 2.59716870e-07, -1.02704576e-06,
          4.84233844e-08, -4.32631310e-07, -7.45388994e-20,
          -7.45388994e-20, -7.45388994e-20, 2.24374332e-07,
          -3.30677281e-08, 8.38110009e-06, 1.72102722e-04, 0.,
          -1.05071784e-07, 8.21631545e-08, -1.96620226e-06,
          3.81912770e-07, -1.42477702e-05, 5.60935831e-08,
          -2.80467901e-07, -7.45388994e-20, -1.11932408e-07,
          -1.07418077e-06, -1.43671796e-05, -9.61499463e-05,
          -1.73966575e-04, -5.15271154e-07, 7.94825780e-07,
          -5.82451889e-07, 0., 5.60935831e-08, -7.45388994e-20,
          -1.12187166e-07, 1.86992580e-07, -5.24554821e-07,
          -1.74273053e-04, -1.74158165e-04, -4.00024619e-05,
          3.90347708e-07, 1.34209302e-04, -2.35911077e-08,
          -5.57621505e-08, 8.36432221e-08, -4.87884719e-08,
          2.04256324e-07, -7.86156349e-08, 5.08323126e-07,
          -1.74747562e-04, -1.74248766e-04, 3.07579938e-07,
          7.70251245e-06, 1.73991735e-04, -4.12782043e-07,
          -4.44832096e-07, 1.36444999e-06, 2.16930198e-06,
          3.69532785e-07, 8.71694468e-08, -1.72463572e-07,
          -1.73239809e-04, -1.73848719e-04, -4.69611223e-05,
          6.95916515e-06, 1.47114493e-04, 1.57737375e-07,
          -4.06925028e-05, -1.38294063e-05, 1.08424372e-08,
          2.78810752e-08, -8.32956857e-07, 3.29040333e-08,
          -1.74026907e-04, -1.74659261e-04, -4.59741786e-05,
          6.93254788e-06, 1.46481878e-04, 2.18048100e-07,
          -1.67827966e-04, -2.62440572e-05, 2.78810752e-08,
          3.85201190e-07, -3.28706847e-07, 9.10053700e-07,
          -1.74692570e-04, -1.74276574e-04, 3.42803787e-07,
          6.64993968e-06, 1.44033329e-04, -1.19867553e-04,
          -1.73411026e-04, -1.33626672e-05, 3.30381994e-07,
          8.04720003e-07, 3.37187828e-07, -3.24797753e-07,
          -1.73488341e-04, -1.74366520e-04, 7.03028945e-06,
          1.48986917e-04, -1.38890609e-05, -1.74944871e-04,
          -1.74922228e-04, -3.40624631e-08, -7.45388994e-20,
          2.13121052e-06, -4.53029998e-07, 1.19937977e-06,
          -1.73179957e-04, -9.58172241e-05, 5.68129690e-05,
          1.34012793e-04, -2.41175712e-05, -1.74102650e-04,
          -1.75060151e-04, 4.74338009e-07, 1.98493282e-07,
          -5.50796919e-08, -2.91441786e-08, 8.60700823e-07,
          -1.75002511e-04, 5.52636493e-07, 5.52482561e-05,
          1.34550355e-04, -3.92328584e-05, -1.74393659e-04,
          -1.74844623e-04, 1.43532293e-06, 1.63129300e-07,
          -7.45388994e-20, 4.11808202e-07, -1.11761415e-06,
          -4.79831870e-05, -2.71440257e-07, 5.53835525e-05,
          -2.44450384e-05, -4.50988118e-05, -1.74718123e-04,
          -1.74373636e-04, -7.45388994e-20, -7.45388994e-20,
          4.13920048e-07, -7.48168418e-07, 3.06856180e-07,
          9.32690527e-05, 2.83689694e-09, -1.95053175e-07,
          -1.11547990e-04, -1.56452108e-04, -1.73735025e-04,
          -1.75060151e-04, 1.78694086e-06, -3.25082510e-06,
          -7.45388994e-20, 2.39603906e-07, -8.12717190e-07,
          1.73872846e-04, -4.15901098e-07, 5.29322335e-07,
          -1.41720903e-07, -6.59561522e-07, 5.38494362e-07,
          5.95646952e-07, 9.08634519e-08, 5.95646952e-07, 1.81726904e-07,
          -4.20007041e-07, 4.39925884e-07, 1.73600114e-04,
          8.06690223e-05, -2.73468203e-07, 5.64353002e-07,
          3.18952488e-07, -2.24534631e-07, 1.73868859e-04,
          2.21202154e-05, -7.45388994e-20, 5.95646952e-07,
          1.65250370e-07, 4.80509073e-07, 1.60274358e-05, 1.59283023e-04,
          1.48627732e-04, 8.20778681e-08, -2.35719341e-07,
          1.60099255e-04, -6.86510418e-07, -7.45388994e-20,
          -1.37302084e-06, -1.28215731e-06, 5.99285954e-08,
          -8.36230754e-07, -1.88601575e-07, 1.57400866e-08,
          8.32514900e-07, -3.86408146e-07, -3.69855314e-07,
          5.55535166e-07, -7.45388994e-20, 1.87780427e-06,
          9.08634519e-08, -1.10043050e-06, 9.02554405e-08,
          1.24668475e-07, 9.91082402e-07, 5.07704954e-08, 4.70689145e-07,
          5.15318526e-08, -7.63214643e-07, 3.54349510e-07,
          5.95646952e-07, -7.45388994e-20, -6.86510418e-07,
          5.95646952e-07, -2.56282846e-07, -4.15838244e-08,
          -5.53008249e-07, 9.99620056e-07, -1.16864456e-07,
          -1.68461398e-07, -6.49537981e-07, 1.61191423e-07,
          -6.86510418e-07, -7.45388994e-20, -4.13920048e-07,
          -7.45388994e-20, -7.45388994e-20, -7.45388994e-20,
          -7.45388994e-20, -7.45388994e-20, -7.45388994e-20,
          -7.45388994e-20, -7.45388994e-20, -7.45388994e-20,
          -7.45388994e-20, -7.45388994e-20, -7.45388994e-20,
          -7.45388994e-20, -7.45388994e-20, -7.45388994e-20,
          -7.45388994e-20, -7.45388994e-20, -7.45388994e-20,
          -7.45388994e-20, -7.45388994e-20, -7.45388994e-20,
          -7.45388994e-20, -7.45388994e-20, -7.45388994e-20,
          -7.45388994e-20 ]
      - [ -2.05522056e-07, 2.21526605e-07, 3.63944963e-07,
          4.52461677e-07, -8.05743070e-07, -4.74370339e-08,
          -5.98332633e-07, -5.77336039e-07, 1.84593574e-07,
          -5.53780694e-07, 1.84593574e-07, -4.06575815e-20,
          2.91049819e-05, 2.43324234e-06, -3.03165166e-07,
          1.84819314e-07, -2.21911819e-06, 2.50440507e-07,
          1.44003025e-07, -1.23006458e-07, -4.06575815e-20,
          -3.69187148e-07, 1.84593574e-07, 1.84593574e-07,
          2.36611027e-06, -1.72335558e-06, 7.48034950e-07,
          -1.53697340e-06, 1.52412611e-07, 3.29832005e-07,
          1.05113536e-07, -1.18410605e-06, -3.69187148e-07,
          1.01643954e-20, -1.84593574e-07, 3.69187148e-07,
          -1.98449857e-06, 1.44003025e-07, 8.78414085e-07,
          3.08311570e-07, -1.18410605e-06, 1.53370706e-06,
          -5.18042070e-05, -6.07963742e-08, 1.84593574e-07,
          -4.06575815e-20, 3.69187148e-07, -1.35525272e-20,
          -1.14203495e-07, 3.05493131e-07, -2.64045207e-06,
          3.18195380e-05, 1.84065255e-04, -1.52739221e-06,
          -1.12559133e-06, -5.11785765e-05, -1.84593574e-07,
          7.38374297e-07, -3.69187148e-07, -4.06575815e-20,
          1.24175131e-06, -8.52711423e-07, 7.45821126e-07,
          1.55042901e-04, -4.19506449e-07, 2.09267199e-07,
          -7.45185673e-07, -4.17999786e-07, -4.06575815e-20,
          -4.06575815e-20, -4.06575815e-20, -7.38374297e-07,
          7.28612051e-08, -5.51871665e-07, 2.26518623e-07,
          -8.62238437e-07, 6.38259053e-07, -7.35165656e-07,
          2.66369767e-07, -4.84526367e-07, 4.68867693e-05,
          -1.84593574e-07, 9.22967843e-07, -4.06575815e-20,
          -1.87430331e-07, -4.69362078e-07, -3.60357772e-05,
          -2.36797656e-04, -1.71230015e-04, -4.78486243e-07,
          -1.36237006e-07, 1.10456710e-06, 0., -1.84593574e-07,
          -4.06575815e-20, 3.69187148e-07, -2.41533257e-07,
          7.77383434e-07, -2.37305925e-04, -2.35344502e-04,
          -1.44877913e-05, 1.07980391e-07, 1.92591702e-04,
          3.20678737e-08, -2.04885424e-08, 1.16058641e-06,
          8.58542819e-08, -4.28872582e-08, 4.61302676e-07,
          -3.90822208e-07, -2.35286381e-04, -2.35598185e-04,
          -1.42085776e-06, 2.35990694e-04, 2.36382824e-04,
          4.99229543e-07, -3.54577281e-07, 1.65709457e-06,
          -1.91017158e-09, 5.54412566e-07, -1.32962398e-07,
          6.48236025e-08, -1.42724748e-04, -1.11857305e-04,
          7.04074846e-05, 2.36302280e-04, 9.40451137e-05, 2.24954164e-07,
          -1.40873250e-04, -2.60539559e-06, 1.26726820e-06,
          4.62770629e-07, 8.53144002e-07, -9.29851325e-08,
          -1.10485329e-04, -4.67959617e-05, 7.40033865e-05,
          1.46665683e-04, 6.33888776e-05, -1.04823477e-04,
          -2.31478713e-04, -7.55583915e-06, 1.26831367e-07,
          1.16637693e-06, -2.44327936e-07, -4.68082334e-07,
          -2.34737017e-04, -1.11057838e-04, 1.32674657e-04,
          2.36628723e-04, 1.01527730e-04, -1.08819499e-04,
          -2.36726948e-04, 7.76271293e-07, 1.45708796e-07,
          4.29271410e-08, -5.42919679e-07, 7.34365472e-07,
          -2.36059786e-04, -2.37007553e-04, -1.44948526e-05,
          2.36476480e-04, 1.91111962e-04, 2.98672660e-07,
          -2.36307736e-04, -5.21365600e-08, 8.06108687e-07,
          7.62245122e-07, 2.29171405e-07, -6.67688028e-07,
          -2.35360683e-04, -2.34852138e-04, -5.45260082e-05,
          -1.58387284e-05, 1.93111366e-04, -5.91542687e-07,
          -1.69136929e-05, 1.92446237e-06, 2.04885424e-08,
          7.51982157e-07, -6.06265075e-07, 7.28100758e-07,
          -2.36844120e-04, -2.36374297e-04, -5.33470520e-05,
          -1.45771992e-05, 1.92481806e-04, 1.42182301e-07,
          -1.25220254e-07, 3.23472050e-05, 7.55782764e-07,
          4.29271410e-08, -8.94241765e-08, 8.72527323e-07,
          -2.37091270e-04, -2.37029744e-04, -1.44802631e-04,
          -1.42687004e-05, 9.13184922e-05, -5.90466520e-08, 0.,
          -4.06575815e-20, -4.06575815e-20, 7.04811328e-07,
          4.29271410e-08, 8.48647403e-07, -3.52577914e-08,
          -2.23750190e-04, -1.96647336e-04, -4.71904315e-07,
          5.08645883e-07, 2.49458736e-07, 3.52405664e-07,
          -3.52405664e-07, 7.04811328e-07, -3.52405664e-07,
          -8.08724735e-07, 1.31789238e-06, 9.70427936e-06,
          -9.84155761e-08, 2.46684323e-07, 1.25608790e-06,
          -1.67016958e-06, 5.62256844e-07, -8.98634462e-05,
          -4.06575815e-20, -4.06575815e-20, -4.06575815e-20,
          2.84668613e-06, 4.29271410e-08, -4.63277502e-07,
          1.86659410e-04, -1.86735781e-06, -6.26528049e-07,
          6.59214948e-07, -1.48587014e-06, -4.06575815e-20,
          1.05721699e-06, -4.06575815e-20, -3.52405664e-07,
          -3.26008802e-07, -6.13685245e-07, -9.48027434e-07,
          -6.68190251e-06, 2.16456363e-04, -1.57019576e-06,
          5.84512065e-07, -8.44123679e-06, -7.04811328e-07,
          -4.06575815e-20, 7.04811328e-07, 3.52405664e-07,
          3.44780204e-07, 2.72524858e-06, 7.19765438e-08, 2.62644875e-07,
          -5.45929197e-07, 1.74228376e-06, -1.23031384e-06,
          1.28781423e-07, -4.06575815e-20, 3.52405664e-07,
          -4.06575815e-20, -7.04811328e-07, -1.93409346e-06,
          2.33565856e-07, -5.50743266e-07, 1.56426540e-06,
          -1.10247345e-06, -4.38519443e-08, -5.64258968e-08,
          1.01889225e-06, -4.06575815e-20, -3.52405664e-07,
          3.52405664e-07, 3.52405664e-07, 1.03571620e-06,
          -1.09646203e-06, 4.55174728e-07, -9.13185545e-08,
          6.93610858e-08, 6.11329767e-07, -3.83085705e-08,
          -7.57145415e-07, 3.52405664e-07, -1.05721699e-06,
          3.52405664e-07, -4.06575815e-20, -4.06575815e-20,
          -4.06575815e-20, -4.06575815e-20, -4.06575815e-20,
          -4.06575815e-20, -4.06575815e-20, -4.06575815e-20,
          -4.06575815e-20, -4.06575815e-20, -4.06575815e-20,
          -4.06575815e-20, -4.06575815e-20, -4.06575815e-20,
          -4.06575815e-20, -4.06575815e-20, -4.06575815e-20,
          -4.06575815e-20, -4.06575815e-20, -4.06575815e-20,
          -4.06575815e-20, -4.06575815e-20, -4.06575815e-20,
          -4.06575815e-20, -4.06575815e-20 ]
      - [ 6.40095436e-07, -2.10502606e-07, -2.92843993e-07,
          7.30738805e-07, -6.67176153e-07, -5.49896640e-07,
          -7.49072910e-07, -3.92511623e-07, -6.77626358e-21, 0.,
          -6.77626358e-21, -6.77626358e-21, -5.75810532e-07,
          9.69611960e-07, 5.02056707e-07, 9.07980322e-08,
          -3.78179561e-06, 1.91746062e-06, -6.77626358e-21,
          2.72084804e-07, 1.47507549e-07, -7.40929920e-07,
          -6.77626358e-21, -6.77626358e-21, 2.73497648e-07,
          -3.75499042e-07, 9.18097953e-07, 3.09856603e-07,
          1.47507549e-07, 2.74664529e-07, 5.20958451e-07,
          -1.85402087e-06, -1.18684477e-06, -6.67176153e-07,
          -5.19668617e-07, 2.52119708e-06, -6.21915945e-07,
          1.43905640e-06, 1.82009018e-07, 1.47507549e-07,
          -2.00209615e-06, 7.86313080e-07, -6.77626358e-21,
          3.66030179e-07, 1.78026710e-06, 2.21261317e-07,
          -6.77626358e-21, -5.93422385e-07, 6.40095436e-07,
          8.23993616e-07, -3.21860125e-06, 1.35111895e-06,
          8.22104425e-07, -2.16596469e-04, -1.69222287e-04,
          1.70056170e-04, 1.81400355e-05, 5.19668617e-07,
          -1.18684477e-06, 6.67176153e-07, -1.83298894e-07,
          1.17241188e-06, -4.45914822e-07, 2.73497648e-07,
          -2.16871136e-04, -1.46574632e-04, 6.67176153e-07,
          -1.69079067e-06, 1.70129919e-04, 1.88072117e-05,
          -6.77626358e-21, -2.66870461e-06, 2.54472923e-07,
          -8.50475033e-07, 1.55485543e-06, -2.15958513e-04,
          -2.14659944e-04, 2.92843993e-07, -1.47037883e-06,
          -1.82009018e-07, 1.68869316e-04, 1.87334590e-05,
          1.85402087e-06, 7.40929920e-07, -3.47128434e-07,
          8.89088909e-08, 4.37771831e-07, -2.16321801e-04,
          -1.27704421e-04, -1.75119894e-07, 1.83298894e-07,
          5.18378727e-07, 0., -6.67176153e-07, -6.77626358e-21,
          1.47507549e-07, 2.53183060e-07, -9.84254484e-07,
          -2.15707361e-04, -2.16132306e-04, 6.05328823e-05,
          2.16797387e-04, 5.97469516e-05, 9.11073670e-08, 0.,
          -6.77626358e-21, -6.77626358e-21, -6.77626358e-21,
          -3.17078360e-07, 1.08872530e-06, -2.16334898e-04,
          -1.27375242e-04, 2.15704247e-04, 2.16285000e-04,
          2.14403524e-04, -1.63571272e-07, -1.70095007e-06,
          1.70095007e-06, -6.77626358e-21, 8.50475033e-07,
          9.13656422e-08, -1.15456078e-06, -2.15192864e-04,
          -9.88800239e-05, 1.56339971e-04, 2.15137363e-04,
          1.57390270e-04, 7.36412403e-07, 0., -6.77626358e-21,
          -6.77626358e-21, -6.77626358e-21, 1.66299202e-07,
          6.63391688e-07, -2.16292494e-04, -4.55919871e-05,
          3.84603081e-05, 1.55911577e-04, 1.53697998e-04,
          -7.37537746e-08, 0., 2.55142504e-06, 8.50475033e-07,
          1.70095007e-06, -1.75497621e-06, 1.04465562e-06,
          -1.43401106e-04, -2.75490407e-07, -4.05554638e-05,
          1.88072117e-05, 1.56132272e-04, -1.02813203e-06, 0.,
          -6.77626358e-21, -6.77626358e-21, -6.77626358e-21,
          1.25642441e-06, -5.49896640e-07, -4.11970177e-07,
          5.00377212e-07, 1.05140090e-04, 2.15983746e-04, 1.06930187e-04,
          -1.36535965e-08, -1.70095007e-06, 8.50475033e-07,
          1.70095007e-06, -6.77626358e-21, -6.73642091e-07,
          3.04650911e-07, 1.96059909e-06, -5.40509859e-07,
          5.99143059e-05, 1.06902356e-04, 5.94408521e-05,
          -4.84610325e-07, 0., 2.16871136e-04, -6.77626358e-21,
          8.50475033e-07, 7.25264044e-07, -6.92362647e-08,
          -3.91954785e-07, 1.33435231e-06, 5.90105374e-05,
          1.06816122e-04, 5.97248109e-05, 1.45959405e-07,
          -1.70095007e-06, 2.16871136e-04, -6.77626358e-21,
          8.50475033e-07, -2.43324564e-07, -1.16755336e-06,
          -6.49938011e-05, -7.37537746e-08, -2.05985089e-07,
          1.04963976e-04, 8.29457576e-07, 1.35069328e-07, 0.,
          2.16094413e-04, 1.62719630e-06, -8.62281922e-07,
          4.56105937e-07, 1.36100095e-06, -4.59513249e-05,
          -1.63270233e-04, -1.62511147e-04, 6.01001773e-08,
          5.56021575e-07, -4.85723945e-07, 4.19334071e-07,
          1.83878783e-05, -3.41370696e-06, -4.19334071e-07,
          -6.81949984e-07, -1.54595807e-06, -6.55369263e-07,
          -2.15574750e-04, -2.16393048e-04, -1.40404198e-04,
          -2.04695226e-07, 2.57041876e-07, 1.08387503e-04,
          -6.77626358e-21, 3.10688506e-06, 1.47507549e-07,
          4.80649646e-07, 4.48263542e-08, -3.46870166e-07,
          -4.49400832e-05, -2.16085202e-04, -1.39686774e-04,
          3.45580304e-07, -3.87994106e-07, 2.16871136e-04,
          -2.21765163e-06, -6.77626358e-21, -3.45580304e-07,
          -1.01835792e-06, 2.21261317e-07, 5.63534250e-08,
          1.47507549e-07, 1.18516411e-07, -2.16170942e-04,
          -1.22008416e-04, 2.16451808e-04, 1.85240042e-05,
          1.47507549e-07, 7.64914375e-07, -1.28161605e-06,
          -1.07877588e-06, -1.73663977e-06, 8.01789838e-07,
          1.14062622e-07, -5.30169075e-07, 3.35890741e-06,
          -6.55369263e-07, 1.91988329e-05, 7.37537746e-08,
          3.45580304e-07, -6.77626358e-21, -1.68914323e-06,
          -1.03924442e-07, 5.02789760e-07, -9.39623192e-07,
          5.07120319e-07, 5.41086479e-07, 3.42187860e-07,
          -7.66865185e-07, -5.71876768e-08, 1.55344253e-06,
          4.31140961e-07, -3.57387194e-07, 1.12230157e-06,
          3.64874069e-07, -4.72070354e-07, 3.97370115e-07,
          2.96071647e-07, -3.93178539e-07, -8.77678758e-07,
          2.28619342e-06, -2.36035177e-07, -3.57387194e-07,
          -4.81280949e-07, -4.31140961e-07, 2.21261317e-07,
          -6.77626358e-21, -6.77626358e-21, -6.77626358e-21,
          -6.77626358e-21, -6.77626358e-21, -6.77626358e-21,
          -6.77626358e-21, -6.77626358e-21, -6.77626358e-21,
          -6.77626358e-21, -6.77626358e-21, -6.77626358e-21,
          -6.77626358e-21, -6.77626358e-21, -6.77626358e-21,
          -6.77626358e-21, -6.77626358e-21, -6.77626358e-21,
          -6.77626358e-21, -6.77626358e-21, -6.77626358e-21,
          -6.77626358e-21, -6.77626358e-21, -6.77626358e-21 ]
      - [ 2.89959672e-07, -2.22189101e-07, 5.18754710e-08,
          -4.35928115e-07, -1.04379339e-07, -9.16268505e-07,
          3.02991225e-07, -6.18330915e-08, 1.61638275e-06,
          -2.71480644e-06, 9.04935462e-07, 9.04935462e-07,
          -7.04216987e-08, 1.07850582e-07, 2.02415231e-06,
          4.56232186e-07, -1.95158782e-06, 3.78391896e-08,
          1.39290321e-07, -1.22245027e-07, 0., -6.55466067e-07, 0.,
          1.00167949e-06, 8.50075992e-08, -1.50374433e-06,
          5.14754333e-07, -1.11342422e-06, 1.89318564e-06,
          7.12539247e-07, 1.71192752e-07, 4.01514143e-07,
          -1.31093213e-06, -6.55466067e-07, -6.55466067e-07,
          -1.89686105e-07, -1.88683907e-06, 4.11523899e-07,
          7.56783791e-08, 1.29484408e-06, 1.03201339e-04, 8.35861798e-08,
          -9.10909002e-05, -2.11630180e-07, -7.48408127e-07,
          1.71312684e-06, 1.19516767e-06, -1.56040153e-06,
          1.16688193e-06, -3.05372907e-07, -1.55815383e-06,
          3.56795281e-05, 1.39254611e-04, -1.12584087e-06,
          1.76905598e-06, 7.55171350e-05, 1.52725306e-07, 4.61977947e-07,
          -1.31093213e-06, 5.58722036e-07, -9.81126149e-08,
          -2.20693721e-07, -2.01123413e-07, 1.39034120e-04,
          4.24965009e-07, -8.58507690e-07, 2.97867473e-07,
          -7.38364861e-07, 1.65527468e-04, 1.61638275e-06,
          8.08191373e-07, -1.62018478e-06, 1.47516971e-06,
          -9.04935462e-07, 1.16701972e-06, 4.98938732e-07,
          -1.15121020e-06, 1.11962457e-07, -1.92065983e-07,
          -3.78391896e-08, -3.93509472e-05, -9.04935462e-07,
          -7.48408127e-07, -2.49469366e-07, -9.75225475e-07,
          4.31822343e-07, 8.93379547e-06, -1.29635882e-04,
          7.15197189e-07, -1.69616440e-04, -2.05867487e-04,
          -2.29805213e-04, -2.30758538e-04, 1.05766071e-06,
          1.93488148e-07, 8.08191373e-07, -2.79400751e-07,
          5.84299130e-07, -1.16524992e-04, -2.40376667e-05,
          1.67383987e-04, 2.46697382e-05, -6.21165236e-05,
          -2.29667261e-04, -2.29666330e-04, 3.58828288e-07,
          1.45104264e-06, 3.58828288e-07, 1.24480414e-06,
          -4.69744919e-07, -1.15562856e-04, -2.73140643e-07,
          2.29463971e-04, 2.29051700e-04, 7.99933114e-05,
          -2.29566431e-04, -2.30758538e-04, 5.46107174e-07,
          5.46107174e-07, 0., -3.92077339e-08, 1.46918453e-07,
          -1.14154347e-04, -1.17716900e-06, 8.36428007e-05,
          2.29327197e-04, 8.34671955e-05, -1.48188672e-04,
          -2.30212434e-04, 1.26376381e-06, 3.58828288e-07,
          7.17656576e-07, 1.89606595e-07, 6.90104514e-07,
          -1.25926759e-04, -1.15173076e-04, 8.18016197e-05,
          1.73776338e-04, 6.19383354e-05, -2.74692979e-07,
          -1.39257332e-04, 0., 0., 5.46107174e-07, -9.02388251e-07,
          1.15051944e-06, -2.27998971e-04, -1.25208171e-04,
          -4.55624395e-05, 2.30565522e-04, 1.52583365e-04,
          4.98938732e-07, -1.07648486e-06, 1.98142038e-06,
          5.46107174e-07, 3.58828288e-07, 7.96260395e-07,
          -1.78336472e-06, -2.29048339e-04, -2.29958256e-04,
          -7.03919000e-07, -5.38067695e-07, 2.08357815e-04,
          -3.15409778e-07, 0., 3.58828288e-07, 0., 5.46107174e-07,
          2.67998587e-07, 1.75165167e-06, -2.30165460e-04,
          -2.29809724e-04, -6.33951495e-05, -4.54526486e-07,
          1.65913894e-04, 8.56537326e-07, 0., 0., 3.58828288e-07,
          1.26376381e-06, 5.14067608e-07, -2.99313889e-08,
          -2.30259597e-04, -2.29412923e-04, -6.35021861e-05,
          9.17644769e-08, 1.65495512e-04, 8.99683414e-07,
          -1.09221435e-06, 1.63832146e-06, 0., 3.58828288e-07, 0.,
          1.25117765e-07, -2.28053003e-04, -2.29849858e-04,
          -1.19238852e-04, -9.58152896e-07, 1.10996269e-04, 0., 0., 0.,
          0., 1.16442067e-07, -2.02300953e-07, -8.61027843e-07,
          -6.34212047e-05, -2.29459489e-04, -1.74776360e-04,
          2.39562411e-07, 1.02452941e-06, -7.43542330e-07,
          5.82210333e-08, -5.82210333e-08, 1.16442067e-07,
          -5.82210333e-08, 3.33959065e-07, -8.20124191e-10,
          -1.20280299e-06, -5.74564467e-08, -2.94179245e-07,
          1.17083118e-06, -6.61675358e-07, 5.77874175e-07,
          -1.48463632e-05, 0., 0., 0., 1.99562663e-07, 4.07628420e-08,
          4.14512478e-08, 1.47407482e-04, 1.11736753e-07,
          -1.48737956e-06, 1.18494211e-06, -1.14190501e-04, 0.,
          1.74663100e-07, 0., -5.82210333e-08, 6.42851205e-07,
          7.87322222e-07, -1.46835998e-06, 2.45907195e-05,
          2.29166108e-04, 7.36647678e-07, -1.14941438e-04,
          1.15656849e-06, -1.16442067e-07, 0., 1.16442067e-07,
          5.82210333e-08, -1.46639275e-06, 1.90525054e-06,
          2.94179245e-07, 9.67440741e-08, 2.31057840e-07, 1.05076299e-06,
          2.45587898e-07, 4.49363085e-07, 0., 5.82210333e-08, 0.,
          -1.16442067e-07, 5.50109908e-05, 1.93488148e-07,
          9.68552030e-08, -5.27226796e-08, 6.34183380e-07,
          2.90232208e-07, 5.99681130e-07, 5.83050799e-08, 0.,
          -5.82210333e-08, 5.82210333e-08, 5.82210333e-08,
          5.49385004e-05, 8.81197249e-09, 5.14454769e-07,
          -3.57598594e-07, -1.52725306e-07, 5.06930576e-07,
          -6.22203061e-07, -1.81971259e-07, 5.82210333e-08,
          -1.74663100e-07, 5.82210333e-08, 0., 0., 0., 0., 0., 0., 0.,
          0., 0., 0., 0., 0., 0., 0., 0., 0., 0., 0., 0., 0., 0., 0., 0.,
          0., 0. ]
      - [ -3.72694497e-20, -5.10491589e-07, 1.97393661e-06,
          -1.16983063e-06, -1.09474934e-06, 1.33406149e-06,
          -1.85606166e-06, -1.32752803e-06, -2.18705949e-07,
          -4.82402993e-06, 1.43171013e-08, 9.85485372e-07,
          1.95392477e-06, -3.72694497e-20, 1.21801986e-06,
          1.23405766e-06, -7.82254210e-06, 2.41799768e-07,
          1.97642407e-06, 2.15946443e-06, 2.50820790e-07,
          -3.21819516e-06, 2.82935645e-07, 2.47340154e-07,
          1.11867041e-06, -1.74209629e-06, 1.59425031e-06,
          -1.36047015e-06, 8.17036437e-07, 7.25399275e-07,
          -4.42797514e-08, -3.24519283e-06, -3.68641668e-06,
          -1.81109351e-06, -1.84320834e-06, 7.54202233e-07,
          -8.76870672e-07, 7.52462370e-07, 3.68695623e-07,
          1.31867796e-06, -2.93916605e-06, 9.45767169e-05,
          1.26983434e-06, 1.03391369e-06, 4.86889064e-07, 4.83843849e-07,
          9.96321887e-07, -3.88863009e-06, -3.72694497e-20,
          1.83148620e-06, -3.42490603e-06, -3.72694497e-20,
          7.25399275e-07, 0., -2.78160496e-06, 2.46762793e-04,
          -1.34156676e-06, -2.46634136e-06, -3.43559577e-06,
          2.35198343e-07, 3.08514416e-07, 3.06606171e-06,
          -1.07670724e-06, 1.72311570e-06, -4.83599536e-07,
          -2.61540436e-06, 1.08572829e-06, -6.17028832e-07,
          1.83104930e-04, 2.50820790e-07, -3.72694497e-20,
          -6.40514554e-06, 7.92113951e-07, -1.02803460e-06,
          6.35755350e-05, -1.71112379e-06, 2.22866674e-06,
          -1.62031199e-06, -3.08514416e-07, -2.13115050e-06,
          1.25507329e-04, 6.15988320e-05, -1.37113929e-07,
          2.35198343e-07, -1.57834882e-06, 3.29012687e-06,
          6.44429019e-05, -7.52462370e-07, -1.22555468e-06,
          2.30440241e-06, -2.60416826e-04, -2.56691768e-04,
          -4.01853264e-04, 6.23491142e-05, 4.66046089e-07,
          -1.86591109e-07, 2.50820790e-07, -1.86217449e-06,
          -3.12300690e-04, 1.40075974e-06, 3.39377613e-04,
          2.01389895e-07, -6.99665907e-05, -5.23202471e-04,
          -5.23684779e-04, 1.01023693e-06, 3.11359167e-06,
          1.01023693e-06, 1.45636943e-06, 2.32718662e-06,
          -1.86961586e-06, -6.71475561e-07, 4.03535319e-04,
          9.08084473e-07, 5.84598529e-05, -5.24809060e-04,
          -5.25788113e-04, 1.05167737e-06, 1.05167737e-06,
          -3.72694497e-20, -1.89232395e-07, 6.29331771e-05,
          -4.65783614e-07, 1.61131055e-08, 1.58465045e-04,
          5.24144969e-04, 2.01859468e-04, -3.06750007e-04,
          -5.24736475e-04, 3.07215123e-06, 1.01023693e-06,
          2.02047386e-06, 3.57441377e-06, 6.33300660e-05,
          -2.62749751e-07, -1.06552511e-06, 1.21414625e-04,
          1.99677801e-04, 1.97937712e-04, -2.12303053e-06,
          -2.68177741e-04, -3.72694497e-20, -3.72694497e-20,
          1.05167737e-06, -3.37431266e-06, -7.52067024e-07,
          4.24602285e-06, -1.17087336e-06, 1.26708750e-04,
          5.24681469e-04, 1.99787784e-04, -5.46090106e-09,
          -3.03071056e-06, 5.09262509e-06, 1.05167737e-06,
          1.01023693e-06, 4.36987733e-07, 5.16597811e-06,
          -1.04184562e-06, -1.31496847e-06, 4.37585317e-04,
          5.24272269e-04, 4.55764704e-04, 1.59118906e-06, 0.,
          1.01023693e-06, -3.72694497e-20, 1.05167737e-06,
          -3.35535077e-07, 4.17781703e-05, 1.34726577e-06,
          2.54066003e-06, 3.37033125e-04, -1.27607709e-05,
          -6.64845265e-06, -8.36917025e-07, 0., -3.72694497e-20,
          1.01023693e-06, 3.07215123e-06, 1.92955372e-06, 4.40317344e-05,
          0., 2.08231586e-06, 7.13515110e-05, -6.76319978e-05,
          -9.77215495e-06, 6.99981342e-07, -2.10335475e-06,
          3.15503212e-06, -3.72694497e-20, 1.01023693e-06,
          1.38099423e-07, -1.83486850e-06, 1.25474241e-06,
          -2.63785637e-06, -2.92994315e-04, -7.01341560e-05,
          -1.33975365e-04, 1.60029472e-07, -8.17036437e-07,
          1.22555468e-06, -3.72694497e-20, -1.57450722e-06,
          1.64661685e-07, 2.14262604e-06, -1.27678650e-05,
          1.70389001e-06, 1.01884041e-06, 1.48728543e-06,
          -1.02484455e-06, -6.47454328e-07, -3.78735422e-07,
          3.78735422e-07, -2.80006179e-06, 7.87253612e-07,
          1.84718630e-07, -2.08036866e-07, -1.26787882e-06,
          -3.84320799e-07, 1.13300257e-06, -2.64952837e-06,
          -1.76689571e-06, 1.47535650e-06, 2.00749681e-04,
          -3.72694497e-20, -3.72694497e-20, 4.08518218e-07,
          1.83646796e-06, -6.57876683e-07, -3.53927561e-07,
          -5.33875834e-07, -7.09738401e-08, -8.31767807e-07,
          -1.72851117e-06, -3.41228861e-06, 1.04172141e-04,
          -2.77027902e-06, 4.08518218e-07, 3.78735422e-07,
          -5.52095685e-07, 9.76745014e-07, -8.03493435e-07,
          6.69912311e-07, 7.78010290e-05, -6.52704273e-07,
          1.92966036e-06, 1.63821736e-04, 3.48952625e-07,
          -3.72694497e-20, -1.57450722e-06, -7.87253612e-07,
          4.12420547e-07, -2.02141518e-06, 9.78301671e-08,
          5.13903409e-08, 8.78918797e-07, 1.16780575e-06,
          -2.35266953e-06, -4.42222037e-09, 4.08518218e-07,
          -3.78735422e-07, -3.72694497e-20, -5.95655898e-08,
          -3.19282458e-06, 1.07104358e-06, -3.03399565e-06,
          1.67290307e-06, -1.54967097e-06, 7.21919491e-07,
          8.68955965e-08, 1.50871870e-07, -3.72694497e-20,
          7.87253612e-07, -3.78735422e-07, -7.87253612e-07,
          1.90905735e-06, -1.59302863e-06, 2.94391725e-07,
          1.01943408e-06, 1.26483246e-06, -2.69407678e-06,
          3.21392463e-06, -1.51353356e-06, 2.97827949e-08,
          1.13620627e-06, 2.97827949e-08, -3.72694497e-20,
          -3.72694497e-20, -3.72694497e-20, -3.72694497e-20,
          -3.72694497e-20, -3.72694497e-20, -3.72694497e-20,
          -3.72694497e-20, -3.72694497e-20, -3.72694497e-20,
          -3.72694497e-20, -3.72694497e-20, -3.72694497e-20,
          -3.72694497e-20, -3.72694497e-20, -3.72694497e-20,
          -3.72694497e-20, -3.72694497e-20, -3.72694497e-20,
          -3.72694497e-20, -3.72694497e-20, -3.72694497e-20,
          -3.72694497e-20, -3.72694497e-20, -3.72694497e-20 ]
      - [ 2.34882975e-07, 3.23839714e-07, 3.06977569e-07,
          -4.96755831e-07, 1.30234028e-07, -8.74328464e-07,
          -1.53350527e-07, -3.33962902e-07, 9.64710978e-08,
          -5.80737264e-07, 9.64710978e-08, 1.60845261e-07,
          2.67970421e-07, 3.03572591e-07, -1.37145804e-07,
          1.61406675e-07, -2.31384593e-06, 1.04454261e-06,
          1.02588480e-07, 1.64686639e-07, 3.21690521e-07,
          -6.21241327e-07, 3.54424344e-07, -3.10034345e-08,
          3.65516939e-07, -1.04193430e-06, 4.54067219e-07,
          -6.00799808e-07, 8.36008496e-07, 2.11769304e-07,
          -3.02388344e-07, 5.16875787e-07, -9.19061733e-07,
          -2.97820435e-07, -4.91399533e-07, 1.12927478e-06,
          -1.15253135e-06, 5.70854127e-07, 2.56471200e-08,
          5.04037644e-07, -9.87624048e-07, -1.03002769e-07,
          -4.60153933e-05, -1.03002769e-07, 8.62457853e-07,
          3.21690521e-07, -6.20068690e-08, -3.61557682e-07,
          1.03390505e-06, -3.89287663e-07, -1.44344244e-06,
          4.10009816e-05, 1.11113106e-04, -4.49889114e-07,
          -2.94990429e-07, 8.48084746e-05, 1.57616032e-05,
          1.29614195e-08, -1.14835458e-07, 2.97820435e-07,
          -7.73556437e-08, 3.85891838e-07, 3.43609645e-05,
          1.10472683e-04, 2.00847623e-07, -3.15745510e-08,
          5.49388481e-08, 1.22466872e-07, 1.33212758e-04, 4.06938525e-05,
          1.60845261e-07, -1.90186074e-06, 7.91848208e-07,
          -5.99758607e-07, 4.49663872e-07, -7.30226893e-05,
          -1.20153762e-08, 2.99730694e-08, 1.65490036e-07,
          -2.95495482e-07, 1.24517654e-04, 4.08219639e-05,
          7.38444101e-07, 3.61557682e-07, -5.98129759e-07,
          -1.27339021e-07, -5.70995660e-08, -1.59343879e-04,
          -1.13687180e-04, -1.52133376e-04, -6.68975117e-05,
          5.04300942e-07, -2.88319796e-07, 4.07153530e-05,
          6.77626358e-21, 2.59683645e-07, 2.52049176e-07,
          -1.49855893e-07, -1.58820520e-04, -1.58905561e-04,
          -9.17510843e-05, 3.54194299e-07, -4.49430263e-05,
          1.45253637e-07, -2.96991439e-05, 2.47314091e-07,
          6.77626358e-21, 6.36406753e-07, -4.65752407e-07,
          4.43524016e-07, -1.59044765e-04, -1.58007679e-04,
          -1.49530249e-10, -1.83701914e-07, 1.58352632e-04,
          9.80103536e-08, -7.70833649e-05, 1.98388264e-07,
          1.54295628e-06, 1.18229773e-08, 9.33015258e-07,
          -8.56837971e-07, -1.57586474e-04, -1.59139541e-04,
          -5.54184553e-05, 1.02005761e-05, 1.11178364e-04,
          -3.68532262e-08, -1.56463604e-04, 6.77626358e-21,
          1.51872044e-08, 7.46261151e-07, -2.70560236e-07,
          1.77155911e-07, -1.58089853e-04, -1.58052702e-04,
          -5.58682586e-05, 5.10011232e-05, 9.92145142e-05,
          -1.08821283e-07, -1.59291900e-04, 1.70251133e-06,
          3.73130575e-07, 5.73845895e-08, -4.07312427e-07,
          8.37651214e-07, -1.58692623e-04, -1.58440016e-04,
          4.10865250e-05, 5.49706347e-05, 1.38779098e-04,
          -9.77677191e-05, -1.59102012e-04, 1.51872044e-08,
          5.90845161e-07, 9.75798685e-07, 9.99846361e-06,
          -4.59133190e-07, -1.57770162e-04, -1.58739946e-04,
          -2.44720013e-05, 1.58411305e-04, 8.12889921e-05,
          -1.18106254e-04, -1.59105330e-04, 5.12362249e-07,
          2.01752485e-07, 6.68511461e-07, 9.28522422e-06, 5.19009916e-07,
          -1.57287272e-04, -1.58977986e-04, -3.15416837e-05,
          9.33805422e-05, 6.65132538e-05, -7.67757447e-05,
          -1.59478455e-04, 4.00140749e-07, 3.10609778e-07,
          3.10609778e-07, -2.15961919e-07, 2.11377170e-07,
          -1.59047864e-04, -1.58194744e-04, 1.92369571e-05,
          9.22283289e-05, 6.68936918e-05, -1.14536837e-04,
          -1.59152667e-04, 5.95164806e-07, 2.95422581e-07,
          3.87273712e-06, 7.52685949e-08, -7.14904900e-07,
          -1.58816110e-04, -1.49251660e-04, 5.91339958e-05,
          9.23556436e-05, -1.82311342e-05, -1.59058094e-04,
          -1.59478455e-04, 6.77626358e-21, 6.77626358e-21,
          -1.04480591e-06, 1.02676196e-07, -3.27468200e-07,
          -2.61210080e-05, -1.32938745e-04, -3.80132718e-07,
          -3.19531495e-07, -1.27174673e-04, -1.58710493e-04,
          -1.59375457e-04, -1.03002769e-07, -2.92102300e-06,
          -1.03002769e-07, -6.26366088e-08, -8.18352703e-07,
          1.20664924e-06, -6.80937665e-05, -7.66632624e-08,
          3.73484937e-07, -1.48814550e-04, -1.58377370e-04,
          -2.62657049e-05, 6.77626358e-21, 6.77626358e-21,
          6.77626358e-21, 3.57114573e-07, 4.89725267e-07,
          -1.28082405e-07, 4.46993145e-05, 1.47296902e-07,
          4.18049183e-07, -1.48090665e-04, -1.58795112e-04,
          6.77626358e-21, -2.81802022e-06, 6.77626358e-21,
          -1.03002769e-07, -4.23174612e-07, -1.52794101e-07,
          -2.99541028e-07, 1.04693640e-06, 1.34414178e-04,
          -1.04354978e-04, -1.58595183e-04, -1.60926135e-07,
          -8.31411228e-07, 6.77626358e-21, -1.04480591e-06,
          -1.14780869e-06, -7.77282651e-07, -7.39400377e-07,
          5.55330587e-07, 2.40229781e-07, -2.08472031e-08,
          -3.35722717e-07, -1.88366585e-07, 1.25600224e-07,
          6.77626358e-21, -5.22402956e-07, 6.77626358e-21,
          -1.45681702e-06, -1.35964086e-07, 1.37690188e-06,
          1.10531857e-07, -7.13249761e-08, -1.68902248e-09,
          8.40026416e-07, -1.00501700e-06, 8.12877602e-07,
          6.77626358e-21, -1.03002769e-07, -5.22402956e-07,
          -5.22402956e-07, -2.43092245e-07, 2.59675176e-07,
          -2.96938765e-07, 3.75605055e-07, 1.08596502e-07,
          -1.34401191e-07, -4.65228140e-08, -5.52304371e-08,
          -5.22402956e-07, -3.09008300e-07, -5.22402956e-07,
          6.77626358e-21, 6.77626358e-21, 6.77626358e-21, 6.77626358e-21,
          6.77626358e-21, 6.77626358e-21, 6.77626358e-21, 6.77626358e-21,
          6.77626358e-21, 6.77626358e-21, 6.77626358e-21, 6.77626358e-21,
          6.77626358e-21, 6.77626358e-21, 6.77626358e-21, 6.77626358e-21,
          6.77626358e-21, 6.77626358e-21, 6.77626358e-21, 6.77626358e-21,
          6.77626358e-21, 6.77626358e-21, 6.77626358e-21, 6.77626358e-21,
          6.77626358e-21 ]
      - [ -6.77626358e-20, 2.49103039e-07, -5.15097895e-07,
          2.99787501e-07, 2.99787501e-07, -8.14885425e-07,
          5.99575003e-07, 2.82891193e-07, -2.53422314e-08,
          7.60266943e-08, -2.53422314e-08, -6.77626358e-20,
          4.22385611e-08, -6.77626358e-20, -1.60508336e-07,
          -1.03019579e-06, 1.74804063e-06, -6.77626358e-20,
          -6.77626358e-20, -5.57336477e-07, -6.77626358e-20,
          3.08233410e-07, -2.53422314e-08, -2.53422314e-08,
          -5.15097895e-07, 2.32206716e-07, -6.77626358e-20,
          5.48886021e-07, -5.06889855e-08, -1.18265255e-07,
          4.22385611e-08, 8.82466225e-07, 5.65782386e-07, 2.57548948e-07,
          2.82891193e-07, -1.08088022e-06, 5.99575003e-07,
          -6.77626358e-20, -3.37926593e-08, -6.77626358e-20,
          1.26715676e-07, -2.57548948e-07, -5.91348908e-08,
          -3.42026084e-07, -7.97989117e-07, -6.77626358e-20,
          -5.06844628e-08, 2.57548948e-07, -6.77626358e-20,
          -1.52057908e-07, 4.01160975e-07, -6.77626358e-20,
          -1.68954244e-07, 0., 1.43135674e-06, -6.56749835e-05,
          2.82891193e-07, -3.58917873e-07, 5.65782386e-07,
          -2.57548948e-07, -2.74445284e-07, -6.77626358e-20,
          2.82891193e-07, -5.15097895e-07, 2.53422314e-08,
          3.67368301e-07, -2.99787501e-07, 5.15097895e-07,
          -6.56749835e-05, -6.77626358e-20, -6.77626358e-20,
          1.13156477e-06, -3.58922392e-07, 4.22385611e-08,
          -2.53422314e-08, 5.15097895e-07, -2.91337074e-07,
          5.74232786e-07, 2.57548948e-07, 6.75807925e-08,
          -7.15968126e-05, 2.53422314e-08, -8.99357985e-07,
          -2.57548948e-07, 2.99787501e-07, -1.16535739e-06,
          -6.38624215e-06, 4.22385611e-08, 0., 3.62450714e-06,
          2.91341621e-07, -5.99575003e-07, 0., 2.82891193e-07,
          -6.77626358e-20, -5.06844628e-08, 1.56188059e-06,
          1.46787000e-08, -4.24470985e-04, -1.49103442e-07,
          2.07224206e-04, 4.24978352e-04, 2.74591002e-04,
          -5.37124492e-07, 0., -6.77626358e-20, 1.05136326e-06,
          -5.06844628e-08, 1.63889149e-06, 7.77519290e-07,
          -3.22289328e-04, -9.37967684e-07, 3.54431540e-04,
          4.24519880e-04, 4.25542734e-04, -2.97007887e-07,
          -4.59828954e-07, 9.70342398e-07, 1.11357252e-07,
          6.47212914e-07, -7.03432079e-07, 1.24003429e-06,
          -2.04260403e-04, -1.16853880e-06, 2.20881018e-04,
          4.26182873e-04, 2.32399369e-04, -3.11504493e-07,
          -1.43812780e-04, -6.46226908e-06, 4.85171199e-07,
          6.47212914e-07, 7.30688896e-07, 1.83094562e-06,
          -2.07630364e-04, 1.63921788e-06, 1.48244129e-04,
          2.30666352e-04, 2.29369762e-04, -5.40271799e-07,
          -1.44328282e-04, -5.32988497e-06, 3.24083430e-07,
          -2.53422314e-08, -3.33305729e-06, -1.20810751e-06,
          -4.21275443e-04, -2.61094328e-06, 1.63665434e-04,
          4.26938786e-04, 2.29559359e-04, -1.70730584e-06,
          -1.23233476e-04, 4.85171199e-07, -6.77626358e-20,
          1.77959691e-06, 1.38644521e-06, 1.03959621e-07,
          -3.03824258e-04, 6.32958916e-07, 3.37590347e-04,
          4.26965940e-04, 3.39203281e-04, 1.81274197e-06,
          -6.21870640e-07, -7.60266943e-08, 9.70342398e-07,
          4.09144491e-07, -9.10532378e-07, -9.03255795e-07,
          1.27959959e-06, 9.53765039e-07, 2.53639882e-04, 4.95369168e-05,
          2.76792445e-04, -1.88996501e-06, 0., 9.70342398e-07,
          3.24083430e-07, -2.53422314e-08, 1.64713049e-06,
          1.15630784e-04, 4.76315620e-07, 1.35575090e-06, 3.47654386e-05,
          -6.57875862e-05, -1.56698916e-05, 4.17384825e-07, 0.,
          9.45000124e-07, -6.77626358e-20, -6.77626358e-20,
          1.22142217e-06, -1.11666691e-06, -1.69102961e-07,
          -4.07352076e-07, -1.39470329e-04, -7.26059079e-05,
          -3.24039807e-04, 6.09022038e-07, -9.56414283e-07,
          1.43462137e-06, -6.77626358e-20, -1.26872851e-06,
          -4.32583107e-07, 1.77676498e-06, 2.86644994e-04,
          -3.71521878e-06, 8.41155554e-07, -2.18180518e-04,
          1.03862237e-06, -5.15084821e-07, -1.56157128e-07,
          1.56157128e-07, -2.70334976e-06, 6.34364255e-07,
          -1.42143381e-06, -8.61308592e-07, -2.35826587e-06,
          -5.11582925e-07, -8.07117786e-08, 1.11195710e-07,
          -1.50589801e-06, 1.11693168e-06, 1.61762888e-04,
          -6.77626358e-20, -6.77626358e-20, 4.78207141e-07,
          3.82009830e-07, 1.53045971e-06, 1.96059977e-06, 3.48781090e-04,
          1.23403913e-06, -3.19688320e-06, 8.95186247e-07,
          -1.32282491e-06, 1.21942816e-04, -2.38129996e-06,
          4.78207141e-07, 1.56157128e-07, 7.85856855e-07, 9.22179083e-07,
          -1.72064620e-06, -5.95384790e-06, 4.16399504e-04,
          6.61516538e-07, 5.11733901e-07, 1.15677678e-04,
          -1.65892857e-07, -6.77626358e-20, -1.26872851e-06,
          -6.34364255e-07, -9.58190071e-07, -2.55453256e-06,
          7.20142168e-07, 1.03854245e-06, 1.09789960e-06, 1.41461533e-05,
          -1.14421300e-06, -2.54064190e-07, 4.78207141e-07,
          -1.56157128e-07, -6.77626358e-20, -6.44099998e-07,
          -1.99614306e-06, 2.49672439e-06, -1.77397362e-06,
          -2.36776749e-08, -5.52258030e-07, 1.62609160e-06,
          -1.77610821e-06, 7.92189709e-08, -6.77626358e-20,
          6.34364255e-07, -1.56157128e-07, -6.34364255e-07,
          1.86673162e-07, 6.87373131e-07, -4.22348876e-07,
          9.15472810e-07, 1.93911683e-06, -1.76288495e-06,
          7.50505365e-07, -3.40980471e-08, 3.22049999e-07,
          4.68471399e-07, 3.22049999e-07, -6.77626358e-20,
          -6.77626358e-20, -6.77626358e-20, -6.77626358e-20,
          -6.77626358e-20, -6.77626358e-20, -6.77626358e-20,
          -6.77626358e-20, -6.77626358e-20, -6.77626358e-20,
          -6.77626358e-20, -6.77626358e-20, -6.77626358e-20,
          -6.77626358e-20, -6.77626358e-20, -6.77626358e-20,
          -6.77626358e-20, -6.77626358e-20, -6.77626358e-20,
          -6.77626358e-20, -6.77626358e-20, -6.77626358e-20,
          -6.77626358e-20, -6.77626358e-20, -6.77626358e-20 ]
      - [ 1.19879621e-06, -1.81078985e-06, 2.22131234e-06,
          -1.29659043e-06, 1.50564389e-07, -7.50426352e-07,
          -2.05442325e-06, 1.97776990e-06, 1.06173985e-07,
          -3.18521955e-07, 1.06173985e-07, -1.52465931e-20,
          -1.24773089e-06, 1.47431217e-06, -6.98845270e-07,
          2.59316471e-06, -7.70226507e-06, 4.58318755e-06,
          2.88231581e-06, -3.06749428e-07, -1.52465931e-20,
          -2.12347970e-07, 1.06173985e-07, 1.06173985e-07,
          3.30041962e-06, -4.00735962e-06, 4.72526722e-07,
          -1.51268466e-06, 4.92727168e-07, 2.96304592e-07,
          -1.30552763e-07, -3.15802367e-06, -2.12347970e-07,
          3.59989003e-20, -1.06173985e-07, 2.12347970e-07,
          -1.86836883e-06, 5.88943919e-07, 5.41828467e-06,
          2.51558981e-06, -3.42973590e-06, 7.12071426e-07,
          -4.84295342e-05, -7.34194259e-07, 1.06173985e-07,
          -1.52465931e-20, 2.12347970e-07, -6.17275260e-20,
          -9.89402551e-08, -1.59452054e-06, -5.08200264e-06,
          2.49618154e-07, 4.03238402e-04, -5.59763919e-07,
          9.03889827e-07, -6.02650607e-06, -1.06173985e-07,
          4.24695941e-07, -2.12347970e-07, -1.52465931e-20,
          3.24375463e-07, 5.45513149e-06, 1.03192060e-05, 3.76534677e-04,
          -3.14010526e-06, 8.38671838e-07, 3.55714818e-08,
          2.02271849e-07, -1.52465931e-20, -1.52465931e-20,
          -1.52465931e-20, -4.24695941e-07, -7.77575622e-07,
          -1.17165837e-06, 3.96937627e-04, -4.01449324e-06,
          2.23756388e-06, -5.90957711e-07, -3.46203342e-06,
          6.73089971e-07, 2.69681932e-05, -1.06173985e-07,
          5.30869954e-07, -1.52465931e-20, -1.09570874e-06,
          2.33822038e-06, 3.42374726e-04, 4.58753590e-07,
          -1.79998483e-06, -9.33362742e-07, 1.07258323e-07,
          4.82201870e-07, 0., -1.06173985e-07, -1.52465931e-20,
          2.12347970e-07, 7.32549381e-07, 1.33671307e-07,
          -1.12498867e-07, 4.70846658e-07, 1.18284217e-04,
          -3.85136154e-08, -1.00312400e-05, 3.42347818e-07, 0.,
          4.96479258e-09, -1.52465931e-20, -6.68125153e-07,
          1.23622158e-06, -8.67081440e-07, 6.44428212e-07,
          1.55334510e-06, 1.26972984e-04, 3.51471385e-07, 1.42853401e-06,
          -7.93138668e-07, -1.21301555e-08, 1.59483807e-06,
          -6.63160392e-07, 1.76819967e-07, 1.49777691e-06,
          3.10201330e-07, 3.46124466e-07, -2.53609619e-06,
          1.40772230e-04, 1.53254348e-06, -1.58762210e-04,
          8.04242688e-07, 0., -8.45529503e-05, -1.52465931e-20,
          -1.52465931e-20, 2.07233441e-07, 1.24043777e-06,
          4.81841980e-08, -4.92036456e-08, 1.36271919e-04,
          2.92288867e-04, 1.84479053e-04, -1.08729853e-06,
          6.58195574e-07, -8.53034071e-05, 1.71855177e-07,
          1.70949477e-08, -1.43686827e-06, -1.94782260e-07,
          -1.62239608e-04, 3.65449011e-07, 2.94987491e-04,
          4.54625697e-04, 2.17785928e-04, -1.19779870e-07, 0.,
          9.92958515e-09, -1.52465931e-20, -1.52465931e-20,
          8.55830137e-07, 3.03204160e-07, -3.25021829e-04,
          -1.42343997e-04, 3.96936492e-04, 4.52229287e-04,
          3.41852428e-04, 1.73342596e-06, -7.16536253e-09,
          -8.37779794e-07, 3.53639933e-07, -1.00963496e-06,
          4.68058289e-07, -1.27248938e-06, -4.53974091e-04,
          -3.64096020e-04, -2.61509031e-05, 3.07364498e-05,
          3.71033966e-04, -2.76789092e-06, 0., 4.38329989e-05,
          -1.52465931e-20, -1.64689808e-07, -1.03801574e-06,
          1.81169219e-06, -4.55757807e-04, -4.53912420e-04,
          -7.09918240e-05, -5.39801986e-05, -8.41886902e-07,
          8.38516542e-07, -3.53639933e-07, 4.34865251e-05,
          -1.52465931e-20, 1.76819967e-07, -4.34512515e-07,
          1.33413124e-07, -4.53844317e-04, -4.54953057e-04,
          -2.33866202e-04, -5.66556810e-05, 2.21696246e-04,
          -5.49751462e-07, 0., -1.52465931e-20, -1.52465931e-20,
          5.28566488e-07, 4.05926215e-07, -8.40091843e-07,
          -7.80788838e-08, -3.68265231e-04, -1.78003422e-04,
          8.86299972e-07, 4.30023590e-07, 6.41826034e-07, 2.64283244e-07,
          -2.64283244e-07, 5.28566488e-07, -2.64283244e-07,
          1.26599400e-06, -4.36972499e-07, 5.49243055e-07,
          -3.84474106e-06, 7.69799612e-07, -1.48336108e-08,
          -1.38030987e-06, 1.95262217e-07, -6.73922332e-05,
          -1.52465931e-20, -1.52465931e-20, -1.52465931e-20,
          1.03427635e-06, 1.21777873e-06, 1.91819458e-06, 2.95414240e-04,
          4.15555412e-08, 6.87772854e-07, 8.71898038e-08,
          -1.18464800e-06, -1.52465931e-20, 7.92849789e-07,
          -1.52465931e-20, -2.64283244e-07, 2.80692875e-05,
          -1.64555161e-06, -2.11351804e-07, 1.86480720e-05,
          3.23658634e-04, 9.04291710e-07, 1.83626270e-07,
          -8.55350372e-05, -5.28566488e-07, -1.52465931e-20,
          5.28566488e-07, 2.64283244e-07, 2.07671292e-06, 1.33548508e-06,
          1.75763023e-06, 2.46615264e-06, -5.15542297e-07,
          -1.64098913e-06, -1.33560050e-07, 1.85916829e-08,
          -1.52465931e-20, 2.64283244e-07, -1.52465931e-20,
          -5.28566488e-07, -4.36547998e-06, 2.34967752e-06,
          -1.27331464e-06, 5.20536048e-07, -1.32146863e-06,
          1.50361393e-06, 6.76824925e-07, -1.70926512e-07,
          -1.52465931e-20, -2.64283244e-07, 2.64283244e-07,
          2.64283244e-07, 1.49252469e-06, -1.90775722e-06,
          1.02755439e-06, 6.78555466e-07, 7.93070285e-07,
          -5.80393987e-07, -9.74971158e-07, -4.45822110e-07,
          2.64283244e-07, -7.92849789e-07, 2.64283244e-07,
          -1.52465931e-20, -1.52465931e-20, -1.52465931e-20,
          -1.52465931e-20, -1.52465931e-20, -1.52465931e-20,
          -1.52465931e-20, -1.52465931e-20, -1.52465931e-20,
          -1.52465931e-20, -1.52465931e-20, -1.52465931e-20,
          -1.52465931e-20, -1.52465931e-20, -1.52465931e-20,
          -1.52465931e-20, -1.52465931e-20, -1.52465931e-20,
          -1.52465931e-20, -1.52465931e-20, -1.52465931e-20,
          -1.52465931e-20, -1.52465931e-20, -1.52465931e-20,
          -1.52465931e-20 ]
      - [ 8.43027294e-07, 2.73390981e-07, -4.95378970e-07,
          9.96112362e-07, -1.04386640e-06, -1.49348170e-06,
          9.69265329e-07, 3.30200055e-05, 2.76146721e-07, 2.09250720e-06,
          4.05198364e-07, 3.97541589e-05, 9.22395088e-07,
          -1.18257151e-06, 7.52875948e-08, -1.34465381e-06,
          6.21346175e-08, 5.19020034e-07, -6.98314409e-07,
          3.31395386e-05, 3.29618597e-05, 1.65310803e-06, 2.76146721e-07,
          2.76146721e-07, -1.85308231e-08, 1.55898661e-07,
          2.86710389e-07, 1.60736548e-07, 6.73865259e-07, 4.84345719e-07,
          -4.50165942e-07, 3.31521987e-05, 3.43031679e-05,
          9.73649094e-07, 9.82452661e-07, 7.35039180e-07,
          -5.78803565e-07, 2.45081424e-06, 9.45535419e-07,
          -9.87726253e-07, 5.65075844e-08, -2.28930571e-06,
          8.88654313e-07, 3.87154870e-07, 3.02993755e-07, 2.68470330e-08,
          5.52293443e-07, 2.07635003e-06, 1.39855501e-06,
          -4.67016093e-07, -3.42270425e-07, 2.87011731e-04,
          1.61932418e-04, -8.40213772e-07, 1.62421798e-04,
          1.21046405e-05, 6.97502401e-07, 2.13193016e-06, 1.78215964e-06,
          0., -1.28220006e-06, 5.40923281e-07, 2.87540839e-04,
          1.61532371e-04, -7.09968731e-07, 1.77140441e-06,
          1.33101412e-06, 1.60325726e-04, 0., 7.74309740e-07,
          2.68470330e-08, 2.79000960e-06, 9.69265329e-07, 2.04563662e-06,
          2.85416812e-04, -2.58103256e-07, 8.45461102e-07,
          9.84912731e-07, -2.30245519e-06, 1.61900578e-04,
          7.11417670e-05, 6.97502401e-07, 1.38073369e-06, 0.,
          -1.73838544e-06, 1.30621871e-07, 2.00809009e-05,
          6.89724766e-06, -2.85040878e-04, -1.71008810e-06,
          -6.80569144e-07, 1.60067182e-04, 2.88034702e-04,
          7.51196467e-07, 1.29051628e-07, 8.10396728e-07, 7.53988957e-07,
          4.34843031e-07, 6.15589272e-07, -9.04193939e-07,
          -2.87585804e-04, -2.27527184e-04, -8.10926906e-07,
          2.87513976e-04, 2.88029056e-04, 8.44054782e-09, 4.84405618e-08,
          1.89848424e-06, -8.19272373e-07, 1.32166136e-07,
          -1.27426426e-06, 2.24892659e-07, 1.27749774e-06,
          -1.95441986e-04, -2.52865584e-06, 2.86348339e-04,
          2.87808769e-04, 1.24813951e-05, 5.13336545e-06, 1.80305705e-07,
          7.30509953e-07, -1.98634848e-06, 1.66520852e-06,
          7.61098249e-07, 5.06559275e-07, -1.43681464e-04,
          1.76476999e-06, 1.73121516e-04, 4.59295115e-05, 1.23523432e-05,
          1.45321678e-07, 2.81351586e-09, -1.35347739e-06,
          1.30023136e-06, -5.08970459e-07, 5.62703173e-09,
          -1.91248589e-07, -2.00603230e-04, -9.37353661e-07,
          1.70340078e-04, 8.14327677e-07, 5.00712713e-06, 2.81351586e-09,
          1.29051628e-07, -7.70560291e-07, 9.32550392e-08,
          -1.45482959e-08, 7.29767180e-07, 7.45629393e-07,
          -2.00165465e-04, 4.97154758e-07, 8.01543938e-05,
          1.38483756e-06, 0., 2.04380581e-06, 2.22411154e-06,
          4.27284220e-07, -4.96635948e-07, 1.85116971e-06,
          1.24582539e-06, -2.83834152e-06, -8.82955874e-07,
          -6.38083293e-05, 2.24892659e-07, 2.81351586e-09,
          1.00049613e-06, 0., 2.46313130e-06, -4.20568483e-07,
          -1.52343762e-06, -8.29049100e-07, 4.55412334e-07,
          2.87567382e-04, -6.77732203e-07, -6.26769106e-05,
          -2.09868381e-06, 0., 1.80305705e-07, 1.09737732e-06,
          9.49242121e-07, -8.12208270e-07, 1.34512516e-06,
          -5.48399214e-07, 2.86324444e-04, 2.41142174e-04,
          8.37865855e-07, -2.54726125e-04, 6.15321085e-07,
          9.54869165e-07, 4.84035979e-07, 9.54869165e-07, 0.,
          -1.83587701e-07, -6.47441652e-07, 2.09217342e-05,
          2.87254807e-04, 2.39839021e-04, -1.76782545e-04,
          -2.86446506e-04, -2.84250348e-07, 4.93863126e-07, 0., 0.,
          -1.31296963e-06, 5.93298410e-07, -5.73311468e-07,
          2.85092305e-04, 2.38492721e-04, -6.35048423e-07,
          -1.52524692e-04, -1.76342277e-04, -2.74305057e-04,
          -4.93863126e-07, 1.68619749e-07, 3.81449951e-07, 0.,
          -2.39309912e-07, 4.62607859e-05, 2.86821130e-04,
          1.25723862e-04, -4.25949878e-07, 7.33044772e-07,
          -2.25095187e-06, 1.83587701e-07, 5.62065843e-08,
          4.37656524e-07, 5.62065843e-08, -1.12413169e-07,
          8.03795714e-08, 4.74312692e-05, 1.69456602e-04, 1.46891318e-06,
          7.41182305e-07, -4.83283600e-07, -9.93582830e-07,
          -1.05864683e-06, -1.12413169e-07, 1.11827241e-04, 0.,
          -4.37656524e-07, -3.41650292e-07, -7.69154099e-07,
          2.85503738e-05, 1.71904117e-04, 2.50423149e-09, 2.67930375e-07,
          2.87734338e-07, 1.59514559e-06, -1.25935097e-04, 0., 0.,
          -5.62065843e-08, 2.81681906e-07, 4.18915846e-07,
          3.38214477e-07, -5.49475885e-07, -1.31077161e-06,
          -1.24719520e-06, -1.48126355e-06, -2.28179169e-06, 0.,
          1.10013946e-06, 4.37656524e-07, 3.25243377e-07, 3.54984365e-07,
          -6.06485344e-07, 3.04333344e-06, 5.98067118e-07,
          9.55667474e-07, 3.45215057e-07, -1.19478187e-07,
          3.82620925e-07, -4.37656524e-07, 0., -4.93863126e-07,
          5.50069728e-07, -2.39309912e-07, -2.81807957e-07,
          1.30621871e-07, 5.19890477e-07, -7.76685809e-08,
          4.22465888e-07, 4.84405618e-08, -4.11681810e-07, 0., 0.,
          1.31296963e-06, -1.48158938e-06, 0., 0., 0., 0., 0., 0., 0.,
          0., 0., 0., 0., 0., 0., 0., 0., 0., 0., 0., 0., 0., 0., 0., 0.,
          0. ]
      - [ 1.18823925e-06, 1.88819979e-06, -7.03982494e-07,
          2.48231936e-06, -1.40796499e-06, -2.24220207e-06,
          9.44099895e-07, 1.18823925e-06, -1.35525272e-19,
          5.04792115e-06, -1.35525272e-19, -1.35525272e-19,
          1.51500499e-04, 1.86780812e-06, 1.78235894e-06,
          -2.37245649e-06, 3.77639958e-06, 1.18823925e-06,
          2.44139358e-07, -7.03982494e-07, -1.35525272e-19,
          3.36528069e-06, -1.35525272e-19, -1.35525272e-19,
          2.10792541e-06, -1.35525272e-19, 1.18421724e-06,
          -7.03982494e-07, -1.09862853e-07, -4.63865092e-07,
          -2.50271114e-06, 3.32057834e-06, 3.36528069e-06,
          1.68264035e-06, 1.68264035e-06, -1.35525272e-19,
          -7.03982494e-07, 9.48121851e-07, 2.48231936e-06,
          -1.66847406e-06, 2.72645866e-06, -4.04093043e-06,
          2.83229974e-06, -1.35525272e-19, -1.35525272e-19,
          -1.35525272e-19, -1.35525272e-19, 3.36528069e-06,
          -1.35525272e-19, 1.09862853e-07, -7.03982494e-07,
          -1.35525272e-19, 1.78921415e-04, -5.55875840e-06,
          1.79426061e-04, -2.03916883e-08, 1.68264035e-06,
          1.68264035e-06, 3.36528069e-06, -1.35525272e-19,
          -2.50271114e-06, -8.13845361e-07, 1.99806254e-06,
          1.80349773e-04, -1.88819979e-06, 3.51991253e-06,
          1.55861119e-06, 1.78327289e-04, -1.35525272e-19,
          -1.35525272e-19, -1.35525272e-19, 6.73056138e-06,
          1.78235894e-06, -1.35525272e-19, -8.34237028e-07,
          -3.67055873e-06, 4.48440414e-06, 1.07435437e-06,
          2.11194742e-06, 1.77383190e-04, 1.68264035e-06, 1.68264035e-06,
          -1.35525272e-19, -1.35525272e-19, -1.29810212e-06,
          5.94119626e-07, 2.40117402e-07, 9.44099895e-07,
          -2.38633525e-04, -3.77639958e-06, -5.94119626e-07,
          1.80349773e-04, 4.29073290e-04, 1.68264035e-06,
          -1.35525272e-19, -1.35525272e-19, -1.96515816e-06,
          8.82961331e-07, -4.14259134e-08, 2.42373926e-06,
          -4.28395957e-04, -2.74654682e-04, -4.20793839e-07,
          4.14774287e-04, 4.29073290e-04, -1.35525272e-19,
          2.48231936e-06, 7.38540450e-07, 3.12113116e-07, 4.81077961e-07,
          -2.64868572e-06, 2.94566075e-06, 2.57451165e-06,
          -8.28492432e-07, 6.56713667e-07, 4.03897197e-04,
          2.40745474e-04, 4.37051904e-06, -1.35525272e-19,
          1.23294160e-06, 5.94119626e-07, -7.24261895e-07,
          5.45250941e-07, 3.56553983e-06, 4.33823479e-05,
          -5.62082676e-07, 5.94849007e-06, 4.13739559e-04,
          2.03262061e-06, 5.94119626e-07, 1.68264035e-06, 1.88819979e-06,
          -1.20220670e-06, -3.20369651e-08, -1.98647240e-06,
          4.82881842e-06, 4.25043778e-04, 1.15231524e-06, 9.83341621e-08,
          -9.43631022e-08, -1.35525272e-19, 1.53821952e-06,
          1.88819979e-06, 3.85968178e-06, -1.88282812e-07,
          1.14373358e-06, 3.90138439e-07, 3.97406666e-06, 2.75469356e-04,
          3.25635779e-06, -1.46768923e-06, 5.68566475e-06,
          -1.35525272e-19, 1.53821952e-06, 1.18823925e-06,
          3.15972125e-06, 1.03861373e-06, -1.31111130e-06,
          -4.66187259e-07, 1.03827108e-06, 2.39965789e-06, 0.,
          2.21636265e-06, 4.27858235e-04, 1.33266008e-06, 9.44099895e-07,
          1.68264035e-06, 1.18823925e-06, -2.25144709e-06,
          3.04069886e-06, -4.09687345e-06, 1.17468637e-07,
          5.77683409e-07, -1.88167644e-04, -2.57014426e-06,
          2.71402008e-04, 1.51500499e-04, 3.32057834e-06,
          -1.35525272e-19, 8.82961331e-07, -4.33406939e-07,
          -1.91273011e-06, 4.67885457e-07, 9.26229802e-07,
          -2.02293609e-06, -1.85511133e-04, -1.17577054e-06,
          2.73227808e-04, 4.29073290e-04, -1.35525272e-19,
          2.13233920e-06, 1.08852078e-06, -5.92738047e-07,
          8.96634390e-07, -8.96634390e-07, -1.35525272e-19,
          7.80427399e-07, -1.89881117e-04, -3.67055873e-06,
          2.73223792e-04, 4.28979925e-04, -1.22121628e-06,
          -1.35525272e-19, -1.39657701e-07, 9.26229802e-07,
          1.81809901e-06, -2.12004761e-06, 7.35777292e-07,
          -1.57909832e-04, 9.57206794e-07, 6.13371299e-07,
          -9.26229802e-07, 4.27950203e-04, -1.35702251e-07,
          7.14570206e-06, 1.44420852e-07, -1.21363769e-06,
          1.81948269e-06, 2.88841704e-07, 2.72646110e-04, 1.79608423e-06,
          1.44472233e-06, -1.18823925e-06, -6.75943681e-07,
          -1.18360520e-04, -1.35525272e-19, -3.14641488e-06,
          -1.95731582e-06, 2.37647851e-06, 3.15621691e-07,
          3.43835524e-07, -9.82605229e-07, -2.74156559e-06,
          -5.94119626e-07, -1.67511405e-06, -1.78235894e-06,
          -4.28886531e-04, 7.60644161e-06, -1.35525272e-19,
          -3.37004394e-06, -1.21783467e-06, -1.35525272e-19,
          -2.10832445e-06, -1.49885687e-04, 2.14406441e-06,
          -2.81261094e-07, -1.90606988e-06, -4.18097334e-04,
          -2.47586286e-04, -1.35525272e-19, 6.34006540e-07,
          2.24220207e-06, -3.15431485e-08, 2.37647851e-06,
          1.52931159e-06, -1.85998590e-06, 6.34624939e-07,
          -2.43428985e-06, -7.61173681e-07, -6.43219346e-06,
          -1.22121628e-06, 1.16472211e-06, -1.35525272e-19,
          4.75590411e-07, 3.15621691e-07, -7.29580336e-07,
          1.50386097e-06, 2.72645866e-06, 9.26229802e-07, 9.44099895e-07,
          -4.48317195e-07, 3.04069886e-06, -1.07203221e-06,
          1.44420852e-07, 5.59561613e-07, -4.80353549e-07,
          2.60627871e-07, -1.49833261e-06, 8.82961331e-07,
          -9.09741345e-07, 1.10639076e-06, 1.33266008e-06,
          1.22536301e-06, -1.07203221e-06, 1.53821952e-06,
          4.33262556e-07, 9.27611381e-07, -3.54658164e-06,
          -1.35525272e-19, -1.35525272e-19, -1.35525272e-19,
          -1.35525272e-19, -1.35525272e-19, -1.35525272e-19,
          -1.35525272e-19, -1.35525272e-19, -1.35525272e-19,
          -1.35525272e-19, -1.35525272e-19, -1.35525272e-19,
          -1.35525272e-19, -1.35525272e-19, -1.35525272e-19,
          -1.35525272e-19, -1.35525272e-19, -1.35525272e-19,
          -1.35525272e-19, -1.35525272e-19, -1.35525272e-19,
          -1.35525272e-19, -1.35525272e-19, -1.35525272e-19 ]
      - [ 1.27823299e-08, 7.68002977e-08, -5.12867132e-07,
          8.03646685e-07, -7.42953830e-07, -8.87943031e-07,
          3.29084713e-07, 4.33981398e-07, -2.20228566e-20,
          1.82844758e-06, -2.20228566e-20, -2.20228566e-20,
          2.55390830e-07, 8.99296253e-07, 3.96828284e-07,
          -6.23627045e-07, 2.76209391e-07, 5.90076070e-07,
          -3.91096194e-07, -9.69454959e-07, 7.03724368e-08,
          5.87375837e-07, 1.17715715e-07, -2.20228566e-20,
          4.36475489e-07, 2.31020067e-07, 3.10978919e-07, 3.09592082e-07,
          -4.03172237e-07, -7.05392097e-07, 3.23337218e-07,
          3.97980358e-07, 7.03724368e-08, 3.92385715e-08, 7.03724368e-08,
          2.30216006e-06, -1.65362422e-07, 8.87418253e-07,
          2.51430464e-07, 2.19389804e-07, 3.32191149e-07,
          -4.29628500e-07, -2.31465862e-07, -9.15020095e-08,
          1.68365034e-06, 1.05558655e-07, 1.17715715e-07, 7.75464002e-07,
          3.83600167e-07, 2.30400900e-07, -3.91096194e-07,
          1.10306786e-07, 5.40554424e-07, -1.58213588e-04,
          1.01901587e-05, 1.58207971e-04, 9.05096294e-06, 1.09627456e-06,
          7.03724368e-08, 5.83323470e-07, 2.17829111e-07,
          -5.96762163e-07, 9.76188517e-08, 3.83600167e-07,
          -1.58521856e-04, -8.15576495e-05, -2.17829111e-07,
          1.58072609e-04, 1.58714087e-04, 1.89783223e-05, 1.17715715e-07,
          -2.20228566e-20, 1.09694902e-07, 4.35658222e-07,
          9.49751268e-07, -1.58674840e-04, -1.56891067e-04,
          7.76929937e-07, 1.20595018e-07, 9.95509399e-05, 1.58126713e-04,
          1.95264583e-05, 1.67959797e-06, 6.57748274e-07,
          -2.67648403e-07, -2.57922096e-07, -6.33258935e-07,
          5.10781661e-07, -1.09805522e-04, -1.16549495e-06, 0.,
          9.90934423e-05, 1.58753319e-04, -2.20228566e-20,
          3.92385715e-08, 7.03724368e-08, 1.19933247e-06,
          -4.62931723e-07, -2.97773965e-07, -6.34183763e-08,
          -8.86887932e-08, 6.86097863e-08, 7.71590067e-07,
          1.57044880e-04, 1.58753319e-04, -2.20228566e-20,
          -2.20228566e-20, 7.84771430e-08, -5.29657598e-07,
          1.23609038e-06, -3.70890575e-07, 9.16414319e-06,
          1.57139686e-04, 4.22199719e-07, -7.02890304e-07,
          1.18297736e-04, 1.57586677e-04, 1.28436272e-06,
          -2.20228566e-20, 6.22562084e-07, 1.64753331e-07,
          -6.47068010e-10, -2.78014369e-07, 8.67064773e-06,
          1.58319424e-04, -9.24266374e-07, -3.71695137e-08,
          1.14178794e-04, 1.58714087e-04, -2.20228566e-20,
          7.84771430e-08, -2.20228566e-20, -3.27618714e-08,
          -3.22621901e-07, -2.59846900e-07, 2.84576327e-05,
          2.92231180e-05, 2.92906002e-08, -3.13839223e-07,
          1.18996075e-04, 1.58753319e-04, 1.74997047e-06, 5.83323470e-07,
          1.28436272e-06, 2.83847641e-07, -9.76405001e-09,
          2.06966706e-05, 1.56666822e-04, 3.81932696e-05,
          -1.19727651e-04, 9.02499494e-07, 1.56850452e-04,
          1.58753319e-04, -2.20228566e-20, -2.20228566e-20,
          -2.20228566e-20, 1.51971676e-07, -8.34862647e-07,
          1.58056733e-04, 1.57699105e-04, 1.18398835e-04, 5.11544215e-07,
          9.66945990e-08, 1.58678900e-04, 1.57468967e-04, 1.05891595e-05,
          1.20588550e-06, 3.92385715e-08, -3.47950532e-07,
          8.63309708e-08, 1.58249502e-04, 1.57098257e-04, 1.20182260e-04,
          -4.27360447e-07, -4.80028859e-07, 1.41702578e-04,
          1.58753319e-04, 1.58635608e-04, -2.20228566e-20,
          5.83323470e-07, -1.12122017e-07, -6.57667101e-07,
          1.57665636e-04, 1.58524417e-04, 1.14340517e-04, 6.28058530e-08,
          5.56149296e-08, 8.25085663e-05, 1.57468967e-04, 1.58753319e-04,
          7.84771430e-08, 5.83323470e-07, -4.09717806e-08,
          -6.42827104e-07, 7.62534683e-06, 1.58500305e-04,
          1.52954846e-04, 4.57182296e-07, -2.53015344e-07,
          8.28819830e-05, 1.58396608e-04, 1.57110262e-04, 9.17407704e-07,
          -9.78553203e-07, 3.09834235e-07, 7.36277798e-07,
          -5.24323070e-07, -1.32835885e-06, -1.57155519e-04,
          5.88715920e-07, -3.29139766e-07, 5.56842110e-07,
          1.58058931e-04, 1.57185714e-05, 3.05321670e-08,
          -1.38879511e-06, -6.97331359e-07, -1.29823604e-07,
          1.75178187e-07, -1.59632509e-05, -1.58122115e-04,
          -4.70819650e-05, -5.85036503e-07, -2.30126233e-07,
          8.22344591e-05, 7.32277067e-06, 1.11369957e-06, 7.03724368e-08,
          -1.56177705e-07, -6.49118022e-08, 5.66938780e-08,
          -1.57579663e-04, -1.58137773e-04, -4.71859603e-05,
          -1.31859679e-08, 2.44693979e-07, 7.92238154e-07,
          -5.17545195e-05, -2.20228566e-20, -1.47650883e-06,
          3.91773085e-07, -5.44862417e-07, -1.27357748e-06,
          -2.07492758e-05, -1.56278795e-04, -1.58315728e-04,
          -8.25479365e-05, 6.48367518e-07, -4.12222907e-05,
          7.03724368e-08, 9.19758520e-07, -2.20228566e-20,
          -7.45058458e-07, 6.13508007e-07, 7.77002185e-07,
          -2.91254679e-07, -3.18153184e-07, -1.94692458e-08,
          -1.94735406e-07, 8.04052888e-06, -6.41052225e-08,
          -9.79359811e-07, 9.15965046e-08, -4.63657159e-07,
          3.31030833e-07, -5.54391590e-07, 2.86671415e-08,
          -4.68247094e-07, 1.02614297e-06, 5.70851284e-07,
          1.10828967e-06, 2.68020386e-07, 5.56037094e-07, 6.22562084e-07,
          3.51862184e-08, 2.66583157e-07, -2.49384101e-07,
          -4.18180974e-08, 1.70759236e-07, 4.47423417e-07,
          8.71510863e-08, 1.73040462e-08, 4.74640046e-07,
          -8.07523691e-07, 6.57183890e-08, 5.56843645e-07,
          -2.35313323e-07, 1.01711187e-07, 1.95840767e-05,
          -2.20228566e-20, -2.20228566e-20, -2.20228566e-20,
          -2.20228566e-20, -2.20228566e-20, -2.20228566e-20,
          -2.20228566e-20, -2.20228566e-20, -2.20228566e-20,
          -2.20228566e-20, -2.20228566e-20, 1.95840767e-05,
          -2.20228566e-20, -2.20228566e-20, -2.20228566e-20,
          -2.20228566e-20, -2.20228566e-20, -2.20228566e-20,
          -2.20228566e-20, -2.20228566e-20, -2.20228566e-20,
          -2.20228566e-20, -2.20228566e-20 ]
      - [ 4.54878744e-07, 7.70538193e-08, 1.29056730e-06,
          -2.71050543e-20, -2.19417259e-07, -1.37350924e-06,
          5.58111935e-07, 4.87112800e-07, 1.20235836e-06,
          -2.71050543e-20, 1.14192699e-06, 1.14192699e-06,
          7.31867999e-07, -1.53861447e-06, 2.12873829e-06,
          -1.60997877e-06, -2.71050543e-20, 2.08631604e-06,
          -1.10969290e-06, 5.79927359e-08, -2.71050543e-20,
          1.08829204e-06, -2.71050543e-20, 1.73630986e-06,
          7.70998270e-07, 9.86811301e-07, -3.65660014e-07,
          3.40672000e-06, -5.96821451e-07, -1.47668686e-06,
          2.02263391e-06, 1.05127947e-06, 1.07270004e-07,
          -2.71050543e-20, -2.71050543e-20, 7.08449193e-07,
          -4.42713826e-07, 1.41942706e-07, -2.71050543e-20,
          -1.15467924e-06, 2.52860923e-06, -1.41573275e-06,
          7.95328106e-07, -2.71050543e-20, -2.71050543e-20,
          1.68947122e-06, 2.76417040e-06, -2.71050543e-20,
          5.64166612e-07, -1.54694973e-07, 6.99213217e-07,
          1.96487235e-05, 1.78228904e-04, 0., 1.69610154e-04,
          3.09301511e-04, 1.42781046e-05, 1.20235836e-06,
          -2.71050543e-20, 8.15719204e-07, -9.16034310e-07,
          3.58343101e-07, -1.31729987e-08, 1.72274013e-04,
          -1.69249995e-06, 3.36937637e-06, 4.54624626e-07,
          1.79051422e-04, 2.89935386e-04, 1.20235836e-06, 8.69354210e-07,
          1.57540478e-06, 2.40332997e-06, 1.96444262e-06,
          -8.65550828e-06, -2.58702266e-06, 3.75347804e-06,
          -2.20010270e-06, 2.02162573e-06, 1.60409167e-04,
          1.24213766e-04, -2.71050543e-20, -2.71050543e-20,
          -2.71050543e-20, -1.12875398e-06, 1.46133846e-06,
          -8.77068396e-06, 1.21483154e-05, 2.05385982e-06,
          -1.66322803e-04, -1.88478094e-04, -1.30224536e-04,
          -2.71050543e-20, 1.79674123e-06, 9.74225600e-07,
          6.01179181e-07, -1.94734503e-06, 2.52510631e-06,
          -3.81609084e-07, 1.22508891e-05, -1.38985186e-07,
          -1.84029777e-04, -3.10159870e-04, -4.01088840e-07,
          2.43796171e-06, -2.71050543e-20, 2.43796171e-06,
          -2.71050543e-20, -4.97500441e-09, -1.34305253e-06,
          1.35691153e-07, 3.10319505e-04, 3.00742802e-04,
          -1.21542143e-06, -3.26444242e-05, -1.29425928e-06,
          -2.71050543e-20, 1.21898086e-06, 1.21898086e-06,
          -2.71050543e-20, 2.29747616e-06, 8.60000213e-08,
          -2.88524092e-07, 3.10353003e-04, 2.59793596e-04,
          1.24085020e-07, 3.07722894e-06, 2.59102468e-04, 1.21898086e-06,
          1.21898086e-06, -2.71050543e-20, -2.71050543e-20,
          -1.22438905e-06, 2.07742630e-07, -5.93668346e-07,
          8.01858369e-06, 2.62138841e-04, 1.48983281e-06,
          -8.73880936e-07, 2.91286968e-04, -2.71050543e-20,
          -2.71050543e-20, -2.71050543e-20, 1.21898086e-06,
          -9.74567229e-07, 1.61686251e-06, 8.68048119e-07,
          -1.07477128e-07, -9.25467248e-07, 6.69863198e-07,
          6.06125425e-08, 3.09514260e-04, 3.10840114e-04, 1.21898086e-06,
          1.21898086e-06, -2.71050543e-20, 9.93006779e-07,
          -9.25298593e-07, -3.16732581e-07, 2.83296032e-07,
          -1.55318105e-06, -1.57462360e-04, 1.35349092e-06,
          3.09679541e-04, 3.10840114e-04, -2.71050543e-20,
          -2.71050543e-20, 1.21898086e-06, -1.29698537e-06,
          1.88732031e-06, -2.59534409e-06, 2.58821217e-07,
          1.60905003e-07, -1.58107112e-04, -7.16729147e-08,
          2.03914926e-04, 3.10840114e-04, -2.71050543e-20,
          -2.71050543e-20, 1.21898086e-06, -7.09302753e-07,
          -1.34197387e-06, -5.62569426e-07, 1.20435277e-06,
          -3.83194163e-07, -1.55812828e-04, -1.04118851e-06,
          2.04087395e-04, 3.08402145e-04, 3.65694245e-06,
          -2.71050543e-20, -2.71050543e-20, -7.95989365e-07,
          2.93451922e-06, -1.11884754e-06, 9.41991573e-07,
          1.68605300e-06, -1.65682024e-04, -3.21090070e-08,
          2.04837823e-04, 3.10549105e-04, -8.30181079e-07,
          -2.71050543e-20, -8.09792482e-08, 1.69956218e-06,
          -5.37342999e-07, 1.34613788e-06, -8.31356488e-07,
          -1.52400258e-04, 1.74513661e-06, 1.71446231e-06,
          -2.25599388e-06, 3.10273608e-04, -8.19421473e-07,
          5.47476247e-06, 5.36350022e-08, 1.08764652e-06,
          -7.63218168e-07, 7.65064442e-07, 1.36704708e-04,
          -5.34875483e-07, 3.67928379e-07, -2.11055564e-07,
          3.40054612e-07, -9.20470848e-05, -2.71050543e-20,
          -2.36647156e-06, -1.02574290e-06, -1.24858957e-07,
          2.18164337e-06, -1.90590908e-05, 1.37322377e-06,
          8.82496749e-07, -7.41934940e-08, 4.15355942e-07,
          -1.65295874e-04, -3.10258067e-04, 4.76992363e-06,
          -2.71050543e-20, -2.41061730e-06, 1.16093202e-06,
          -8.08588311e-07, -1.77791189e-05, -5.57771527e-05,
          1.23970801e-06, 1.15549176e-06, -1.65804653e-04,
          -3.04376765e-04, -1.29455977e-04, -2.71050543e-20,
          6.70329541e-07, 1.87145520e-06, -1.16419722e-06,
          9.32784985e-07, -1.07090204e-06, -2.27906384e-07,
          -9.39970676e-07, -2.10077883e-06, 1.20009133e-06,
          -3.00017496e-06, -8.30181079e-07, 1.27053323e-09,
          -2.71050543e-20, 6.89307626e-07, -4.15090540e-07,
          4.71921936e-07, 2.24860628e-06, -2.59150340e-07,
          1.63098628e-06, 1.46133846e-06, -2.95331660e-07,
          1.50762094e-06, -8.03890316e-07, 5.36350022e-08,
          6.52474341e-07, -6.61963384e-07, -7.73172417e-07,
          -1.18451533e-06, 1.12698615e-06, -4.59236475e-07,
          4.72412495e-07, 1.65417632e-07, -1.55598542e-07,
          4.61354176e-07, 1.16534579e-06, 1.60905003e-07, 7.50255310e-07,
          -1.95370490e-06, -2.71050543e-20, -2.71050543e-20,
          -2.71050543e-20, -2.71050543e-20, -2.71050543e-20,
          -2.71050543e-20, -2.71050543e-20, -2.71050543e-20,
          -2.71050543e-20, -2.71050543e-20, -2.71050543e-20,
          -2.71050543e-20, -2.71050543e-20, -2.71050543e-20,
          -2.71050543e-20, -2.71050543e-20, -2.71050543e-20,
          -2.71050543e-20, -2.71050543e-20, -2.71050543e-20,
          -2.71050543e-20, -2.71050543e-20, -2.71050543e-20,
          -2.71050543e-20 ]
      - [ -1.09375563e-07, -1.58115654e-07, 5.83124624e-08,
          -7.90578270e-08, -3.90251557e-07, 9.43999456e-09,
          -4.19033256e-07, -3.38813179e-20, 3.16151194e-08,
          2.40131357e-07, 2.44445062e-07, 2.44445062e-07, 9.87649400e-07,
          2.75468693e-07, 9.19381364e-07, -1.22906229e-07,
          4.49427802e-07, 9.75059180e-08, -2.76693640e-07,
          1.17755496e-06, -3.38813179e-20, 3.24488838e-07,
          -3.38813179e-20, 4.73082537e-07, 2.60637705e-07,
          -8.63439169e-08, -1.60300061e-07, 4.25949395e-07,
          3.46693270e-07, -1.06708285e-06, 1.09584630e-06,
          -3.38813179e-20, -3.38813179e-20, -3.38813179e-20,
          -3.38813179e-20, 3.35982691e-07, 6.93812012e-07,
          -3.38813179e-20, 4.81867026e-08, 5.22070195e-07,
          -1.13435732e-07, -1.74644882e-07, 6.07229083e-07,
          8.02734576e-07, 2.40131357e-07, 2.60252619e-07, 9.30357544e-07,
          8.00437832e-08, 1.74918554e-07, 5.47005698e-07, 2.80931545e-07,
          -3.79748798e-07, 2.63321435e-05, 5.23634291e-08,
          7.65563091e-05, 1.15322677e-04, 1.58075597e-08, 1.91702682e-07,
          -3.38813179e-20, 9.58513411e-08, -6.84102474e-07,
          8.61211674e-07, -1.40205984e-07, 1.05289610e-05,
          -4.90521131e-07, 5.53305711e-07, -1.60916869e-07,
          9.22613472e-05, 8.27130352e-05, 3.16151194e-08, 1.58075597e-08,
          4.73082537e-07, 7.40834764e-07, 5.39495431e-07,
          -1.48916615e-05, -8.78129640e-07, 1.23620976e-06,
          1.65143310e-09, 2.51787264e-06, 8.43037633e-05, 7.86336823e-05,
          8.00437832e-08, 2.40131357e-07, 8.00437832e-08,
          -4.52837156e-07, 4.37081411e-07, -1.47272458e-05,
          7.80543778e-05, 6.35653379e-08, -5.16702812e-07,
          -1.35277107e-04, 3.92699112e-05, 2.04111639e-05,
          2.60252619e-07, 4.57274979e-07, 1.58075597e-08,
          -8.59350678e-07, -3.17315227e-07, 3.30457660e-05,
          1.67266728e-04, 4.94718355e-09, -1.48554522e-04,
          -1.81320094e-04, -3.32328312e-07, 1.16568049e-06,
          1.30614325e-07, 1.29629484e-06, 1.30614325e-07, 1.55523566e-07,
          -2.99056211e-07, 1.80218529e-04, 1.79893512e-04,
          1.66083380e-04, -1.47037194e-04, -1.60823780e-04,
          -3.59250720e-07, -3.38813179e-20, 5.82840244e-07,
          5.82840244e-07, -3.38813179e-20, -9.35864577e-08,
          -1.19093350e-07, 1.81702082e-04, 1.81273892e-04,
          1.81192314e-04, -5.49100434e-07, 2.98611127e-07,
          1.60078866e-06, 5.82840244e-07, 8.44068893e-07, 1.30614325e-07,
          2.61228649e-07, 1.89327650e-07, 1.43894923e-07, 1.80213916e-04,
          1.80910094e-04, 1.57738541e-04, 1.48690663e-06,
          -2.31276317e-07, 1.79899012e-04, 3.33066528e-05,
          -3.38813179e-20, -3.38813179e-20, 5.82840244e-07,
          -7.96134216e-08, -1.08751870e-07, 1.81453128e-04,
          1.80065559e-04, 1.57107017e-04, 5.40590293e-07, 7.20273476e-08,
          1.81743744e-04, 1.81539071e-04, 1.10529754e-06, 5.82840244e-07,
          1.30614325e-07, 3.05774108e-07, -3.35521264e-08,
          1.81023832e-04, 1.80743489e-04, 1.55853049e-04,
          -1.78421686e-07, 6.81906840e-07, 1.81051422e-04,
          1.81930911e-04, 1.30614325e-07, -3.38813179e-20,
          5.82840244e-07, -6.80181188e-07, 4.20931144e-07,
          1.79793118e-04, 1.81347743e-04, 1.43826634e-04,
          -1.03542370e-04, -1.02914593e-04, 1.34804970e-04,
          1.81930911e-04, -3.38813179e-20, 1.30614325e-07,
          8.44068893e-07, -2.07022183e-07, -4.13819862e-07,
          1.81161537e-04, 1.81140203e-04, 7.81974595e-05,
          -1.81050069e-04, -1.03123602e-04, 1.28265325e-04,
          1.80765230e-04, 1.74852073e-06, -3.38813179e-20,
          1.30614325e-07, -2.08777475e-08, 7.57239320e-08,
          1.81263502e-04, 1.81748706e-04, 7.86509845e-05,
          -1.80815245e-04, -6.88476575e-05, 1.27473351e-04,
          1.81487470e-04, -7.38809717e-07, -2.61817146e-08,
          -4.51795785e-07, 1.67708322e-07, 6.38900474e-07,
          -1.13937585e-06, 1.80607254e-04, -3.78125478e-08,
          6.57772290e-08, -7.07218533e-07, 1.28984493e-06,
          1.81285344e-04, 1.15236915e-07, 1.70109809e-06, 5.56364284e-07,
          1.24280220e-07, -1.23521295e-06, -3.55334855e-08,
          4.47405837e-05, -3.26282787e-07, 5.63237336e-07,
          -8.22547065e-07, 1.25574644e-07, 3.88410808e-05,
          -5.23634291e-08, -2.88633328e-06, 1.46421883e-07,
          4.40029680e-07, 1.79930701e-08, -5.69982035e-08,
          -8.96122001e-05, -6.93130801e-07, 6.55064980e-07,
          1.20806317e-06, -3.55287114e-07, -1.44265956e-04,
          -5.97206281e-06, 1.46421883e-07, -1.83498980e-06,
          1.84277781e-07, -1.24105122e-06, 6.74348144e-07,
          -6.09213239e-05, -8.49222633e-05, -1.68020017e-06,
          -1.28087365e-07, -5.75583908e-05, -4.97523934e-06,
          -3.38813179e-20, -2.14669717e-06, 7.13454597e-07,
          -2.40283015e-07, 2.31164464e-07, -7.09647452e-07,
          -3.86198650e-07, 5.32860668e-07, -4.05930507e-07,
          4.34214087e-07, 2.06434734e-07, -9.26926646e-07,
          -4.82154178e-07, -3.38813179e-20, 1.09005532e-06,
          -6.99458781e-07, 7.77528157e-07, 8.96980339e-07,
          -6.72251232e-08, 4.36940439e-07, 5.49053311e-07,
          -2.37643192e-07, 6.80017877e-07, -1.76780304e-07,
          7.13454597e-07, 1.46421883e-07, -1.91121990e-06,
          3.88965731e-07, -1.41580745e-06, 6.13076224e-07,
          1.33905843e-07, 6.81809524e-07, -7.84905353e-07,
          -1.39748721e-07, 5.50983145e-07, 2.92843765e-07,
          1.70109809e-06, -2.70012208e-07, -5.36674293e-07,
          -3.38813179e-20, -3.38813179e-20, -3.38813179e-20,
          -3.38813179e-20, -3.38813179e-20, -3.38813179e-20,
          -3.38813179e-20, -3.38813179e-20, -3.38813179e-20,
          -3.38813179e-20, -3.38813179e-20, -3.38813179e-20,
          -3.38813179e-20, -3.38813179e-20, -3.38813179e-20,
          -3.38813179e-20, -3.38813179e-20, -3.38813179e-20,
          -3.38813179e-20, -3.38813179e-20, -3.38813179e-20,
          -3.38813179e-20, -3.38813179e-20, -3.38813179e-20 ]
      - [ 1.12660973e-06, 8.39618110e-07, -3.69372515e-07,
          7.43725437e-08, 6.53850861e-07, -1.83349698e-06,
          1.10971814e-06, -6.77626358e-20, 1.48745087e-07,
          3.68335805e-06, 1.48745087e-07, -6.77626358e-20,
          7.62279399e-07, -5.98490146e-07, 1.73700229e-07,
          1.06645484e-06, 2.49921300e-07, 1.45535648e-06,
          -5.81752261e-07, -6.10819271e-08, 4.99102946e-08,
          1.27720341e-06, 7.43725437e-08, -6.77626358e-20,
          -7.31011127e-08, 1.19388289e-06, 7.64121808e-07,
          -1.55507081e-07, 1.35410835e-06, 1.54445263e-06,
          -2.01761168e-06, 2.34778145e-06, 1.24282835e-07,
          7.43725437e-08, 4.99102946e-08, 4.86123372e-06, 1.25224119e-06,
          6.20384981e-07, 7.43725437e-08, -2.48249592e-07,
          7.44660565e-06, 2.74894410e-06, 6.93044376e-06, 4.47871258e-07,
          3.60849253e-06, 7.48654472e-08, -6.77626358e-20,
          1.32711364e-06, 1.21235951e-06, -6.89837066e-07,
          3.51693615e-07, 1.96211520e-04, 1.34306596e-04,
          -1.87545663e-06, 1.36948511e-04, 3.29153088e-04,
          2.53285616e-05, 2.48003425e-06, 1.24282835e-07, 1.22778602e-06,
          -1.44216563e-06, 1.33644880e-06, 1.76131914e-04,
          1.34687652e-04, -8.76904892e-07, 1.56592216e-06,
          1.49087759e-06, 1.34532063e-04, 3.32050433e-04, 6.36356253e-06,
          -6.77626358e-20, 7.43725437e-08, 1.47748608e-06,
          1.74193133e-07, -3.61974799e-07, -1.11076275e-04,
          2.87494481e-06, 1.36083645e-06, 1.11079771e-06, 1.35171518e-04,
          3.30847601e-04, 7.56639338e-06, 3.63344770e-06, 1.32711364e-06,
          -1.45572449e-06, 2.28271688e-06, -1.19734420e-06,
          6.92809351e-07, -3.03156849e-04, -3.13159311e-04,
          -1.84514938e-04, 1.35702212e-04, 3.31901683e-04,
          2.23117638e-07, -6.77626358e-20, 4.99102946e-08,
          5.04045829e-07, 1.98655385e-07, 1.10645135e-06, 2.76724990e-07,
          -3.31975549e-04, -3.29200411e-04, -2.11277584e-04,
          3.30405106e-04, 9.41513426e-05, 7.43725437e-08,
          -6.77626358e-20, 5.89696810e-07, -4.02173043e-07,
          1.33620836e-06, -2.40734903e-06, 1.87051603e-06,
          2.62146341e-06, -2.30893973e-04, -4.72333511e-07,
          2.09525315e-04, 7.52607157e-05, 7.43725437e-08, 1.47424203e-06,
          -6.77626358e-20, 8.97934569e-07, 1.15162049e-06,
          3.28483793e-07, 1.27499936e-06, -3.10800857e-07,
          -7.16495051e-05, 3.33380058e-06, 1.96543173e-04,
          -6.77626358e-20, -6.77626358e-20, -6.77626358e-20,
          2.97490175e-07, 2.94910166e-07, 4.63833061e-08,
          -8.26967266e-07, 2.01429702e-06, 1.57095405e-06,
          -1.72685075e-04, -7.15477256e-07, 2.09632213e-04,
          7.43725437e-08, 1.54861459e-06, 1.48745087e-07,
          -6.77626358e-20, -5.88094849e-07, 1.99815941e-06,
          -3.28986062e-07, -1.89216621e-06, 1.27783915e-06,
          -1.72182918e-04, 1.60013064e-06, 2.44451639e-05,
          2.94848405e-07, -6.77626358e-20, 5.89696810e-07,
          7.38441940e-07, -3.52132794e-08, -1.91700951e-06,
          3.92160246e-06, -1.47847743e-07, -3.29524232e-06,
          -9.37275900e-07, -4.74601308e-07, 2.29728073e-07,
          1.48745087e-07, 3.69220970e-07, 7.43725437e-08, 5.89696810e-07,
          -5.54516589e-07, 2.39301301e-07, -5.09349093e-06,
          1.24542134e-06, 2.56531763e-07, -2.76724990e-07,
          -7.46939790e-08, -6.24654945e-07, -6.77626358e-20,
          1.48745087e-07, 2.94848405e-07, 2.94848405e-07,
          -8.80405878e-07, 2.56799353e-06, -1.56855560e-06,
          2.07114354e-07, 1.13009381e-04, -7.28648786e-07,
          -5.28492421e-07, 1.41498916e-07, 2.94848405e-07,
          2.23117638e-07, 2.94848405e-07, -6.77626358e-20,
          4.92939591e-07, -1.30084834e-06, 4.99102946e-08,
          6.65865059e-07, 3.15757119e-04, -1.40615555e-06,
          -1.19457647e-04, -6.77626358e-20, -5.31338515e-07,
          -6.77626358e-20, -6.77626358e-20, -3.90647574e-06,
          3.97960946e-07, 2.08139977e-06, -4.57096485e-06,
          8.11052596e-05, -3.75831405e-07, 2.33972969e-06,
          -3.02703440e-04, -3.30918701e-04, -7.70820066e-07,
          -1.59401543e-06, -7.70820066e-07, -6.77626358e-20,
          -7.39123379e-07, 1.95554549e-06, 1.42746512e-06,
          8.97215577e-05, -7.95921892e-07, -1.50438234e-06,
          -2.55468040e-04, -3.29818577e-04, -5.31338515e-07,
          -6.77626358e-20, -5.31338515e-07, -1.54164013e-06,
          -5.47929133e-08, 1.71051568e-06, 1.13646351e-07,
          -2.42525071e-04, 2.49473123e-06, -9.58726787e-07,
          -1.55032933e-04, -3.31722549e-04, -3.30987736e-04,
          -2.12535406e-06, -6.77626358e-20, -1.30215858e-06,
          -2.54952420e-06, 8.45832233e-07, -2.26114912e-06,
          -6.78053266e-06, 1.07216738e-06, -2.10826824e-04,
          -3.30598792e-04, -3.25327681e-04, -1.96559107e-04,
          -6.77626358e-20, -6.77626358e-20, -7.70820066e-07,
          2.62696904e-06, 1.33363159e-07, -6.14781186e-07,
          -9.74296313e-07, -1.60694208e-06, -4.17177216e-06,
          9.98205891e-08, -6.82846940e-06, -6.77626358e-20,
          -2.12535406e-06, -6.77626358e-20, -1.54164013e-06,
          4.99102946e-08, 1.08560721e-06, 2.37002200e-06, 1.00559021e-06,
          8.20877062e-07, 8.02808017e-07, 1.00682200e-06, 1.20235961e-06,
          -1.30215858e-06, -6.77626358e-20, -7.70820066e-07,
          -1.06267703e-06, -2.81486905e-07, 1.27830913e-06,
          3.97960946e-07, -9.04197577e-07, 2.39760698e-06,
          1.05368542e-06, 1.02177739e-06, -1.33199626e-06,
          -6.77626358e-20, -6.77626358e-20, -6.77626358e-20,
          -2.31246008e-06, -6.77626358e-20, -6.77626358e-20,
          -6.77626358e-20, -6.77626358e-20, -6.77626358e-20,
          -6.77626358e-20, -6.77626358e-20, -6.77626358e-20,
          -6.77626358e-20, -6.77626358e-20, -6.77626358e-20,
          -6.77626358e-20, -6.77626358e-20, -6.77626358e-20,
          -6.77626358e-20, -6.77626358e-20, -6.77626358e-20,
          -6.77626358e-20, -6.77626358e-20, -6.77626358e-20,
          -6.77626358e-20, -6.77626358e-20, -6.77626358e-20,
          -6.77626358e-20 ]
      - [ -2.29350405e-07, 5.70282701e-08, -4.00345726e-07,
          3.98882264e-07, -1.76402082e-07, -7.25612495e-07,
          -1.01383115e-07, 7.29922704e-07, 2.92226367e-20,
          2.43122508e-06, 2.92226367e-20, 2.92226367e-20, 4.62147156e-08,
          1.17940054e-07, -1.36417398e-07, -5.04715558e-07,
          4.27223949e-06, -7.51916673e-07, -1.32077503e-07,
          -9.67606752e-07, 2.92226367e-20, 1.62081676e-06,
          2.92226367e-20, 2.92226367e-20, 3.05722551e-07, 1.08720735e-06,
          -9.55129849e-07, 7.05168645e-07, -2.50187838e-07,
          -1.85746080e-06, 4.41713667e-07, 2.18976811e-06,
          1.62081676e-06, 8.10408380e-07, 8.10408380e-07, 2.92226367e-20,
          8.35755998e-07, 1.50157888e-07, -1.61141713e-07,
          -1.97755867e-07, 1.85332078e-06, -2.61171664e-07,
          -1.07296771e-07, -2.36220657e-07, 2.92226367e-20,
          2.92226367e-20, 2.92226367e-20, 1.62081676e-06,
          -4.30313847e-08, -1.22676923e-07, 1.96996780e-06,
          -3.09806438e-07, 1.34256709e-06, -6.95018869e-08,
          1.01795107e-04, -3.36447215e-07, 8.10408380e-07,
          8.10408380e-07, 1.62081676e-06, 2.92226367e-20,
          -6.76837715e-07, -6.71767566e-07, 4.75394955e-07,
          2.10358394e-06, 1.12703546e-07, 1.41117698e-06,
          -3.27540704e-07, 1.20016390e-04, 2.92226367e-20,
          2.92226367e-20, 2.92226367e-20, 3.24163352e-06,
          -5.73951482e-08, 7.29922704e-07, 1.33497792e-06,
          6.82086991e-08, 4.07993772e-09, 3.90492119e-07, 2.55597615e-06,
          8.93632459e-05, 8.10408380e-07, 8.10408380e-07, 2.92226367e-20,
          2.92226367e-20, 1.70858684e-07, -6.96184941e-07,
          8.67213146e-07, 1.02607970e-04, 9.09508117e-07,
          -1.47065896e-06, 3.21243277e-07, 1.75244175e-04,
          2.06654135e-04, 8.10408380e-07, 2.92226367e-20, 2.92226367e-20,
          -5.05778587e-07, 4.12510587e-07, -2.20751659e-07,
          1.89174854e-04, 7.80045681e-08, 2.34722705e-07,
          -7.02261104e-07, 2.05760589e-04, 2.06654135e-04,
          2.92226367e-20, 1.59001570e-06, 6.61571065e-08, 7.54365033e-07,
          -1.28764910e-07, 1.52567713e-06, 2.06159137e-04,
          1.87984755e-04, -5.17957062e-07, -1.60959914e-07,
          1.80084549e-04, 2.05815726e-04, 1.51143547e-06, 3.21803562e-08,
          8.02492593e-07, 4.11254263e-07, -2.29470700e-07,
          3.98582279e-06, 2.05611868e-04, 2.06037934e-04,
          -1.94192509e-07, 1.85266845e-06, 1.80725474e-04,
          1.06968291e-05, 2.92226367e-20, 7.38280221e-07, 7.06099854e-07,
          3.97227438e-07, 5.51811127e-07, 2.73090200e-06, 1.64378114e-04,
          1.94343796e-04, 9.10737185e-07, 5.80088681e-07, 1.79161507e-04,
          3.81261520e-06, 1.50874087e-06, 1.47432004e-07, 9.83374591e-08,
          -1.14367231e-06, 1.14059631e-07, 2.39672886e-07,
          1.63516102e-04, 1.94938388e-04, -4.24035456e-08,
          -1.02901038e-06, 2.06268669e-04, 4.51871529e-06,
          8.05335560e-07, 4.81963554e-08, 2.11829956e-06, 1.12477051e-06,
          1.44203796e-07, 6.24680470e-05, 2.04955097e-04, 1.92194770e-04,
          -4.58187714e-07, 9.84456051e-07, 2.05501638e-04,
          2.05948047e-04, 9.65410649e-08, 1.41219971e-06, 8.71492659e-07,
          -9.98256382e-07, 4.12074485e-07, 2.02328112e-04,
          2.06484910e-04, 2.04959870e-04, -2.67272771e-05,
          -5.25156985e-08, 1.70188214e-04, 2.06523619e-04,
          9.61908790e-06, 1.63596368e-07, 1.28573063e-07,
          -3.92905264e-08, 3.44035880e-06, 2.05993390e-04,
          2.06000434e-04, 1.25117454e-04, -1.21887540e-04,
          -6.87274660e-05, 1.40989403e-04, 2.06654135e-04,
          1.80201423e-05, 4.81963554e-08, 9.92356561e-08, 1.58184534e-07,
          4.64946169e-07, 2.05240140e-04, 2.06176715e-04, 1.26100233e-04,
          -1.72033950e-04, -7.16988579e-05, 1.40212767e-04,
          2.05865843e-04, 7.83292671e-06, -9.40121510e-08,
          -5.10021209e-07, 6.15526687e-07, 2.38944523e-07,
          2.04628668e-04, 2.05675489e-04, -8.36094387e-07,
          -2.97012048e-05, -1.94500876e-06, 1.00409909e-06,
          2.05762874e-04, -4.53814266e-08, 1.39391932e-06,
          4.45697133e-08, 8.72204586e-10, -1.19695414e-06,
          2.74068771e-05, 8.27728581e-05, -3.88533891e-07,
          -2.25510391e-07, 2.11690192e-07, -6.13601571e-07,
          5.42753041e-05, 5.90881473e-06, -2.85323767e-06,
          3.12690076e-07, -6.53765042e-08, 4.26669061e-07,
          -9.24424199e-08, 3.87726757e-08, 4.16829920e-07,
          2.51886178e-07, 7.13912812e-07, -4.46550047e-07,
          -1.26260624e-04, -2.34815889e-05, 3.21670456e-07,
          -2.02030492e-06, -7.53382210e-07, -1.45304466e-06,
          -4.66052548e-08, -3.79377052e-05, 3.41649269e-07,
          -6.44772769e-08, -1.69308805e-06, -6.67238273e-05,
          -2.87001149e-05, 4.81963554e-08, -1.80138511e-06,
          7.53231689e-07, -6.02139437e-07, 6.70763484e-07,
          -1.19916152e-07, 2.81838368e-07, 6.30938644e-07,
          4.07989719e-05, 1.85966442e-07, -7.41174006e-07,
          -6.40688995e-07, -5.92716901e-07, 2.92226367e-20,
          4.47856507e-07, -9.18964588e-07, 1.35198917e-07,
          -8.40558059e-08, 3.88143860e-07, 4.78096638e-07,
          1.02427839e-06, -1.87387016e-07, 6.10490929e-07,
          -2.81032328e-07, 7.53231689e-07, 3.60886418e-07,
          -1.78450091e-06, 4.70809454e-07, -1.68352278e-06,
          7.80991741e-07, 1.54729648e-07, 6.97674878e-08,
          -5.15752731e-07, 1.66798870e-07, -1.70430198e-07,
          5.77183812e-07, 1.48417462e-06, -2.21062617e-08,
          -4.57081541e-07, 2.92226367e-20, 2.92226367e-20,
          2.92226367e-20, 2.92226367e-20, 2.92226367e-20, 2.92226367e-20,
          2.92226367e-20, 2.92226367e-20, 2.92226367e-20, 2.92226367e-20,
          2.92226367e-20, 2.92226367e-20, 2.92226367e-20, 2.92226367e-20,
          2.92226367e-20, 2.92226367e-20, 2.92226367e-20, 2.92226367e-20,
          2.92226367e-20, 2.92226367e-20, 2.92226367e-20, 2.92226367e-20,
          2.92226367e-20, 2.92226367e-20 ]
      - [ 3.99664515e-07, -1.52924926e-07, 5.61335696e-07,
          -7.64624630e-08, 1.98406454e-07, -6.09668803e-07,
          -9.33769172e-07, 1.38853579e-06, 1.54611854e-07,
          1.77250274e-06, 1.54611854e-07, -6.77626358e-21,
          -1.52924926e-07, 2.11020854e-08, -2.82137705e-07,
          1.32322583e-07, 1.02356367e-07, 1.63527545e-06, 8.60621014e-07,
          -1.58216494e-07, -6.77626358e-21, 1.18166849e-06,
          1.54611854e-07, 1.54611854e-07, 9.05639808e-07,
          -4.86850467e-07, -2.34678964e-07, 4.58979315e-07,
          1.22958710e-07, -7.23506616e-07, -3.24679519e-07,
          -6.77626358e-21, 1.18166849e-06, 7.45446073e-07,
          5.90834247e-07, 3.09223708e-07, 3.82516845e-07, 6.56211085e-08,
          2.57235888e-06, -1.70417451e-07, -7.64624630e-08,
          -1.14990246e-06, 1.49089215e-06, -6.77626358e-21,
          1.54611854e-07, -6.77626358e-21, 3.09223708e-07,
          1.49089215e-06, -6.77626358e-21, -1.21514893e-06,
          -2.34678964e-07, 1.28250278e-07, 1.28276093e-04, 0.,
          4.72836728e-05, -5.53603776e-08, 5.90834247e-07,
          1.36389349e-06, 1.18166849e-06, -6.77626358e-21,
          -1.01833780e-06, 2.30649448e-06, -7.28298460e-07,
          6.63298924e-05, -1.92926927e-06, 8.18195645e-07,
          2.01889520e-06, 1.08931083e-04, -6.77626358e-21,
          -6.77626358e-21, -6.77626358e-21, 2.36333699e-06,
          -2.43425234e-07, -6.77626358e-21, 1.01903606e-04,
          -1.68584393e-06, 1.53922531e-06, 6.23964866e-07,
          -9.94625680e-07, 1.09021588e-04, 4.00168574e-05,
          5.90834247e-07, 7.73059298e-07, -6.77626358e-21,
          -5.07312450e-07, 1.85280669e-06, 1.26686107e-04,
          1.09157168e-04, -1.54402400e-07, -1.28617944e-06,
          8.06738115e-07, 1.27772088e-04, 1.90088758e-04, 5.90834247e-07,
          -6.77626358e-21, 3.09223708e-07, -3.92569689e-07,
          4.18886117e-07, 1.89640865e-04, 1.27924272e-04,
          -8.46740149e-05, -1.22942191e-04, -3.12659540e-05,
          1.89039434e-04, 1.90088758e-04, -6.77626358e-21,
          -6.77626358e-21, -6.77626358e-21, 5.01291993e-07,
          9.72176053e-07, 1.86971840e-04, 1.89938539e-04, 4.32864799e-05,
          -1.89871847e-04, -7.02779143e-05, 1.75245921e-04,
          1.90088758e-04, -6.77626358e-21, -6.77626358e-21,
          -6.77626358e-21, 3.71517046e-07, -9.17659236e-07,
          1.88520702e-04, 1.88510938e-04, 1.89452257e-04,
          -4.42133423e-05, -4.35339607e-05, 1.76021960e-04,
          1.90088758e-04, -6.77626358e-21, -6.77626358e-21,
          -6.77626358e-21, 4.80479741e-07, 4.18886117e-07,
          1.88936800e-04, 1.89647675e-04, 1.89924103e-04, 4.01525710e-07,
          1.34815934e-06, 1.73395194e-04, 1.90088758e-04,
          -6.77626358e-21, -6.77626358e-21, -6.77626358e-21,
