%YAML:1.0
---
opencv_ml_svm:
   format: 3
   svmType: C_SVC
   kernel:
      type: LINEAR
   C: 2.6699999999999999e+00
   term_criteria: { epsilon:1.1920928955078125e-07, iterations:1000 }
   var_count: 364
   class_count: 2
   class_labels: !!opencv-matrix
      rows: 2
      cols: 1
      dt: i
      data: [ 0, 1 ]
   sv_total: 1
   support_vectors:
      - [ 2.63003730e-19, 2.63003730e-19, 2.63003730e-19, 2.63003730e-19,
          2.63003730e-19, 2.63003730e-19, 2.63003730e-19, 2.63003730e-19,
          2.63003730e-19, 2.63003730e-19, 2.63003730e-19, 2.63003730e-19,
          2.63003730e-19, 2.63003730e-19, 2.63003730e-19, 2.63003730e-19,
          2.63003730e-19, 2.63003730e-19, 2.63003730e-19, 2.63003730e-19,
          2.63003730e-19, 2.63003730e-19, 2.63003730e-19, 2.63003730e-19,
          2.63003730e-19, 2.63003730e-19, 2.63003730e-19, 2.63003730e-19,
          2.63003730e-19, 2.63003730e-19, 2.63003730e-19, 2.63003730e-19,
          2.63003730e-19, 2.63003730e-19, 2.63003730e-19, 2.63003730e-19,
          2.63003730e-19, 2.63003730e-19, 2.63003730e-19, 2.63003730e-19,
          2.63003730e-19, 2.63003730e-19, 2.63003730e-19, 2.63003730e-19,
          2.63003730e-19, 2.63003730e-19, 2.63003730e-19, 2.63003730e-19,
          2.63003730e-19, 2.63003730e-19, 2.63003730e-19, 2.63003730e-19,
          2.63003730e-19, 2.63003730e-19, 2.63003730e-19, 2.63003730e-19,
          2.63003730e-19, 2.63003730e-19, 2.63003730e-19, 2.63003730e-19,
          2.63003730e-19, 2.63003730e-19, 2.63003730e-19, 2.63003730e-19,
          2.63003730e-19, 2.63003730e-19, 2.63003730e-19, 2.63003730e-19,
          2.63003730e-19, 2.63003730e-19, 2.63003730e-19, 2.63003730e-19,
          2.63003730e-19, 2.63003730e-19, 2.63003730e-19, 2.63003730e-19,
          2.63003730e-19, 2.63003730e-19, 2.63003730e-19, 2.63003730e-19,
          2.63003730e-19, 2.63003730e-19, 2.63003730e-19, 2.63003730e-19,
          2.63003730e-19, 2.63003730e-19, 2.63003730e-19, 2.63003730e-19,
          2.63003730e-19, 2.63003730e-19, 2.63003730e-19, 2.63003730e-19,
          2.63003730e-19, 2.63003730e-19, 2.63003730e-19, 2.63003730e-19,
          2.63003730e-19, 2.63003730e-19, 2.63003730e-19, 2.63003730e-19,
          2.63003730e-19, 2.63003730e-19, 2.63003730e-19, 2.63003730e-19,
          2.63003730e-19, 2.63003730e-19, 2.63003730e-19, 2.63003730e-19,
          2.63003730e-19, 2.63003730e-19, 2.63003730e-19, 2.63003730e-19,
          -1.42001113e-06, -1.99290821e-06, -2.00045383e-06,
          3.64313678e-06, -8.68178859e-07, -1.71682041e-06,
          -1.03371474e-06, 2.40444342e-06, -3.77147103e-06,
          -3.59288563e-08, 1.09209893e-07, -1.81543862e-06,
          2.00594357e-07, -1.77698678e-06, 1.85702766e-06,
          -4.55986356e-06, -7.77146511e-07, 2.91400184e-08,
          1.43173224e-06, -9.75767762e-07, 1.15365992e-07,
          3.87964174e-05, -1.48170739e-06, -6.91576020e-07,
          3.20317014e-07, 4.28482554e-06, -2.74697754e-07,
          1.11515396e-06, -6.02166847e-06, -8.27544284e-07,
          3.54984536e-07, -4.21472606e-07, -5.23697452e-07,
          -3.86810996e-07, 8.13104907e-06, 4.50455300e-05,
          4.17686679e-05, -2.28287945e-07, -6.50091533e-06,
          -1.55971554e-06, -3.48978460e-06, -3.12679094e-06,
          1.54587133e-06, -8.37401117e-08, 9.54158509e-07,
          3.62137484e-07, -1.76460344e-06, -6.96377392e-05,
          1.42463701e-04, 4.54834753e-06, -1.33246183e-04,
          -7.56013906e-05, 2.35563789e-06, 6.85883288e-06,
          -1.18975231e-06, 2.81104803e-06, 2.36473420e-06,
          8.48063451e-07, -7.01776003e-07, -3.46428891e-07,
          -1.80409159e-04, -1.49182975e-04, -3.11361941e-06,
          2.82190831e-06, 2.40933446e-06, -6.63222818e-05,
          3.20317014e-07, -3.01429145e-06, 2.75911333e-07,
          -2.47892922e-06, 3.90928790e-06, 2.72865094e-07,
          1.64500818e-07, -1.90204766e-04, 3.60666445e-06,
          4.13100133e-06, 2.97273090e-07, -2.25621966e-06,
          -2.57114175e-06, 1.86300356e-04, 1.48339139e-04,
          2.80771275e-07, -5.95166568e-07, 1.11515396e-06,
          -4.62211983e-06, 7.56495638e-07, 2.65961432e-07,
          3.68143592e-05, 2.92115175e-04, 2.85752903e-04, 3.26921639e-04,
          2.85416445e-06, 2.32729202e-04, 3.63369210e-04, 7.82409683e-04,
          1.76522051e-04, 4.90164268e-07, -8.17123805e-07,
          -5.24011909e-08, 1.31829461e-06, 8.59897611e-08,
          -1.05217407e-06, 1.52225024e-04, 7.85600278e-04,
          7.86827703e-04, 7.84582342e-04, 6.86771877e-04, 7.82292918e-04,
          2.63003730e-19, -1.39865165e-06, 1.48798074e-06,
          -8.64919627e-07, 3.07749769e-06, 3.07936752e-08,
          2.63003730e-19, 3.63507161e-06, 7.36757433e-10, 3.80247639e-06,
          7.88741279e-04, 7.88746867e-04, 7.88752281e-04, 3.09240932e-06,
          2.63003730e-19, 1.47351487e-09, 6.18555578e-06, 2.63003730e-19,
          2.44394727e-08, 6.43378235e-06, 2.21027219e-09, 1.02645581e-08,
          2.01539333e-05, 7.36757433e-10, 1.38241512e-06, 1.38241512e-06,
          3.09314623e-06, 3.09240932e-06, 2.63003730e-19, 2.63003730e-19,
          2.63003730e-19, 3.09314623e-06, 2.90291382e-07, 2.83682198e-06,
          1.68883734e-08, 3.64459925e-06, 8.36360698e-07, 2.63003730e-19,
          7.52637279e-05, 7.42960856e-06, 2.63003730e-19, 7.36757433e-10,
          2.63003730e-19, 1.23711116e-05, 2.63003730e-19, 2.63003730e-19,
          2.82729434e-06, 5.57573799e-07, 6.15499539e-06, 2.44394727e-08,
          1.47351487e-09, 3.92412312e-06, 7.13674526e-05, 1.56076044e-06,
          3.28028250e-06, 3.09461961e-06, 6.18481863e-06, 2.63003730e-19,
          3.09314623e-06, 7.36757433e-10, 2.79871074e-06, 4.84188050e-08,
          5.92781021e-07, 6.16599664e-06, 5.62957666e-07, 8.69397536e-06,
          5.87841896e-06, 6.06872891e-06, 1.87136393e-07, 2.63003730e-19,
          2.63003730e-19, 6.18629247e-06, 2.63003730e-19, 2.63003730e-19,
          3.36705239e-06, 5.58310546e-07, 2.80823861e-06, 7.36757433e-10,
          2.80092104e-06, 1.49116719e-08, 5.38387157e-09, 1.97923598e-08,
          6.18629247e-06, 3.09314623e-06, 3.09535653e-06, 2.63003730e-19,
          1.47351487e-09, 3.09314623e-06, 2.94702973e-09, 2.82315023e-06,
          5.38387157e-09, 9.02725787e-06, 2.69193592e-08, 5.60520846e-07,
          1.42936069e-05, 5.38387157e-09, 2.63003730e-19, 6.18481863e-06,
          2.63003730e-19, 1.47351487e-09, 9.27722795e-06, 2.63003730e-19,
          2.78786899e-07, 7.36757433e-10, 8.40151642e-06, 1.10013154e-08,
          2.80092104e-06, 9.52780077e-09, 8.36360698e-07, 2.80556833e-06,
          2.63003730e-19, 9.27722795e-06, 2.63003730e-19, 1.47351487e-09,
          2.63003730e-19, 3.09240932e-06, 2.63003730e-19, 5.94584471e-09,
          -7.58653130e-07, 5.94584471e-09, 2.63003730e-19,
          -1.51730626e-06, 1.78375341e-08, 2.63003730e-19,
          2.63003730e-19, 2.63003730e-19, 2.63003730e-19, 2.63003730e-19,
          2.63003730e-19, 2.63003730e-19, -7.06167036e-09,
          2.63003730e-19, 2.63003730e-19, 1.78375341e-08,
          -1.93456552e-04, 2.63003730e-19, 2.63003730e-19,
          -7.52707308e-07, 2.63003730e-19, 2.63003730e-19,
          2.63003730e-19, 2.63003730e-19, 2.63003730e-19, 2.63003730e-19 ]
   uncompressed_sv_total: 19
   uncompressed_support_vectors:
      - [ 255., 255., 255., 255., 255., 255., 255., 255., 255., 255.,
          255., 255., 255., 255., 255., 255., 255., 255., 255., 255.,
          255., 255., 255., 255., 255., 255., 255., 255., 255., 255.,
          255., 255., 255., 255., 255., 255., 255., 255., 255., 255.,
          255., 255., 255., 255., 255., 255., 255., 255., 255., 255.,
          255., 255., 255., 255., 255., 255., 255., 255., 255., 255.,
          255., 255., 255., 255., 255., 255., 255., 255., 255., 255.,
          255., 255., 255., 255., 255., 255., 255., 255., 255., 255.,
          255., 255., 255., 255., 255., 255., 255., 255., 255., 255.,
          255., 255., 255., 255., 255., 255., 255., 255., 255., 255.,
          255., 255., 255., 255., 255., 255., 255., 255., 255., 255.,
          255., 255., 255., 254., 255., 255., 254., 254., 255., 255.,
          255., 255., 254., 255., 255., 254., 253., 255., 252., 253.,
          255., 255., 252., 255., 255., 255., 255., 253., 254., 255.,
          255., 254., 255., 254., 253., 255., 252., 255., 253., 255.,
          255., 255., 255., 255., 254., 255., 255., 254., 255., 253.,
          255., 255., 255., 255., 254., 252., 255., 254., 255., 251.,
          254., 255., 254., 0., 1., 0., 0., 251., 255., 255., 253., 255.,
          254., 255., 255., 255., 0., 0., 3., 2., 2., 3., 248., 255.,
          254., 255., 254., 255., 251., 255., 0., 6., 0., 0., 0., 0., 2.,
          254., 254., 255., 255., 254., 255., 255., 1., 0., 1., 1., 1.,
          0., 255., 255., 255., 255., 254., 255., 255., 254., 255., 255.,
          0., 0., 0., 254., 255., 255., 253., 255., 255., 253., 255.,
          255., 248., 255., 255., 255., 254., 254., 255., 255., 255.,
          254., 255., 254., 255., 254., 255., 255., 254., 253., 255.,
          255., 255., 251., 255., 255., 254., 255., 253., 255., 255.,
          254., 255., 255., 254., 254., 253., 255., 254., 255., 254.,
          255., 255., 253., 255., 252., 253., 253., 255., 255., 255.,
          253., 255., 255., 254., 255., 254., 255., 254., 255., 255.,
          255., 253., 254., 254., 255., 255., 254., 255., 254., 255.,
          252., 255., 255., 250., 255., 255., 253., 255., 255., 252.,
          255., 255., 255., 252., 255., 254., 255., 255., 254., 255.,
          252., 255., 255., 255., 254., 255., 255., 255., 255., 255.,
          255., 255., 255., 255., 255., 255., 255., 255., 255., 255.,
          255., 255., 255., 255., 255., 255., 255., 255., 255., 255.,
          255., 255., 255. ]
      - [ 255., 255., 255., 255., 255., 255., 255., 255., 255., 255.,
          255., 255., 255., 255., 255., 255., 255., 255., 255., 255.,
          255., 255., 255., 255., 255., 255., 255., 255., 255., 255.,
          255., 255., 255., 255., 255., 255., 255., 255., 255., 255.,
          255., 255., 255., 255., 255., 255., 255., 255., 255., 255.,
          255., 255., 255., 255., 255., 255., 255., 255., 255., 255.,
          255., 255., 255., 255., 255., 255., 255., 255., 255., 255.,
          255., 255., 255., 255., 255., 255., 255., 255., 255., 255.,
          255., 255., 255., 255., 255., 255., 255., 255., 255., 255.,
          255., 255., 255., 255., 255., 255., 255., 255., 255., 255.,
          255., 255., 255., 255., 255., 255., 255., 255., 255., 255.,
          255., 255., 255., 253., 255., 254., 255., 254., 255., 254.,
          255., 255., 254., 255., 255., 254., 255., 255., 254., 255.,
          255., 255., 254., 255., 255., 255., 255., 253., 254., 255.,
          255., 254., 255., 255., 253., 255., 253., 252., 253., 255.,
          255., 255., 255., 255., 255., 255., 254., 254., 254., 255., 1.,
          3., 255., 255., 254., 252., 255., 254., 255., 255., 255., 255.,
          255., 2., 0., 0., 0., 251., 255., 255., 253., 255., 253., 255.,
          255., 252., 255., 0., 2., 0., 2., 3., 248., 255., 254., 255.,
          254., 255., 254., 255., 0., 2., 0., 0., 0., 0., 2., 254., 254.,
          255., 255., 250., 255., 254., 254., 0., 0., 1., 1., 0., 255.,
          255., 255., 255., 254., 255., 255., 254., 255., 255., 0., 0.,
          0., 254., 255., 255., 253., 255., 255., 253., 255., 255., 248.,
          255., 255., 255., 254., 254., 255., 255., 255., 254., 255.,
          254., 255., 254., 255., 255., 254., 253., 255., 255., 255.,
          251., 255., 255., 254., 255., 253., 255., 255., 254., 255.,
          255., 254., 254., 253., 255., 254., 255., 254., 255., 255.,
          253., 255., 252., 253., 253., 255., 255., 255., 253., 255.,
          255., 254., 255., 254., 255., 254., 255., 255., 255., 253.,
          254., 254., 255., 255., 254., 255., 254., 255., 252., 255.,
          255., 250., 255., 255., 253., 255., 255., 252., 255., 255.,
          255., 252., 255., 254., 255., 255., 254., 255., 252., 255.,
          255., 255., 254., 255., 255., 255., 255., 255., 255., 255.,
          255., 255., 255., 255., 255., 255., 255., 255., 255., 255.,
          255., 255., 255., 255., 255., 255., 255., 255., 255., 255.,
          255. ]
      - [ 255., 255., 255., 255., 255., 255., 255., 255., 255., 255.,
          255., 255., 255., 255., 255., 255., 255., 255., 255., 255.,
          255., 255., 255., 255., 255., 255., 255., 255., 255., 255.,
          255., 255., 255., 255., 255., 255., 255., 255., 255., 255.,
          255., 255., 255., 255., 255., 255., 255., 255., 255., 255.,
          255., 255., 255., 255., 255., 255., 255., 255., 255., 255.,
          255., 255., 255., 255., 255., 255., 255., 255., 255., 255.,
          255., 255., 255., 255., 255., 255., 255., 255., 255., 255.,
          255., 255., 255., 255., 255., 255., 255., 255., 255., 255.,
          255., 255., 255., 255., 255., 255., 255., 255., 255., 255.,
          255., 255., 255., 255., 255., 255., 255., 255., 255., 255.,
          255., 255., 255., 254., 255., 254., 255., 253., 255., 253.,
          255., 255., 254., 255., 255., 254., 255., 255., 254., 255.,
          253., 255., 254., 255., 255., 255., 255., 253., 254., 255.,
          255., 252., 255., 251., 255., 255., 254., 255., 253., 255.,
          255., 255., 255., 255., 255., 255., 255., 255., 255., 253.,
          254., 255., 255., 255., 254., 252., 255., 254., 254., 252.,
          255., 254., 253., 255., 1., 0., 0., 251., 255., 255., 253.,
          255., 255., 255., 255., 0., 0., 1., 0., 0., 2., 3., 248., 255.,
          254., 255., 255., 254., 254., 0., 2., 0., 0., 0., 0., 0., 2.,
          254., 254., 255., 255., 254., 255., 254., 1., 0., 2., 0., 1.,
          0., 255., 255., 255., 255., 254., 255., 255., 254., 255., 255.,
          0., 0., 0., 254., 255., 255., 253., 255., 255., 253., 255.,
          255., 248., 255., 255., 255., 254., 254., 255., 255., 255.,
          254., 255., 254., 255., 254., 255., 255., 254., 253., 255.,
          255., 255., 251., 255., 255., 254., 255., 253., 255., 255.,
          254., 255., 255., 254., 254., 253., 255., 254., 255., 254.,
          255., 255., 253., 255., 252., 253., 253., 255., 255., 255.,
          253., 255., 255., 254., 255., 254., 255., 254., 255., 255.,
          255., 253., 254., 254., 255., 255., 254., 255., 254., 255.,
          252., 255., 255., 250., 255., 255., 253., 255., 255., 252.,
          255., 255., 255., 252., 255., 254., 255., 255., 254., 255.,
          252., 255., 255., 255., 254., 255., 255., 255., 255., 255.,
          255., 255., 255., 255., 255., 255., 255., 255., 255., 255.,
          255., 255., 255., 255., 255., 255., 255., 255., 255., 255.,
          255., 255., 255. ]
      - [ 255., 255., 255., 255., 255., 255., 255., 255., 255., 255.,
          255., 255., 255., 255., 255., 255., 255., 255., 255., 255.,
          255., 255., 255., 255., 255., 255., 255., 255., 255., 255.,
          255., 255., 255., 255., 255., 255., 255., 255., 255., 255.,
          255., 255., 255., 255., 255., 255., 255., 255., 255., 255.,
          255., 255., 255., 255., 255., 255., 255., 255., 255., 255.,
          255., 255., 255., 255., 255., 255., 255., 255., 255., 255.,
          255., 255., 255., 255., 255., 255., 255., 255., 255., 255.,
          255., 255., 255., 255., 255., 255., 255., 255., 255., 255.,
          255., 255., 255., 255., 255., 255., 255., 255., 255., 255.,
          255., 255., 255., 255., 255., 255., 255., 255., 255., 255.,
          255., 255., 255., 253., 255., 254., 255., 255., 0., 0., 253.,
          255., 255., 254., 255., 255., 251., 255., 255., 254., 254.,
          253., 0., 1., 255., 255., 255., 255., 254., 253., 255., 252.,
          255., 254., 255., 255., 254., 255., 255., 254., 255., 255.,
          254., 253., 252., 255., 253., 255., 255., 253., 255., 255., 0.,
          254., 255., 255., 255., 255., 255., 255., 255., 255., 255.,
          254., 2., 0., 1., 0., 255., 255., 253., 255., 254., 254., 255.,
          255., 251., 2., 0., 0., 1., 0., 0., 255., 253., 253., 253.,
          255., 255., 254., 0., 1., 0., 4., 0., 0., 1., 255., 255., 253.,
          255., 255., 253., 255., 255., 0., 2., 0., 0., 1., 255., 254.,
          253., 255., 255., 252., 255., 255., 254., 255., 2., 0., 0.,
          255., 255., 253., 254., 255., 255., 255., 252., 254., 255.,
          254., 255., 255., 254., 255., 255., 255., 255., 254., 254.,
          255., 254., 255., 255., 255., 253., 1., 255., 254., 255., 253.,
          255., 255., 255., 255., 255., 255., 253., 254., 255., 0., 0.,
          252., 255., 255., 254., 254., 255., 250., 255., 253., 255.,
          255., 252., 1., 1., 255., 255., 253., 255., 255., 255., 254.,
          255., 254., 252., 255., 255., 254., 253., 254., 251., 255.,
          253., 254., 251., 255., 255., 253., 255., 251., 252., 255.,
          255., 255., 255., 253., 255., 255., 255., 254., 255., 253.,
          252., 255., 255., 253., 255., 255., 255., 253., 255., 255.,
          255., 255., 255., 255., 255., 255., 255., 255., 255., 255.,
          255., 255., 255., 255., 255., 255., 255., 255., 255., 255.,
          255., 255., 255., 255., 255., 255., 255., 255. ]
      - [ 255., 255., 255., 255., 255., 255., 255., 255., 255., 255.,
          255., 255., 255., 255., 255., 255., 255., 255., 255., 255.,
          255., 255., 255., 255., 255., 255., 255., 255., 255., 255.,
          255., 255., 255., 255., 255., 255., 255., 255., 255., 255.,
          255., 255., 255., 255., 255., 255., 255., 255., 255., 255.,
          255., 255., 255., 255., 255., 255., 255., 255., 255., 255.,
          255., 255., 255., 255., 255., 255., 255., 255., 255., 255.,
          255., 255., 255., 255., 255., 255., 255., 255., 255., 255.,
          255., 255., 255., 255., 255., 255., 255., 255., 255., 255.,
          255., 255., 255., 255., 255., 255., 255., 255., 255., 255.,
          255., 255., 255., 255., 255., 255., 255., 255., 255., 255.,
          255., 255., 255., 255., 255., 254., 255., 254., 255., 253.,
          255., 255., 254., 255., 255., 255., 254., 254., 255., 255.,
          253., 255., 255., 255., 255., 253., 255., 254., 255., 255.,
          255., 255., 255., 250., 255., 255., 252., 255., 255., 251.,
          255., 255., 252., 254., 254., 253., 253., 255., 255., 255., 0.,
          255., 255., 255., 254., 253., 255., 251., 255., 254., 255.,
          255., 0., 0., 6., 0., 0., 255., 255., 255., 253., 255., 252.,
          255., 255., 255., 1., 0., 2., 0., 0., 0., 255., 255., 255.,
          255., 255., 253., 255., 252., 0., 2., 0., 3., 1., 2., 0., 0.,
          255., 253., 254., 255., 253., 255., 254., 0., 0., 0., 0., 1.,
          255., 254., 255., 255., 254., 255., 255., 254., 255., 255., 0.,
          0., 0., 254., 255., 255., 253., 255., 255., 253., 255., 255.,
          248., 255., 255., 255., 254., 254., 255., 255., 255., 254.,
          255., 254., 255., 254., 255., 255., 254., 253., 255., 255.,
          255., 251., 255., 255., 254., 255., 253., 255., 255., 254.,
          255., 255., 254., 254., 253., 255., 254., 255., 254., 255.,
          255., 253., 255., 252., 253., 253., 255., 255., 255., 253.,
          255., 255., 254., 255., 254., 255., 254., 255., 255., 255.,
          253., 254., 254., 255., 255., 254., 255., 254., 255., 252.,
          255., 255., 250., 255., 255., 253., 255., 255., 252., 255.,
          255., 255., 252., 255., 254., 255., 255., 254., 255., 252.,
          255., 255., 255., 254., 255., 255., 255., 255., 255., 255.,
          255., 255., 255., 255., 255., 255., 255., 255., 255., 255.,
          255., 255., 255., 255., 255., 255., 255., 255., 255., 255.,
          255., 255. ]
      - [ 255., 255., 255., 255., 255., 255., 255., 255., 255., 255.,
          255., 255., 255., 255., 255., 255., 255., 255., 255., 255.,
          255., 255., 255., 255., 255., 255., 255., 255., 255., 255.,
          255., 255., 255., 255., 255., 255., 255., 255., 255., 255.,
          255., 255., 255., 255., 255., 255., 255., 255., 255., 255.,
          255., 255., 255., 255., 255., 255., 255., 255., 255., 255.,
          255., 255., 255., 255., 255., 255., 255., 255., 255., 255.,
          255., 255., 255., 255., 255., 255., 255., 255., 255., 255.,
          255., 255., 255., 255., 255., 255., 255., 255., 255., 255.,
          255., 255., 255., 255., 255., 255., 255., 255., 255., 255.,
          255., 255., 255., 255., 255., 255., 255., 255., 255., 255.,
          255., 255., 255., 255., 255., 255., 255., 252., 255., 255.,
          255., 255., 254., 255., 255., 254., 252., 255., 253., 255.,
          255., 255., 254., 253., 255., 255., 255., 253., 254., 255.,
          255., 255., 252., 255., 254., 255., 0., 255., 253., 255., 255.,
          255., 255., 255., 255., 253., 253., 255., 253., 254., 0., 252.,
          255., 255., 254., 252., 255., 254., 255., 255., 255., 252.,
          255., 0., 3., 2., 0., 251., 255., 255., 253., 255., 255., 254.,
          255., 253., 254., 3., 0., 0., 2., 3., 248., 255., 254., 255.,
          252., 255., 255., 255., 0., 2., 2., 0., 0., 0., 2., 254., 254.,
          255., 255., 254., 253., 255., 255., 0., 1., 0., 1., 0., 255.,
          255., 255., 255., 254., 255., 255., 254., 255., 255., 0., 0.,
          0., 254., 255., 255., 253., 255., 255., 253., 255., 255., 248.,
          255., 255., 255., 254., 254., 255., 255., 255., 254., 255.,
          254., 255., 254., 255., 255., 254., 253., 255., 255., 255.,
          251., 255., 255., 254., 255., 253., 255., 255., 254., 255.,
          255., 254., 254., 253., 255., 254., 255., 254., 255., 255.,
          253., 255., 252., 253., 253., 255., 255., 255., 253., 255.,
          255., 254., 255., 254., 255., 254., 255., 255., 255., 253.,
          254., 254., 255., 255., 254., 255., 254., 255., 252., 255.,
          255., 250., 255., 255., 253., 255., 255., 252., 255., 255.,
          255., 252., 255., 254., 255., 255., 254., 255., 252., 255.,
          255., 255., 254., 255., 255., 255., 255., 255., 255., 255.,
          255., 255., 255., 255., 255., 255., 255., 255., 255., 255.,
          255., 255., 255., 255., 255., 255., 255., 255., 255., 255.,
          255. ]
      - [ 255., 255., 255., 255., 255., 255., 255., 255., 255., 255.,
          255., 255., 255., 255., 255., 255., 255., 255., 255., 255.,
          255., 255., 255., 255., 255., 255., 255., 255., 255., 255.,
          255., 255., 255., 255., 255., 255., 255., 255., 255., 255.,
          255., 255., 255., 255., 255., 255., 255., 255., 255., 255.,
          255., 255., 255., 255., 255., 255., 255., 255., 255., 255.,
          255., 255., 255., 255., 255., 255., 255., 255., 255., 255.,
          255., 255., 255., 255., 255., 255., 255., 255., 255., 255.,
          255., 255., 255., 255., 255., 255., 255., 255., 255., 255.,
          255., 255., 255., 255., 255., 255., 255., 255., 255., 255.,
          255., 255., 255., 255., 255., 255., 255., 255., 255., 255.,
          255., 255., 255., 253., 255., 254., 255., 254., 255., 254.,
          255., 255., 254., 255., 255., 254., 255., 255., 254., 255.,
          255., 255., 254., 255., 255., 255., 255., 253., 254., 255.,
          255., 254., 255., 255., 253., 255., 253., 252., 253., 255.,
          255., 255., 255., 255., 255., 255., 254., 254., 254., 255., 1.,
          3., 255., 255., 254., 252., 255., 254., 255., 255., 255., 255.,
          255., 2., 0., 0., 0., 251., 255., 255., 253., 255., 253., 255.,
          255., 252., 255., 0., 2., 0., 2., 3., 248., 255., 254., 255.,
          254., 255., 254., 255., 0., 2., 0., 0., 0., 0., 2., 254., 254.,
          255., 255., 250., 255., 254., 254., 0., 0., 1., 1., 0., 255.,
          255., 255., 255., 254., 255., 255., 254., 255., 255., 0., 0.,
          0., 254., 255., 255., 253., 255., 255., 253., 255., 255., 248.,
          255., 255., 255., 254., 254., 255., 255., 255., 254., 255.,
          254., 255., 254., 255., 255., 254., 253., 255., 255., 255.,
          251., 255., 255., 254., 255., 253., 255., 255., 254., 255.,
          255., 254., 254., 253., 255., 254., 255., 254., 255., 255.,
          253., 255., 252., 253., 253., 255., 255., 255., 253., 255.,
          255., 254., 255., 254., 255., 254., 255., 255., 255., 253.,
          254., 254., 255., 255., 254., 255., 254., 255., 252., 255.,
          255., 250., 255., 255., 253., 255., 255., 252., 255., 255.,
          255., 252., 255., 254., 255., 255., 254., 255., 252., 255.,
          255., 255., 254., 255., 254., 255., 254., 255., 255., 252.,
          255., 255., 255., 255., 255., 255., 255., 1., 255., 255., 252.,
          255., 255., 255., 254., 255., 255., 255., 255., 255., 255. ]
      - [ 255., 255., 255., 255., 255., 255., 255., 255., 255., 255.,
          255., 255., 255., 255., 255., 255., 255., 255., 255., 255.,
          255., 255., 255., 255., 255., 255., 255., 255., 255., 255.,
          255., 255., 255., 255., 255., 255., 255., 255., 255., 255.,
          255., 255., 255., 255., 255., 255., 255., 255., 255., 255.,
          255., 255., 255., 255., 255., 255., 255., 255., 255., 255.,
          255., 255., 255., 255., 255., 255., 255., 255., 255., 255.,
          255., 255., 255., 255., 255., 255., 255., 255., 255., 255.,
          255., 255., 255., 255., 255., 255., 255., 255., 255., 255.,
          255., 255., 255., 255., 255., 255., 255., 255., 255., 255.,
          255., 255., 255., 255., 255., 255., 255., 255., 255., 255.,
          255., 255., 255., 255., 255., 255., 252., 255., 255., 255.,
          255., 255., 254., 255., 255., 254., 253., 255., 253., 254.,
          255., 255., 1., 0., 255., 255., 255., 253., 254., 255., 255.,
          253., 255., 255., 253., 253., 2., 0., 253., 255., 255., 255.,
          255., 255., 254., 253., 254., 255., 254., 1., 0., 2., 255.,
          255., 254., 252., 255., 254., 255., 255., 255., 250., 0., 1.,
          0., 0., 0., 251., 255., 255., 253., 255., 252., 255., 255.,
          255., 0., 0., 0., 0., 2., 3., 248., 255., 254., 255., 255.,
          252., 255., 254., 2., 0., 1., 0., 0., 0., 2., 254., 254., 255.,
          255., 255., 255., 254., 255., 1., 0., 1., 1., 0., 255., 255.,
          255., 255., 255., 255., 255., 255., 255., 0., 0., 1., 0., 254.,
          255., 255., 253., 255., 254., 255., 255., 255., 254., 255., 0.,
          0., 254., 254., 255., 255., 255., 254., 253., 255., 252., 255.,
          255., 255., 0., 3., 255., 255., 255., 251., 255., 255., 255.,
          255., 255., 254., 255., 255., 0., 0., 254., 254., 253., 255.,
          254., 255., 255., 252., 252., 255., 254., 255., 255., 254.,
          255., 255., 255., 253., 255., 255., 253., 255., 255., 255.,
          255., 254., 254., 255., 253., 254., 254., 255., 255., 254.,
          255., 254., 254., 254., 250., 255., 255., 254., 255., 253.,
          255., 255., 252., 255., 255., 255., 254., 255., 255., 255.,
          255., 254., 255., 252., 255., 255., 255., 254., 255., 255.,
          255., 255., 255., 255., 255., 255., 255., 255., 255., 255.,
          255., 255., 255., 255., 255., 255., 255., 255., 255., 255.,
          255., 255., 255., 255., 255., 255. ]
      - [ 255., 255., 255., 255., 255., 255., 255., 255., 255., 255.,
          255., 255., 255., 255., 255., 255., 255., 255., 255., 255.,
          255., 255., 255., 255., 255., 255., 255., 255., 255., 255.,
          255., 255., 255., 255., 255., 255., 255., 255., 255., 255.,
          255., 255., 255., 255., 255., 255., 255., 255., 255., 255.,
          255., 255., 255., 255., 255., 255., 255., 255., 255., 255.,
          255., 255., 255., 255., 255., 255., 255., 255., 255., 255.,
          255., 255., 255., 255., 255., 255., 255., 255., 255., 255.,
          255., 255., 255., 255., 255., 255., 255., 255., 255., 255.,
          255., 255., 255., 255., 255., 255., 255., 255., 255., 255.,
          255., 255., 255., 255., 255., 255., 255., 255., 255., 255.,
          255., 255., 254., 255., 255., 252., 255., 255., 254., 255.,
          255., 255., 254., 255., 255., 254., 255., 255., 254., 255.,
          255., 254., 254., 255., 255., 255., 255., 253., 254., 255.,
          255., 254., 254., 255., 255., 254., 255., 253., 253., 255.,
          255., 255., 255., 255., 255., 255., 255., 252., 255., 253.,
          254., 255., 255., 255., 254., 252., 255., 254., 252., 255.,
          255., 255., 254., 4., 0., 0., 0., 251., 255., 255., 253., 255.,
          255., 255., 253., 254., 0., 0., 0., 1., 2., 3., 248., 255.,
          254., 255., 255., 255., 253., 255., 0., 0., 2., 0., 0., 0., 2.,
          254., 254., 255., 255., 255., 255., 255., 254., 0., 0., 2., 1.,
          0., 255., 255., 255., 255., 254., 255., 255., 252., 255., 255.,
          0., 0., 0., 254., 255., 255., 253., 255., 255., 252., 255.,
          255., 253., 255., 255., 255., 254., 254., 255., 255., 255.,
          254., 254., 255., 255., 252., 252., 255., 0., 254., 255., 255.,
          255., 251., 255., 255., 255., 253., 253., 255., 255., 251., 4.,
          255., 254., 254., 253., 255., 254., 255., 255., 255., 253.,
          253., 253., 254., 254., 254., 255., 255., 255., 253., 255.,
          255., 253., 253., 255., 255., 255., 255., 255., 255., 253.,
          254., 254., 255., 255., 254., 255., 255., 255., 253., 255.,
          253., 254., 255., 255., 253., 255., 255., 252., 255., 254.,
          255., 255., 255., 255., 255., 252., 255., 255., 252., 255.,
          255., 255., 254., 255., 255., 255., 255., 255., 255., 255.,
          255., 255., 255., 255., 255., 255., 255., 255., 255., 255.,
          255., 255., 255., 255., 255., 255., 255., 255., 255., 255.,
          255. ]
      - [ 255., 255., 255., 255., 255., 255., 255., 255., 255., 255.,
          255., 255., 255., 255., 255., 255., 255., 255., 255., 255.,
          255., 255., 255., 255., 255., 255., 255., 255., 255., 255.,
          255., 255., 255., 255., 255., 255., 255., 255., 255., 255.,
          255., 255., 255., 255., 255., 255., 255., 255., 255., 255.,
          255., 255., 255., 255., 255., 255., 255., 255., 255., 255.,
          255., 255., 255., 255., 255., 255., 255., 255., 255., 255.,
          255., 255., 255., 255., 255., 255., 255., 255., 255., 255.,
          255., 255., 255., 255., 255., 255., 255., 255., 255., 255.,
          255., 255., 255., 255., 255., 255., 255., 255., 255., 255.,
          255., 255., 255., 255., 255., 255., 255., 255., 255., 255.,
          255., 255., 255., 255., 254., 255., 254., 255., 253., 254.,
          255., 255., 254., 255., 255., 254., 254., 255., 255., 255.,
          255., 253., 255., 255., 255., 255., 255., 253., 254., 255.,
          253., 255., 252., 255., 252., 255., 255., 253., 253., 255.,
          255., 255., 255., 255., 255., 254., 255., 255., 255., 255., 0.,
          255., 255., 255., 254., 252., 255., 254., 253., 255., 255.,
          250., 255., 0., 2., 2., 0., 251., 255., 255., 253., 255., 254.,
          255., 255., 254., 1., 1., 0., 0., 2., 3., 248., 255., 254.,
          255., 254., 254., 255., 255., 0., 0., 1., 2., 0., 0., 2., 254.,
          254., 255., 255., 255., 252., 255., 255., 0., 1., 0., 1., 0.,
          255., 255., 255., 255., 254., 255., 255., 254., 255., 255., 0.,
          0., 0., 254., 255., 255., 253., 255., 255., 253., 255., 255.,
          248., 255., 255., 255., 254., 254., 255., 255., 255., 254.,
          255., 254., 255., 254., 255., 255., 254., 253., 255., 255.,
          255., 251., 255., 255., 254., 255., 253., 255., 255., 254.,
          255., 255., 254., 254., 253., 255., 254., 255., 254., 255.,
          255., 253., 255., 252., 253., 253., 255., 255., 255., 253.,
          255., 255., 254., 255., 254., 255., 254., 255., 255., 255.,
          253., 254., 254., 255., 255., 254., 255., 254., 255., 252.,
          255., 255., 250., 255., 255., 253., 255., 255., 252., 255.,
          255., 255., 252., 255., 254., 255., 255., 254., 255., 252.,
          255., 255., 255., 254., 255., 255., 255., 255., 255., 255.,
          255., 255., 255., 255., 255., 255., 255., 255., 255., 255.,
          255., 255., 255., 255., 255., 255., 255., 255., 255., 255.,
          255., 255. ]
      - [ 255., 255., 255., 255., 255., 255., 255., 255., 255., 255.,
          255., 255., 255., 255., 255., 255., 255., 255., 255., 255.,
          255., 255., 255., 255., 255., 255., 255., 255., 255., 255.,
          255., 255., 255., 255., 255., 255., 255., 255., 255., 255.,
          255., 255., 255., 255., 255., 255., 255., 255., 255., 255.,
          255., 255., 255., 255., 255., 255., 255., 255., 255., 255.,
          255., 255., 255., 255., 255., 255., 255., 255., 255., 255.,
          255., 255., 255., 255., 255., 255., 255., 255., 255., 255.,
          255., 255., 255., 255., 255., 255., 255., 255., 255., 255.,
          255., 255., 255., 255., 255., 255., 255., 255., 255., 255.,
          255., 255., 255., 255., 255., 255., 255., 255., 255., 255.,
          255., 255., 255., 255., 254., 255., 254., 255., 254., 255.,
          255., 255., 254., 255., 255., 254., 254., 255., 255., 255.,
          255., 255., 255., 255., 255., 255., 255., 253., 254., 255.,
          255., 255., 251., 255., 255., 251., 255., 255., 253., 255.,
          255., 255., 255., 255., 252., 255., 255., 253., 255., 255.,
          254., 1., 255., 255., 254., 252., 255., 254., 255., 253., 255.,
          253., 254., 254., 2., 0., 0., 251., 255., 255., 253., 255.,
          253., 254., 254., 255., 255., 4., 0., 2., 2., 3., 248., 255.,
          254., 255., 255., 255., 255., 255., 0., 0., 2., 0., 0., 0., 2.,
          254., 254., 255., 255., 252., 255., 255., 255., 2., 0., 1., 1.,
          0., 255., 255., 255., 255., 254., 255., 255., 254., 255., 255.,
          0., 0., 0., 254., 255., 255., 253., 255., 255., 253., 255.,
          255., 248., 255., 255., 255., 254., 254., 255., 255., 255.,
          254., 255., 254., 255., 254., 255., 255., 254., 253., 255.,
          255., 255., 251., 255., 255., 254., 255., 253., 255., 255.,
          254., 255., 255., 254., 254., 253., 255., 254., 255., 254.,
          255., 255., 253., 255., 252., 253., 253., 255., 255., 255.,
          253., 255., 255., 254., 255., 254., 255., 254., 255., 255.,
          255., 253., 254., 254., 255., 255., 254., 255., 254., 255.,
          252., 255., 255., 250., 255., 255., 253., 255., 255., 252.,
          255., 255., 255., 252., 255., 254., 255., 255., 254., 255.,
          252., 255., 255., 255., 254., 255., 255., 255., 255., 255.,
          255., 255., 255., 255., 255., 255., 255., 255., 255., 255.,
          255., 255., 255., 255., 255., 255., 255., 255., 255., 255.,
          255., 255., 255. ]
      - [ 255., 255., 255., 255., 255., 255., 255., 255., 255., 255.,
          255., 255., 255., 255., 255., 255., 255., 255., 255., 255.,
          255., 255., 255., 255., 255., 255., 255., 255., 255., 255.,
          255., 255., 255., 255., 255., 255., 255., 255., 255., 255.,
          255., 255., 255., 255., 255., 255., 255., 255., 255., 255.,
          255., 255., 255., 255., 255., 255., 255., 255., 255., 255.,
          255., 255., 255., 255., 255., 255., 255., 255., 255., 255.,
          255., 255., 255., 255., 255., 255., 255., 255., 255., 255.,
          255., 255., 255., 255., 255., 255., 255., 255., 255., 255.,
          255., 255., 255., 255., 255., 255., 255., 255., 255., 255.,
          255., 255., 255., 255., 255., 255., 255., 255., 255., 255.,
          255., 255., 255., 252., 254., 255., 255., 254., 254., 255.,
          255., 253., 255., 255., 255., 253., 255., 255., 255., 253.,
          252., 255., 255., 0., 255., 255., 253., 255., 251., 255., 255.,
          254., 254., 254., 255., 255., 249., 1., 0., 255., 253., 254.,
          255., 255., 255., 253., 255., 255., 255., 255., 255., 0., 2.,
          255., 255., 254., 253., 255., 255., 255., 255., 254., 254.,
          252., 0., 0., 0., 253., 253., 255., 255., 255., 253., 255.,
          252., 255., 255., 3., 2., 0., 0., 1., 253., 253., 255., 255.,
          254., 255., 255., 255., 1., 0., 0., 1., 1., 0., 1., 255., 253.,
          255., 255., 253., 254., 255., 253., 0., 1., 0., 0., 1., 255.,
          254., 255., 255., 254., 255., 255., 254., 255., 255., 0., 0.,
          0., 254., 255., 255., 253., 255., 255., 253., 255., 255., 248.,
          255., 255., 255., 254., 254., 255., 255., 255., 254., 255.,
          254., 255., 254., 255., 255., 254., 253., 255., 255., 255.,
          251., 255., 255., 254., 255., 253., 255., 255., 254., 255.,
          255., 254., 254., 253., 255., 254., 255., 254., 255., 255.,
          253., 255., 252., 253., 253., 255., 255., 255., 253., 255.,
          255., 254., 255., 254., 255., 254., 255., 255., 255., 253.,
          254., 254., 255., 255., 254., 255., 254., 255., 252., 255.,
          255., 250., 255., 255., 253., 255., 255., 252., 255., 255.,
          255., 252., 255., 254., 255., 255., 254., 255., 252., 255.,
          255., 255., 254., 255., 255., 255., 255., 255., 255., 255.,
          255., 255., 255., 255., 255., 255., 255., 255., 255., 255.,
          255., 255., 255., 255., 255., 255., 255., 255., 255., 255.,
          255. ]
      - [ 255., 255., 255., 255., 255., 255., 255., 255., 255., 255.,
          255., 255., 255., 255., 255., 255., 255., 255., 255., 255.,
          255., 255., 255., 255., 255., 255., 255., 255., 255., 255.,
          255., 255., 255., 255., 255., 255., 255., 255., 255., 255.,
          255., 255., 255., 255., 255., 255., 255., 255., 255., 255.,
          255., 255., 255., 255., 255., 255., 255., 255., 255., 255.,
          255., 255., 255., 255., 255., 255., 255., 255., 255., 255.,
          255., 255., 255., 255., 255., 255., 255., 255., 255., 255.,
          255., 255., 255., 255., 255., 255., 255., 255., 255., 255.,
          255., 255., 255., 255., 255., 255., 255., 255., 255., 255.,
          255., 255., 255., 255., 255., 255., 255., 255., 255., 255.,
          255., 255., 254., 255., 255., 252., 255., 255., 254., 255.,
          255., 254., 255., 255., 253., 255., 255., 255., 254., 255.,
          255., 254., 254., 255., 253., 255., 255., 250., 255., 253.,
          255., 254., 254., 255., 255., 254., 255., 253., 255., 253.,
          255., 255., 255., 255., 255., 255., 255., 252., 255., 253.,
          254., 255., 254., 255., 254., 254., 254., 252., 252., 255.,
          255., 255., 254., 4., 0., 0., 0., 253., 255., 255., 255., 255.,
          255., 255., 253., 254., 0., 0., 0., 1., 2., 2., 0., 253., 255.,
          253., 255., 255., 253., 255., 0., 0., 2., 0., 0., 0., 1., 255.,
          254., 255., 255., 255., 255., 255., 254., 0., 0., 2., 2., 0.,
          255., 255., 250., 255., 254., 255., 255., 254., 255., 255., 0.,
          0., 0., 254., 255., 255., 253., 255., 255., 253., 255., 255.,
          248., 255., 255., 255., 254., 254., 255., 255., 255., 254.,
          255., 254., 255., 254., 255., 255., 254., 253., 255., 255.,
          255., 251., 255., 255., 254., 255., 253., 255., 255., 254.,
          255., 255., 254., 254., 253., 255., 254., 255., 254., 255.,
          255., 253., 255., 252., 253., 253., 255., 255., 255., 253.,
          255., 255., 254., 255., 254., 255., 254., 255., 255., 255.,
          253., 254., 254., 255., 255., 254., 255., 254., 255., 252.,
          255., 255., 250., 255., 255., 253., 255., 255., 252., 255.,
          255., 255., 252., 255., 254., 255., 255., 254., 255., 252.,
          255., 255., 255., 254., 255., 255., 255., 255., 255., 255.,
          255., 255., 255., 255., 255., 255., 255., 255., 255., 255.,
          255., 255., 255., 255., 255., 255., 255., 255., 255., 255.,
          255., 255. ]
      - [ 255., 255., 255., 255., 255., 255., 255., 255., 255., 255.,
          255., 255., 255., 255., 255., 255., 255., 255., 255., 255.,
          255., 255., 255., 255., 255., 255., 255., 255., 255., 255.,
          255., 255., 255., 255., 255., 255., 255., 255., 255., 255.,
          255., 255., 255., 255., 255., 255., 255., 255., 255., 255.,
          255., 255., 255., 255., 255., 255., 255., 255., 255., 255.,
          255., 255., 255., 255., 255., 255., 255., 255., 255., 255.,
          255., 255., 255., 255., 255., 255., 255., 255., 255., 255.,
          255., 255., 255., 255., 255., 255., 255., 255., 255., 255.,
          255., 255., 255., 255., 255., 255., 255., 255., 255., 255.,
          255., 255., 255., 255., 255., 255., 255., 255., 255., 255.,
          255., 255., 254., 255., 255., 252., 255., 255., 254., 255.,
          255., 254., 255., 255., 253., 255., 255., 255., 254., 255.,
          255., 254., 254., 255., 253., 255., 255., 250., 255., 253.,
          255., 254., 254., 255., 255., 254., 255., 253., 255., 253.,
          255., 255., 255., 255., 255., 255., 255., 252., 255., 253.,
          254., 255., 254., 255., 254., 254., 254., 252., 252., 255.,
          255., 255., 254., 4., 0., 0., 0., 253., 255., 255., 255., 255.,
          255., 255., 253., 254., 0., 0., 0., 1., 2., 2., 0., 253., 255.,
          253., 255., 255., 253., 255., 0., 0., 2., 0., 0., 0., 1., 255.,
          254., 255., 255., 255., 255., 255., 254., 0., 0., 2., 2., 0.,
          255., 255., 250., 255., 255., 252., 255., 255., 255., 0., 1.,
          0., 0., 254., 255., 255., 253., 255., 253., 255., 255., 254.,
          255., 255., 254., 254., 254., 254., 255., 255., 255., 254.,
          255., 251., 255., 254., 255., 255., 255., 254., 255., 255.,
          255., 251., 255., 255., 252., 255., 255., 253., 255., 254.,
          253., 255., 254., 254., 253., 255., 254., 255., 255., 252.,
          253., 254., 255., 253., 255., 255., 255., 255., 255., 253.,
          255., 255., 255., 255., 254., 255., 255., 254., 255., 253.,
          253., 254., 254., 255., 255., 254., 255., 253., 255., 248.,
          255., 255., 253., 255., 255., 253., 255., 255., 252., 255.,
          255., 255., 255., 254., 255., 254., 255., 255., 255., 252.,
          255., 255., 255., 254., 255., 255., 255., 255., 255., 255.,
          255., 255., 255., 255., 255., 255., 255., 255., 255., 255.,
          255., 255., 255., 255., 255., 255., 255., 255., 255., 255.,
          255., 255. ]
      - [ 255., 255., 255., 255., 255., 255., 255., 255., 255., 255.,
          255., 255., 255., 255., 255., 255., 255., 255., 255., 255.,
          255., 255., 255., 255., 255., 255., 255., 255., 255., 255.,
          255., 255., 255., 255., 255., 255., 255., 255., 255., 255.,
          255., 255., 255., 255., 255., 255., 255., 255., 255., 255.,
          255., 255., 255., 255., 255., 255., 255., 255., 255., 255.,
          255., 255., 255., 255., 255., 255., 255., 255., 255., 255.,
          255., 255., 255., 255., 255., 255., 255., 255., 255., 255.,
          255., 255., 255., 255., 255., 255., 255., 255., 255., 255.,
          255., 255., 255., 255., 255., 255., 255., 255., 255., 255.,
          255., 255., 255., 255., 255., 255., 255., 255., 255., 255.,
          255., 255., 255., 255., 254., 255., 255., 254., 254., 255.,
          255., 255., 253., 253., 255., 251., 255., 252., 255., 255.,
          255., 255., 253., 255., 253., 255., 255., 255., 253., 255.,
          253., 255., 255., 255., 253., 253., 254., 255., 255., 254.,
          253., 254., 255., 252., 254., 255., 255., 252., 255., 254., 3.,
          0., 3., 254., 255., 255., 252., 255., 255., 254., 252., 255.,
          0., 0., 0., 0., 0., 254., 255., 255., 255., 252., 255., 255.,
          255., 255., 0., 1., 2., 0., 1., 1., 253., 255., 255., 255.,
          251., 255., 251., 255., 255., 255., 255., 0., 0., 255., 253.,
          254., 255., 254., 255., 255., 254., 255., 254., 254., 255.,
          255., 1., 253., 255., 255., 254., 255., 255., 255., 255., 255.,
          255., 255., 255., 255., 255., 255., 255., 255., 255., 255.,
          255., 255., 255., 255., 255., 255., 255., 255., 255., 255.,
          255., 255., 255., 255., 255., 255., 255., 255., 255., 255.,
          255., 255., 255., 255., 255., 255., 255., 255., 255., 255.,
          255., 255., 255., 255., 255., 255., 255., 255., 255., 255.,
          255., 255., 255., 255., 255., 255., 255., 255., 255., 255.,
          255., 255., 255., 255., 255., 255., 255., 255., 255., 255.,
          255., 255., 255., 255., 255., 255., 255., 255., 255., 255.,
          255., 255., 255., 255., 255., 255., 255., 255., 255., 255.,
          255., 255., 255., 255., 255., 255., 255., 255., 255., 255.,
          255., 255., 255., 255., 255., 255., 255., 255., 255., 255.,
          255., 255., 255., 255., 255., 255., 255., 255., 255., 255.,
          255., 255., 255., 255., 255., 255., 255., 255., 255., 255.,
          255., 255., 255., 255., 255., 255. ]
      - [ 255., 255., 255., 255., 255., 255., 255., 255., 255., 255.,
          255., 255., 255., 255., 255., 255., 255., 255., 255., 255.,
          255., 255., 255., 255., 255., 255., 255., 255., 255., 255.,
          255., 255., 255., 255., 255., 255., 255., 255., 255., 255.,
          255., 255., 255., 255., 255., 255., 255., 255., 255., 255.,
          255., 255., 255., 255., 255., 255., 255., 255., 255., 255.,
          255., 255., 255., 255., 255., 255., 255., 255., 255., 255.,
          255., 255., 255., 255., 255., 255., 255., 255., 255., 255.,
          255., 255., 255., 255., 255., 255., 255., 255., 255., 255.,
          255., 255., 255., 255., 255., 255., 255., 255., 255., 255.,
          255., 255., 255., 255., 255., 255., 255., 255., 255., 255.,
          255., 255., 253., 255., 254., 255., 255., 253., 254., 255.,
          253., 255., 253., 255., 255., 254., 255., 255., 252., 255.,
          254., 255., 255., 255., 255., 254., 255., 254., 255., 255.,
          254., 255., 253., 255., 254., 253., 255., 255., 255., 250.,
          254., 255., 251., 255., 255., 255., 255., 252., 254., 255.,
          255., 253., 252., 255., 255., 255., 255., 253., 255., 255.,
          255., 255., 2., 0., 0., 1., 2., 255., 255., 253., 253., 254.,
          255., 255., 252., 255., 251., 1., 2., 0., 0., 0., 253., 255.,
          255., 255., 255., 254., 255., 254., 255., 255., 0., 5., 1., 0.,
          253., 255., 255., 255., 254., 255., 255., 253., 255., 252.,
          255., 253., 253., 255., 255., 253., 255., 255., 255., 255.,
          255., 255., 255., 255., 255., 255., 255., 255., 255., 255.,
          255., 255., 255., 255., 255., 255., 255., 255., 255., 255.,
          255., 255., 255., 255., 255., 255., 255., 255., 255., 255.,
          255., 255., 255., 255., 255., 255., 255., 255., 255., 255.,
          255., 255., 255., 255., 255., 255., 255., 255., 255., 255.,
          255., 255., 255., 255., 255., 255., 255., 255., 255., 255.,
          255., 255., 255., 255., 255., 255., 255., 255., 255., 255.,
          255., 255., 255., 255., 255., 255., 255., 255., 255., 255.,
          255., 255., 255., 255., 255., 255., 255., 255., 255., 255.,
          255., 255., 255., 255., 255., 255., 255., 255., 255., 255.,
          255., 255., 255., 255., 255., 255., 255., 255., 255., 255.,
          255., 255., 255., 255., 255., 255., 255., 255., 255., 255.,
          255., 255., 255., 255., 255., 255., 255., 255., 255., 255.,
          255., 255., 255., 255., 255., 255., 255., 255. ]
      - [ 255., 255., 255., 255., 255., 255., 255., 255., 255., 255.,
          255., 255., 255., 255., 255., 255., 255., 255., 255., 255.,
          255., 255., 255., 255., 255., 255., 255., 255., 255., 255.,
          255., 255., 255., 255., 255., 255., 255., 255., 255., 255.,
          255., 255., 255., 255., 255., 255., 255., 255., 255., 255.,
          255., 255., 255., 255., 255., 255., 255., 255., 255., 255.,
          255., 255., 255., 255., 255., 255., 255., 255., 255., 255.,
          255., 255., 255., 255., 255., 255., 255., 255., 255., 255.,
          255., 255., 255., 255., 255., 255., 255., 255., 255., 255.,
          255., 255., 255., 255., 255., 255., 255., 255., 255., 255.,
          255., 255., 255., 255., 255., 255., 255., 255., 255., 255.,
          255., 255., 255., 251., 255., 255., 253., 254., 255., 255.,
          255., 254., 255., 255., 254., 254., 255., 253., 254., 254.,
          255., 255., 252., 253., 253., 255., 255., 255., 253., 255.,
          253., 255., 254., 255., 254., 255., 255., 255., 254., 255.,
          252., 255., 253., 255., 255., 254., 255., 255., 255., 255.,
          252., 255., 253., 255., 255., 255., 254., 253., 255., 254.,
          255., 253., 254., 0., 2., 0., 1., 255., 255., 255., 253., 255.,
          255., 255., 255., 4., 0., 3., 1., 0., 0., 0., 251., 255., 255.,
          255., 252., 255., 253., 251., 4., 0., 253., 2., 255., 0., 255.,
          255., 254., 253., 255., 253., 255., 255., 252., 255., 255.,
          255., 255., 252., 255., 255., 254., 255., 255., 255., 255.,
          255., 255., 255., 255., 255., 255., 255., 255., 255., 255.,
          255., 255., 255., 255., 255., 255., 255., 255., 255., 255.,
          255., 255., 255., 255., 255., 255., 255., 255., 255., 255.,
          255., 255., 255., 255., 255., 255., 255., 255., 255., 255.,
          255., 255., 255., 255., 255., 255., 255., 255., 255., 255.,
          255., 255., 255., 255., 255., 255., 255., 255., 255., 255.,
          255., 255., 255., 255., 255., 255., 255., 255., 255., 255.,
          255., 255., 255., 255., 255., 255., 255., 255., 255., 255.,
          255., 255., 255., 255., 255., 255., 255., 255., 255., 255.,
          255., 255., 255., 255., 255., 255., 255., 255., 255., 255.,
          255., 255., 255., 255., 255., 255., 255., 255., 255., 255.,
          255., 255., 255., 255., 255., 255., 255., 255., 255., 255.,
          255., 255., 255., 255., 255., 255., 255., 255., 255., 255.,
          255., 255., 255., 255., 255., 255., 255. ]
      - [ 255., 255., 255., 255., 255., 255., 255., 255., 255., 255.,
          255., 255., 255., 255., 255., 255., 255., 255., 255., 255.,
          255., 255., 255., 255., 255., 255., 255., 255., 255., 255.,
          255., 255., 255., 255., 255., 255., 255., 255., 255., 255.,
          255., 255., 255., 255., 255., 255., 255., 255., 255., 255.,
          255., 255., 255., 255., 255., 255., 255., 255., 255., 255.,
          255., 255., 255., 255., 255., 255., 255., 255., 255., 255.,
          255., 255., 255., 255., 255., 255., 255., 255., 255., 255.,
          255., 255., 255., 255., 255., 255., 255., 255., 255., 255.,
          255., 255., 255., 255., 255., 255., 255., 255., 255., 255.,
          255., 255., 255., 255., 255., 255., 255., 255., 255., 255.,
          255., 255., 255., 255., 255., 255., 255., 252., 254., 255.,
          255., 255., 255., 254., 255., 253., 254., 255., 254., 254.,
          255., 255., 253., 254., 255., 253., 255., 254., 255., 255.,
          252., 255., 255., 253., 254., 255., 255., 255., 255., 255.,
          254., 253., 255., 251., 255., 251., 255., 255., 253., 0., 1.,
          0., 0., 2., 253., 254., 255., 255., 255., 253., 255., 253., 2.,
          0., 3., 1., 0., 0., 255., 255., 251., 253., 254., 255., 255.,
          253., 0., 5., 0., 0., 0., 1., 255., 251., 255., 255., 255.,
          254., 254., 255., 0., 0., 1., 0., 0., 254., 255., 255., 251.,
          255., 255., 255., 254., 255., 253., 255., 255., 255., 255.,
          253., 255., 255., 255., 252., 255., 255., 255., 255., 255.,
          255., 255., 255., 255., 255., 255., 255., 255., 255., 255.,
          255., 255., 255., 255., 255., 255., 255., 255., 255., 255.,
          255., 255., 255., 255., 255., 255., 255., 255., 255., 255.,
          255., 255., 255., 255., 255., 255., 255., 255., 255., 255.,
          255., 255., 255., 255., 255., 255., 255., 255., 255., 255.,
          255., 255., 255., 255., 255., 255., 255., 255., 255., 255.,
          255., 255., 255., 255., 255., 255., 255., 255., 255., 255.,
          255., 255., 255., 255., 255., 255., 255., 255., 255., 255.,
          255., 255., 255., 255., 255., 255., 255., 255., 255., 255.,
          255., 255., 255., 255., 255., 255., 255., 255., 255., 255.,
          255., 255., 255., 255., 255., 255., 255., 255., 255., 255.,
          255., 255., 255., 255., 255., 255., 255., 255., 255., 255.,
          255., 255., 255., 255., 255., 255., 255., 255., 255., 255.,
          255., 255., 255., 255., 255. ]
      - [ 255., 255., 255., 255., 255., 255., 255., 255., 255., 255.,
          255., 255., 255., 255., 255., 255., 255., 255., 255., 255.,
          255., 255., 255., 255., 255., 255., 255., 255., 255., 255.,
          255., 255., 255., 255., 255., 255., 255., 255., 255., 255.,
          255., 255., 255., 255., 255., 255., 255., 255., 255., 255.,
          255., 255., 255., 255., 255., 255., 255., 255., 255., 255.,
          255., 255., 255., 255., 255., 255., 255., 255., 255., 255.,
          255., 255., 255., 255., 255., 255., 255., 255., 255., 255.,
          255., 255., 255., 255., 255., 255., 255., 255., 255., 255.,
          255., 255., 255., 255., 255., 255., 255., 255., 255., 255.,
          255., 255., 255., 255., 255., 255., 255., 255., 255., 255.,
          255., 255., 254., 255., 253., 255., 255., 255., 253., 255.,
          252., 255., 255., 254., 255., 255., 255., 252., 255., 255.,
          255., 252., 255., 253., 255., 254., 255., 253., 255., 255.,
          252., 251., 255., 249., 255., 255., 253., 255., 253., 255.,
          252., 254., 254., 253., 255., 255., 254., 255., 254., 255.,
          255., 252., 255., 252., 255., 255., 255., 255., 254., 254.,
          255., 255., 255., 0., 0., 3., 0., 254., 255., 253., 255., 255.,
          255., 255., 255., 253., 0., 1., 1., 0., 2., 253., 255., 255.,
          252., 255., 253., 255., 255., 255., 0., 2., 0., 0., 0., 255.,
          255., 252., 255., 255., 255., 255., 253., 255., 255., 255.,
          254., 255., 255., 253., 255., 254., 255., 255., 255., 255.,
          255., 255., 255., 255., 255., 255., 255., 255., 255., 255.,
          255., 255., 255., 255., 255., 255., 255., 255., 255., 255.,
          255., 255., 255., 255., 255., 255., 255., 255., 255., 255.,
          255., 255., 255., 255., 255., 255., 255., 255., 255., 255.,
          255., 255., 255., 255., 255., 255., 255., 255., 255., 255.,
          255., 255., 255., 255., 255., 255., 255., 255., 255., 255.,
          255., 255., 255., 255., 255., 255., 255., 255., 255., 255.,
          255., 255., 255., 255., 255., 255., 255., 255., 255., 255.,
          255., 255., 255., 255., 255., 255., 255., 255., 255., 255.,
          255., 255., 255., 255., 255., 255., 255., 255., 255., 255.,
          255., 255., 255., 255., 255., 255., 255., 255., 255., 255.,
          255., 255., 254., 255., 255., 253., 255., 255., 255., 255.,
          255., 255., 255., 255., 253., 255., 255., 255., 0., 255., 255.,
          254., 255., 255., 255., 255., 255., 255. ]
   decision_functions:
      -
         sv_count: 1
         rho: 1.0311032762783718e+00
         alpha: [ 1. ]
         index: [ 0 ]
