%YAML:1.0
---
opencv_ml_svm:
   format: 3
   svmType: C_SVC
   kernel:
      type: LINEAR
   C: 2.6699999999999999e+00
   term_criteria: { epsilon:1.1920928955078125e-07, iterations:1000 }
   var_count: 390
   class_count: 10
   class_labels: !!opencv-matrix
      rows: 10
      cols: 1
      dt: i
      data: [ 0, 1, 2, 3, 4, 5, 6, 7, 8, 9 ]
   sv_total: 45
   support_vectors:
      - [ -2.39293996e-07, -1.03909663e-07, 7.39717620e-07,
          -2.04862022e-06, 1.02551098e-06, 3.69315643e-07,
          -1.04076503e-06, 2.33273186e-05, 2.55908617e-07,
          -2.14300524e-08, 2.35616099e-07, 2.18669722e-08,
          -1.09405698e-06, 1.20810952e-07, -1.20161587e-07,
          -1.09304119e-06, 3.34857617e-07, -6.69910918e-08,
          4.80902997e-07, 6.01516376e-07, -7.69218559e-07,
          3.62173978e-07, -4.00537914e-07, 4.09738838e-08,
          1.20810952e-07, -4.72256005e-07, -4.06575815e-20,
          -2.85734032e-08, -3.10844229e-07, -4.81722509e-07,
          6.56720999e-07, -2.19445928e-06, -5.36164919e-07,
          -3.13291196e-07, -1.16333183e-06, 2.65518281e-07,
          1.79092240e-06, 7.95138078e-07, -7.41550537e-08,
          -4.12175211e-07, -2.02925179e-08, -7.89203547e-09,
          -1.15441412e-06, -7.14335080e-09, -8.91947593e-07,
          -2.70039635e-08, -8.19446822e-09, 7.54510609e-07,
          -8.26091423e-07, 1.70507894e-06, -1.47985432e-07,
          2.63577391e-07, 5.75741012e-07, -4.17225685e-08,
          -1.61135475e-07, -6.00210342e-07, 1.20810952e-07,
          -1.99036663e-08, 2.48765275e-07, -5.59448267e-07,
          -6.04722743e-07, 6.84645045e-07, -2.15192495e-06,
          9.47025399e-07, 1.27705116e-05, -1.14977352e-04,
          -3.63032668e-05, -8.09256526e-05, -6.71493326e-05,
          -1.76884100e-07, 1.48635678e-07, -8.91410821e-07,
          -4.06575815e-20, -1.40454105e-07, 1.87887707e-07,
          2.22764172e-07, 7.36677066e-07, 6.36392951e-06, 1.33730427e-05,
          -6.68181310e-05, -6.17570640e-06, -8.73617182e-07,
          1.03832167e-06, -5.83549154e-05, -9.98795294e-05,
          -2.02925179e-08, 2.09902069e-07, -1.01316584e-06,
          2.50875956e-07, 1.68928196e-07, 3.03527372e-07, 1.80161703e-06,
          4.84561724e-06, 2.45747597e-05, -9.02490410e-06,
          -7.81682900e-07, 1.55421844e-06, -4.86600300e-07,
          -6.36708864e-05, -8.86696944e-05, -7.40711403e-05,
          1.97562748e-08, 4.09738838e-08, -1.37860286e-06,
          -2.22401880e-07, -1.24913765e-06, 3.21478325e-07,
          1.15351519e-07, -1.45361599e-04, -6.70705485e-05,
          -1.07946566e-04, -2.70730311e-07, 2.60875240e-05,
          -6.36433906e-05, -9.42020124e-05, -9.90285553e-05,
          -2.49577823e-07, -1.75209735e-07, -6.08775537e-08,
          -4.72468457e-07, -4.06575815e-20, 8.39814675e-07,
          -2.37441014e-07, -1.52206310e-04, -2.52820930e-04,
          -6.78697324e-05, 1.78338873e-04, 1.97535919e-04,
          1.26344503e-05, -2.52849422e-04, -9.98355608e-05,
          -6.75461633e-05, -1.17676656e-07, -3.28481325e-10,
          6.08742312e-07, 4.05885601e-07, -1.00843579e-06,
          -1.40558234e-06, -1.52121938e-04, -2.52577272e-04,
          -1.00096811e-04, 1.33297026e-05, 1.97817892e-04,
          3.53993019e-05, -1.94854147e-04, -9.92509013e-05,
          -7.24432248e-05, 2.80345233e-07, 3.00053500e-07,
          3.69177741e-07, 5.32146089e-07, 1.07558640e-06,
          -3.91152753e-07, -1.52488443e-04, -2.51162011e-04,
          -9.16408972e-05, 1.11227919e-05, 9.43153282e-05,
          3.17255617e-05, -1.63338205e-04, -9.86702289e-05,
          -7.45139841e-05, 8.26321525e-07, 1.66409734e-07,
          7.72645237e-08, -5.81665915e-07, 1.37525333e-07,
          -1.96556030e-07, -1.53640154e-04, -2.52854778e-04,
          -9.12562027e-05, 1.48686249e-05, 1.50298132e-04,
          3.20395702e-05, -1.62530618e-04, -9.93481372e-05,
          -7.32696644e-05, -2.88149209e-07, 5.14988244e-07,
          -9.74519821e-07, -6.11961184e-07, 1.95345493e-07,
          3.20224376e-06, -1.53039888e-04, -2.52210011e-04,
          -8.71495067e-05, 1.44933920e-05, 1.60242955e-04,
          1.22017636e-05, -2.20441842e-04, -9.95772643e-05,
          -7.25048376e-05, 6.90211152e-07, 3.00053500e-07,
          5.21202537e-07, 8.39305528e-07, -3.70719448e-07,
          -5.34095136e-07, -1.53418543e-04, -2.51978403e-04,
          -8.39001805e-05, 1.28171623e-05, 2.49512086e-04,
          1.80906754e-05, -1.76534682e-04, -9.87072490e-05,
          -7.17592338e-05, -1.09330017e-06, 1.41856958e-06,
          6.46545175e-07, 2.14006910e-08, -2.93343396e-06,
          6.25915845e-07, -1.50341526e-04, -2.51388730e-04,
          -5.02312105e-05, 1.21478488e-05, 1.84323668e-04,
          -5.58964239e-05, -1.77654962e-04, -9.93064532e-05,
          -7.22474360e-05, 2.37476996e-07, 1.27961050e-06,
          -1.34521156e-06, -5.59127670e-07, -4.02793070e-08,
          2.26047845e-07, -1.51048225e-04, -2.52952159e-04,
          -6.42773084e-05, 1.29076734e-05, 1.84341174e-04,
          -5.65132832e-05, -1.86298872e-04, -9.90724293e-05,
          -7.25694917e-05, 1.51365654e-07, 8.33582646e-07,
          1.67546204e-07, 7.76382763e-07, -4.06575815e-20,
          -2.17665658e-07, -1.53790155e-04, -2.50695710e-04,
          -6.48318601e-05, -1.38423211e-05, 1.83487791e-04,
          -5.57241183e-05, -1.85854995e-04, -1.00786361e-04,
          -6.95037525e-05, 7.33898133e-08, -3.65433380e-07,
          -7.27961321e-07, -7.32734179e-07, -2.02541582e-06,
          5.04951970e-07, -1.47001687e-04, -1.52206820e-04,
          -1.65981168e-04, -2.86706609e-07, 3.03164057e-07,
          -2.61237698e-08, 7.93740401e-06, -9.96410963e-05,
          -1.43603393e-06, -1.11665294e-07, -4.40848744e-08,
          4.97802155e-08, 3.12500219e-07, -4.06575815e-20,
          -1.05268816e-06, -6.20138962e-07, -7.53733184e-05,
          -1.30500644e-04, 1.30855233e-06, -3.21551420e-06,
          1.00459124e-06, 6.70029985e-05, -4.23804249e-06,
          4.90839284e-07, -1.05843594e-06, 9.47394838e-08,
          2.39876726e-07, -1.31542754e-06, 9.16736042e-07,
          -1.15209286e-06, 2.36391634e-06, 8.65455222e-05,
          9.99209806e-05, -7.62210739e-10, 0., 4.64554796e-06,
          1.53146349e-04, 9.69132234e-05, 7.50956169e-05, 1.27026669e-06,
          -5.61250033e-07, -3.44826390e-07, 9.82192887e-07,
          -9.93096705e-07, 2.70119500e-08, 1.26639364e-07,
          4.42000637e-05, 3.20509389e-05, 3.02601675e-05, 5.95768797e-05,
          1.52033026e-04, 9.08734291e-05, -5.79797670e-05,
          1.06979987e-05, 6.79846949e-07, -2.35320414e-07,
          1.82307943e-07, 2.45526678e-07, -1.18721083e-07,
          -3.15964627e-07, -1.82437202e-06, 3.88780649e-07,
          3.41154846e-05, 7.73751162e-06, 8.38376764e-06, 8.28556858e-06,
          -2.56221142e-07, 5.88236901e-07, -1.62901429e-07,
          -2.13050271e-07, 1.68461739e-07, -1.39472820e-06,
          -1.17078962e-07, 2.17220929e-07, -1.45125136e-06,
          8.62847457e-07, -1.40599559e-06, 2.30424561e-07,
          -1.94924701e-06, 5.99489596e-08, -1.13155568e-06,
          -3.08642029e-07, -5.96919492e-08, -9.16191254e-07,
          6.82639325e-07, -8.79165611e-08, 1.08228028e-06,
          3.24714478e-07, -3.33570483e-07, 4.84838210e-07,
          1.29488251e-06, -2.82477721e-08, -5.66320693e-07,
          5.42440375e-07, -1.06421692e-06, 8.19477677e-08,
          -1.02961383e-06, 7.34802512e-08, 1.56987505e-06,
          -1.56456068e-07, -1.72035598e-07, 7.12377528e-07,
          -4.06575815e-20, -4.06575815e-20, -4.06575815e-20,
          -4.06575815e-20, -4.06575815e-20, -4.06575815e-20,
          -4.06575815e-20, -4.06575815e-20, -4.06575815e-20,
          -4.06575815e-20, -4.06575815e-20, -4.06575815e-20,
          -4.06575815e-20, -4.06575815e-20, -4.06575815e-20,
          -4.06575815e-20, -4.06575815e-20, -4.06575815e-20,
          -4.06575815e-20, -4.06575815e-20, -4.06575815e-20,
          -4.06575815e-20, -4.06575815e-20, -4.06575815e-20,
          -4.06575815e-20, -4.06575815e-20, -4.06575815e-20,
          -4.06575815e-20, -4.06575815e-20, -4.06575815e-20 ]
      - [ -1.27907470e-07, 2.07265180e-06, 3.78448107e-07,
          -1.29582656e-06, 4.82988412e-07, 4.38688019e-08,
          -1.51461040e-06, 3.27883413e-07, 4.41934873e-07,
          -2.79547407e-07, 4.41934873e-07, 4.20176406e-07,
          -7.49422895e-07, 2.49846863e-07, -5.48872436e-07,
          -1.08355096e-06, 2.01646273e-07, 6.47244818e-08,
          5.88234286e-07, 7.31716966e-07, -1.81055327e-06,
          4.28591989e-07, -3.63804929e-07, 9.00343124e-08,
          1.95738494e-07, -6.26140562e-08, -1.31251440e-07,
          7.82953975e-07, -4.89954687e-07, 9.40349423e-07,
          6.17841465e-07, -1.59491060e-06, 5.57516159e-07,
          -1.29587761e-06, 3.45390532e-07, 1.40810073e-06,
          7.05108860e-08, 2.40894082e-07, 1.14787142e-07,
          -8.17265857e-07, 6.09863722e-20, 9.81205062e-07,
          5.78573008e-07, -1.07735161e-06, -5.89134231e-07,
          -3.53892318e-07, 2.20869197e-07, -2.29626323e-07,
          2.17538377e-06, -7.81187666e-08, 1.17939596e-08,
          2.40621630e-05, -1.92451481e-07, 8.08182904e-07,
          3.90181270e-07, -1.49802929e-06, 4.16705916e-07,
          -8.30836939e-07, 1.07960818e-06, 1.24889652e-06,
          -5.25524548e-08, 1.74895342e-06, -2.34939466e-06,
          -7.48672164e-07, 1.25327366e-04, 1.20469507e-04,
          6.45064138e-05, -5.49587980e-07, 5.54479666e-05,
          6.37033793e-07, -4.24509693e-07, -1.06946186e-06,
          5.41083800e-08, 4.80215590e-07, 1.95738494e-07, 3.15211935e-07,
          2.78747592e-07, 3.37344454e-06, 1.25235034e-04, 1.19585369e-04,
          9.05247289e-05, -1.41142220e-06, 1.53576104e-06,
          1.13543183e-06, 5.82057255e-05, 5.64008042e-05, 1.80068625e-07,
          -1.06946186e-06, -5.96659959e-07, 1.44142689e-07,
          3.77529290e-07, -1.54379395e-05, 9.34787295e-06,
          1.20102988e-04, 1.19873359e-04, 1.43255022e-06, 1.42199508e-06,
          -2.59563507e-07, -5.66779420e-07, 7.99373593e-05,
          2.06910627e-05, 4.54028736e-07, 9.00343124e-08,
          -9.38883673e-08, -2.87006202e-07, -6.52515041e-07,
          -1.63503628e-07, -4.09708548e-07, -1.68883940e-04,
          -1.30060638e-04, -2.30645528e-04, -1.74800298e-04,
          2.96501075e-05, -5.57955389e-07, -4.93987718e-05,
          5.84838599e-05, 1.21476605e-05, 8.92155299e-07,
          -4.60435643e-07, 2.68823754e-07, -2.15633932e-07,
          9.67985443e-07, -2.54951328e-06, -1.84112330e-04,
          -3.04245332e-04, -1.36579038e-04, -4.42079945e-05,
          1.02694336e-04, 1.13584145e-04, -1.02457394e-04,
          5.79500920e-05, -2.16014778e-05, 6.57546821e-07,
          -4.60957608e-07, 3.06729333e-07, -5.53294001e-07,
          -2.12679447e-06, -2.84922385e-06, -1.84138407e-04,
          -3.03352688e-04, -1.19777280e-04, -8.12363214e-05,
          1.22375001e-04, 3.02028220e-05, -1.03005186e-04,
          5.81133136e-05, -4.11282599e-05, -1.72998170e-07,
          1.19872959e-06, 1.71649458e-06, 1.77188622e-06,
          -4.63858072e-08, -1.25505267e-06, -1.83035605e-04,
          -3.03959940e-04, -1.20581783e-04, -7.87752579e-05,
          9.31481263e-05, 1.81368559e-05, -1.03215563e-04,
          -6.81036254e-05, -8.93648466e-05, 9.92636046e-07,
          1.10218679e-07, 4.60964117e-07, -8.07503284e-07,
          2.06199587e-07, 1.88735925e-07, -1.81793541e-04,
          -3.02892178e-04, -1.20913421e-04, -7.87272438e-06,
          9.35312055e-05, 5.14449821e-05, -1.30647357e-04,
          -1.19863165e-04, -8.99439910e-05, 1.17434880e-07,
          2.43689957e-09, 1.17398054e-06, -4.84312864e-07,
          2.17822344e-06, -7.77676178e-07, -1.84396718e-04,
          -3.04144371e-04, -1.19705714e-04, -1.78131941e-05,
          9.56225849e-05, -7.15870283e-06, -2.19909969e-04,
          -1.19806369e-04, -3.94843773e-05, -2.09509864e-07,
          1.48993615e-06, 8.72067574e-08, 8.83486621e-07,
          -7.88770990e-07, 1.96484507e-06, -1.81842290e-04,
          -3.05006251e-04, 5.26796384e-06, 3.67188622e-05,
          1.77517606e-04, -7.68569735e-05, -2.75793253e-04,
          -1.19702716e-04, -3.19211249e-05, 3.87140716e-07,
          9.37423977e-07, 1.06023413e-06, 8.47640763e-07,
          -1.58806176e-06, 1.48178708e-06, -1.35528811e-04,
          -2.24384974e-04, 2.69927605e-05, 8.84441106e-05,
          1.78454429e-04, -1.33219859e-04, -3.04687390e-04,
          -1.19447708e-04, -3.15588040e-05, 2.37593540e-07,
          1.42439319e-06, 7.30380236e-07, -3.98947378e-07,
          1.33678998e-06, -2.23702446e-05, -1.24961764e-04,
          -1.77419686e-04, 1.49074898e-04, 8.93941906e-05,
          8.27304466e-05, -1.84041419e-04, -3.04892077e-04,
          -1.19498633e-04, -3.16376972e-05, 2.43070389e-07,
          1.16669116e-06, 6.83969688e-07, -2.70032643e-07,
          1.01850173e-06, -8.61914373e-07, -5.74308979e-05,
          -1.17626172e-04, 5.22353148e-05, -3.55096454e-05,
          -3.13350101e-05, -1.84705525e-04, -3.03054927e-04,
          -1.20841287e-04, -5.46674491e-05, -1.14581655e-06,
          -5.36076129e-07, -7.60612863e-07, 9.30256419e-07,
          -1.55325677e-06, 9.46764658e-07, -2.09744412e-05,
          1.10234178e-04, 9.90069793e-07, -1.02692276e-04,
          -1.26440937e-04, -2.40759226e-04, -9.01915409e-05,
          -1.20290257e-04, -4.91605606e-05, -2.78018121e-07,
          9.99570375e-07, -1.11837619e-06, -4.93220000e-07,
          1.22646199e-07, 4.18141298e-07, 1.25127597e-04, 1.20190867e-04,
          3.02090157e-05, 2.67201926e-07, 6.83425469e-07,
          -6.58856661e-05, 5.76248713e-05, -2.76934006e-05,
          3.94518764e-08, -1.43808506e-06, 1.10168791e-07,
          4.20041999e-07, -7.82044651e-07, 5.00483964e-07,
          -2.88624960e-07, 1.25792067e-04, 1.34703427e-04,
          1.11487017e-04, -1.25441247e-07, -1.35940070e-07,
          2.39341898e-05, 6.79785662e-05, 1.29124004e-04, 2.37416261e-05,
          -4.58483242e-07, 1.18350943e-06, -1.14840509e-06,
          6.21543109e-07, -9.37927382e-07, 2.39634545e-07,
          1.80797670e-05, 1.53935500e-04, 1.26756233e-04, 1.12775786e-04,
          7.42236734e-05, 8.62482557e-05, 1.10494548e-04,
          -5.71617534e-07, 3.21977041e-07, 9.10638050e-07,
          -1.40260101e-06, 4.42390160e-07, -9.66123608e-08,
          8.27787915e-07, 1.71239353e-05, -7.51305095e-07,
          -4.15663692e-07, 2.76666779e-05, 2.15180644e-05,
          2.25938220e-05, -2.87214931e-07, -4.01271450e-07,
          3.21308022e-07, -3.73385262e-07, 8.86341581e-07,
          -7.34282935e-07, 4.48919735e-07, -6.92795538e-07,
          8.72305577e-07, -6.57652208e-07, 8.29574333e-07,
          -6.75295464e-09, 2.86223876e-05, -6.61268189e-07,
          -2.21378134e-08, -3.41388898e-07, -2.17087841e-08,
          2.07434454e-07, 1.07906783e-06, -2.66965856e-07,
          1.24930830e-06, 5.87345653e-07, 6.35761012e-07,
          -1.11711131e-06, -1.92970518e-07, -7.52579410e-07,
          -5.63610172e-07, -1.13346880e-06, 1.33237052e-07,
          2.92969474e-07, 6.09863722e-20, -9.48342972e-07,
          2.12791946e-07, 8.24235897e-08, -4.82365749e-07,
          -6.83095834e-07, -7.75935405e-09, 6.09863722e-20,
          6.09863722e-20, 6.09863722e-20, 6.09863722e-20, 6.09863722e-20,
          6.09863722e-20, 6.09863722e-20, 6.09863722e-20, 6.09863722e-20,
          6.09863722e-20, 6.09863722e-20, 6.09863722e-20, 6.09863722e-20,
          6.09863722e-20, 6.09863722e-20, 6.09863722e-20, 6.09863722e-20,
          6.09863722e-20, 6.09863722e-20, 6.09863722e-20, 6.09863722e-20,
          6.09863722e-20, 6.09863722e-20, 6.09863722e-20, 6.09863722e-20,
          6.09863722e-20, 6.09863722e-20, 6.09863722e-20, 6.09863722e-20,
          6.09863722e-20 ]
      - [ -8.49201115e-07, 4.29966775e-07, 3.04243315e-07,
          -1.01863805e-06, 3.71395174e-07, 4.36583178e-07,
          -3.60211317e-07, 5.03333240e-07, 1.79790067e-08,
          -6.41011013e-07, -1.33097487e-07, 3.68755309e-07,
          4.19202991e-07, -1.46381879e-07, 6.43519229e-07,
          1.63376717e-06, 9.52222337e-08, -8.02706552e-07,
          1.77819302e-07, -5.84236659e-07, -7.25411127e-08,
          -1.23369389e-07, -6.75256615e-07, 5.42101086e-20,
          -6.30921804e-08, 3.74089808e-07, -3.86759780e-07,
          -2.52368721e-07, -2.04394411e-07, -5.03508602e-07,
          -1.15381681e-06, -2.00605245e-06, 4.30362832e-07,
          -2.12105465e-06, 8.48788943e-07, -4.94470562e-08,
          -3.34660619e-08, 2.08671713e-06, 4.52019492e-07,
          -4.16611599e-08, -1.51076492e-07, -6.05982621e-07,
          7.12221606e-07, -7.64359754e-07, -1.70043222e-07,
          2.30963587e-06, -3.60414447e-07, 4.57160979e-07,
          -5.60428589e-07, -8.91550940e-08, -1.28815770e-07,
          5.66696144e-06, 2.81855108e-07, -3.22374035e-07,
          7.37510618e-07, 1.25863719e-08, -2.71341669e-08,
          -7.85716225e-07, -6.30921804e-08, 7.82238772e-07,
          -1.49123969e-06, 1.90715568e-07, -2.92274535e-07,
          9.54330631e-07, -8.40284088e-07, -6.26749606e-05,
          7.88078978e-05, 3.72577379e-05, 6.18965350e-05,
          -4.26115712e-08, -1.98072172e-07, 8.89542207e-07,
          -1.19247701e-07, 6.04413117e-07, -5.16321677e-07,
          1.39225085e-06, 1.89515140e-06, 1.94185745e-07,
          -1.28596230e-06, -6.07164839e-05, 1.10910965e-04,
          -2.04280423e-06, 2.11456450e-06, 3.40401748e-05,
          6.15590325e-05, -2.70324193e-07, 5.42101086e-20,
          5.49992443e-08, -4.51734479e-07, -1.19247701e-07,
          -8.35096898e-07, 7.66714322e-07, -1.23599182e-06,
          -3.93369883e-05, -2.16625012e-05, 6.96597795e-07,
          1.43344221e-06, -4.89238914e-07, -3.05663121e-07,
          6.20656429e-05, -3.20004729e-05, 6.71677043e-08,
          5.42101086e-20, 5.86037231e-07, 5.64358743e-07,
          -1.40428892e-06, -2.95648846e-07, 6.14910277e-07,
          -1.97257119e-04, -1.54472014e-04, -3.20296676e-04,
          -1.50195701e-04, -6.50067086e-05, -4.68993244e-09,
          1.15508547e-05, 6.17290789e-05, -3.05195172e-05,
          1.10626593e-06, -6.19472871e-07, -1.38828852e-07,
          -2.78962972e-07, 5.99093369e-07, 5.90509103e-07,
          -1.99739618e-04, -3.66118911e-04, -1.78517614e-04,
          -2.00037321e-05, 9.52608316e-05, 1.36881645e-04,
          -1.37386174e-04, 6.25527173e-05, -7.84405711e-05,
          1.91255467e-07, 5.50916639e-07, 7.38358153e-07,
          -4.51074357e-07, -9.52312234e-07, -3.41221238e-07,
          -1.97545989e-04, -3.57701123e-04, -1.30092856e-04,
          3.04000896e-05, 2.12644300e-04, 1.35809460e-04,
          -1.37516006e-04, 6.21686340e-05, -7.82776697e-05,
          4.20178935e-07, 8.14795101e-07, 5.37980668e-07, 1.44603962e-06,
          2.26081842e-09, 8.61326498e-07, -1.98019625e-04,
          -2.94582162e-04, -2.92767872e-05, 1.41812183e-04,
          1.77873837e-04, 8.91869204e-05, -1.38075236e-04,
          -1.66038051e-04, -7.82668867e-05, 1.54303905e-07,
          1.54579595e-06, 9.83910923e-07, 9.53261235e-07, 7.60508158e-07,
          3.81376594e-07, -1.98405833e-04, -2.29359648e-04,
          1.65727015e-05, 2.30235426e-04, 1.79266048e-04, 2.85423066e-05,
          -1.81620184e-04, -1.66688144e-04, -7.95642118e-05,
          -2.89993167e-08, 1.77819302e-07, -2.55089230e-08,
          -9.96702056e-07, 6.63545961e-07, 2.36029314e-06,
          -1.99147209e-04, -2.60454341e-04, 1.28467009e-05,
          4.70300802e-05, 2.17945621e-04, 3.38423888e-05,
          -1.82315503e-04, -1.66775790e-04, -1.36992006e-04,
          1.34198814e-07, 6.53649181e-07, 6.83666372e-07, 8.86226644e-07,
          -3.57383414e-07, 8.67739288e-07, -1.99464601e-04,
          -3.65844287e-04, -9.50365502e-05, 5.83687761e-05,
          3.65539454e-04, 1.67590741e-04, -1.38185336e-04,
          -1.65378864e-04, -1.35803784e-04, 2.36897961e-07,
          1.40228099e-06, 2.96566157e-07, 1.01726414e-06,
          -3.47339483e-06, 8.56075303e-07, -1.94325621e-04,
          -3.65848653e-04, -1.66226833e-04, -8.15496060e-06,
          8.89009607e-05, 1.17200638e-04, -7.11238754e-05,
          5.04404743e-05, -7.92457431e-05, 6.79983316e-07,
          2.58723560e-07, 3.72635270e-07, -1.15948433e-06,
          1.36531444e-08, 3.70458110e-07, -1.99504371e-04,
          -3.66029533e-04, -1.66301426e-04, -7.73583379e-05,
          8.93264732e-05, 1.18962489e-04, -7.14855996e-05,
          4.95185341e-05, -4.50978696e-05, 3.73775038e-07,
          -4.57983163e-08, 5.17870319e-07, 2.54443961e-07,
          6.27970280e-07, -1.17415232e-06, -1.99359929e-04,
          -3.65040294e-04, -1.67146456e-04, -1.66087135e-04,
          8.85029513e-05, 8.78495048e-05, -1.36574861e-04,
          6.09351155e-05, -7.85290467e-05, -3.73998546e-07,
          2.96552372e-07, -1.39272674e-06, 3.25485445e-07,
          -1.64085418e-06, 2.86264310e-07, -1.46824867e-04,
          -1.72808199e-04, -1.68887025e-04, -1.56635288e-04,
          -9.58728776e-08, -9.90444846e-07, 2.45557494e-05,
          6.33143572e-05, 8.49869195e-07, -1.38096993e-06,
          5.87269028e-07, 1.21287292e-06, -8.15482224e-07,
          5.11433996e-07, -1.90614298e-06, -5.80562357e-07,
          -7.50104664e-05, 5.63584144e-05, 3.55813336e-06,
          -8.73661577e-07, 2.71683234e-06, 6.17514088e-05,
          2.81284138e-05, -6.97485859e-07, 8.61563763e-07,
          -3.99146927e-07, 1.58596350e-07, 9.08842026e-07,
          -2.57153579e-06, 3.63779293e-07, 7.77928744e-06,
          1.26500017e-04, 1.65621095e-04, 2.05613972e-07,
          -3.97416301e-07, -5.44846444e-05, 6.21979270e-05,
          -4.79240261e-05, 6.58356001e-08, -5.49860999e-07,
          -1.03982870e-06, -3.34480404e-07, -9.10264077e-07,
          5.14981082e-07, -1.69456348e-06, 1.55884970e-06,
          -1.18151866e-06, 1.27514606e-04, 1.17253250e-04,
          -8.83888933e-05, 6.02369655e-05, -1.37571124e-05,
          -4.96449720e-05, 2.45646811e-06, -2.45067838e-07,
          -1.18237449e-06, 7.55707561e-07, -2.19192486e-07,
          -1.37641280e-07, 3.52791318e-07, -1.39145016e-06,
          1.01326123e-06, -1.13059372e-07, 1.25194356e-06,
          -3.92089277e-08, 1.61340142e-06, -1.56768726e-06,
          1.61295930e-07, 3.28244511e-07, -3.72186889e-07,
          1.95350640e-06, -2.38440236e-07, 2.46248851e-06,
          -1.28326906e-06, -1.13144711e-06, 3.51946653e-07,
          -1.50574340e-06, 4.23094150e-07, -2.05610763e-06,
          4.97938743e-07, -1.82104566e-06, 4.24625767e-07,
          -5.16813486e-07, 4.14647076e-07, 1.04882463e-06,
          -6.65084883e-07, 1.49043558e-06, 1.99494664e-07,
          5.81090831e-07, 5.07343998e-07, 2.35396598e-07, 3.11184635e-07,
          -1.54015027e-06, 1.62767617e-06, -2.36519668e-06,
          9.11378322e-07, -2.17454087e-07, 3.16495743e-07,
          -3.81967538e-07, 1.17168682e-07, 1.94692734e-06,
          -3.96144344e-07, 5.42101086e-20, 5.42101086e-20,
          5.42101086e-20, 5.42101086e-20, 5.42101086e-20, 5.42101086e-20,
          5.42101086e-20, 5.42101086e-20, 5.42101086e-20, 5.42101086e-20,
          5.42101086e-20, 5.42101086e-20, 5.42101086e-20, 5.42101086e-20,
          5.42101086e-20, 5.42101086e-20, 5.42101086e-20, 5.42101086e-20,
          5.42101086e-20, 5.42101086e-20, 5.42101086e-20, 5.42101086e-20,
          5.42101086e-20, 5.42101086e-20, 5.42101086e-20, 5.42101086e-20,
          5.42101086e-20, 5.42101086e-20, 5.42101086e-20, 5.42101086e-20 ]
      - [ -1.02826073e-06, 8.08252139e-07, 8.69858354e-07,
          -1.43302248e-06, 2.02279196e-07, 3.01610129e-07,
          -1.67223533e-07, 9.49785743e-08, 1.14090756e-06,
          -1.12512703e-06, 4.61041509e-07, 1.60990476e-06,
          -2.03008040e-06, 4.68871093e-07, 8.01411375e-07,
          8.45603722e-07, -1.61942481e-07, -1.93818167e-07,
          1.50753931e-06, -5.02590638e-07, -1.16655440e-06,
          2.12515772e-07, 7.41758583e-07, 1.94410035e-07, 2.78752736e-06,
          -2.06156173e-07, -3.30647850e-07, 1.49298478e-06,
          -5.96117104e-07, -1.38292773e-06, -5.15941281e-07,
          -3.08441008e-06, 9.49958746e-07, -2.08960091e-06,
          6.01531610e-07, 4.62504971e-07, -1.05135507e-06,
          4.05939829e-07, 8.53766380e-07, -4.34936794e-07,
          -1.32946653e-07, -6.92117510e-07, -1.30119577e-06,
          -2.27435771e-06, -4.28619245e-07, -1.87465204e-07,
          3.62597166e-06, 4.76180844e-07, -1.00714192e-06,
          6.65428445e-07, -5.16018531e-07, 9.24943663e-07,
          1.20781363e-06, -1.38190956e-07, 1.70084013e-06,
          -9.05888612e-07, 8.42165377e-07, -6.07168261e-07,
          1.13915939e-06, -1.55589055e-06, -1.84705846e-06,
          5.00734529e-07, -9.95828145e-07, -3.66291971e-07,
          4.47182970e-07, -1.38224423e-04, -1.51628759e-04,
          -1.31044973e-04, -1.79516443e-04, 1.65186095e-04,
          2.61482492e-05, 7.14246255e-07, -4.74828852e-07,
          1.21545355e-07, 3.96469346e-07, 3.15253169e-06, 1.94410035e-07,
          6.14633890e-08, 1.93323035e-06, -1.38298114e-04,
          -1.37479874e-04, -1.64934594e-04, -9.26315479e-05,
          3.39670878e-05, -9.28060763e-05, 1.64544923e-04,
          6.85814143e-07, -1.92726088e-06, 5.49576328e-07,
          5.63494609e-07, -3.04326079e-07, 1.79154699e-06,
          -1.03461684e-06, -3.45519293e-05, -1.37329713e-04,
          -3.14567209e-04, -1.62282886e-04, -6.24078723e-07,
          -4.78007223e-07, -3.98352095e-05, -7.31700638e-05,
          -6.20041192e-07, 3.97479255e-07, -1.58436762e-06,
          -2.67274714e-07, -2.82437384e-07, -6.54138034e-07,
          -3.04326079e-07, -1.35668335e-04, -1.55446032e-04,
          -2.12783794e-04, -1.46351129e-04, 1.79103208e-05,
          8.13913516e-07, -7.43967466e-05, -8.98372746e-05,
          -1.21350124e-04, 1.18934076e-06, -3.26749444e-07,
          -1.43537790e-07, 6.51385051e-07, -2.18069636e-06,
          1.02053207e-06, -1.39173775e-04, -3.93515453e-04,
          -1.29793916e-04, 1.37519310e-04, 2.89486110e-04,
          2.54998275e-04, -2.28913283e-04, -9.13258409e-05,
          -1.77456939e-04, 5.45649321e-08, -7.55168401e-07,
          6.54348867e-07, -1.06417417e-06, 3.09152279e-06,
          -1.99199144e-06, -1.36372153e-04, -2.87981296e-04,
          2.28662848e-05, 1.35803697e-04, 2.89148797e-04, 2.37638495e-04,
          -1.50690496e-04, -9.04976841e-05, -2.15685955e-04,
          2.73955976e-07, 2.54491994e-07, -6.10361099e-07,
          5.13046587e-07, -1.07743062e-06, 7.82612119e-07,
          -1.38176969e-04, -1.64378158e-04, 2.13213025e-05,
          1.37841722e-04, 1.42598059e-04, 1.23720180e-04,
          -1.25781822e-04, -9.01530148e-05, -1.58778843e-04,
          2.59807365e-07, 5.85352666e-07, 7.90783020e-07,
          -3.13038555e-07, -6.38947085e-07, 3.21180863e-07,
          -5.91112730e-05, -1.65200574e-04, 4.45628103e-07,
          5.85912567e-05, 2.28062345e-04, 1.43427416e-04,
          -1.26644474e-04, -8.85163827e-05, -1.76047222e-04,
          -5.94042319e-07, -1.24496660e-06, -9.71000304e-07,
          9.96477012e-10, 6.09060464e-07, -1.88679259e-08,
          -6.14533274e-05, -9.70827314e-05, -6.66548513e-05,
          -1.61999356e-04, 2.28594727e-04, 1.61921445e-04,
          -2.29258992e-04, -9.13791446e-05, -1.61711010e-04,
          -2.26540351e-08, 8.26503310e-07, 8.97551502e-07,
          -1.25216005e-07, 7.02263563e-08, -4.91262938e-07,
          9.15844794e-05, 1.64367373e-06, -6.28356356e-05,
          1.60660915e-04, 2.26204196e-04, 2.52889498e-04, 1.85798172e-07,
          -8.97536811e-05, -1.96567780e-04, -7.97310975e-07,
          1.93750157e-06, -5.50515097e-07, -2.48944665e-09,
          -5.37386597e-07, 3.14228009e-06, -3.40398801e-05,
          1.09019552e-07, 1.38516232e-04, 1.43306024e-04, 2.14974541e-04,
          7.67939637e-05, -3.72317891e-06, -8.84566980e-05,
          -5.16384716e-05, -1.19807031e-04, 2.70124957e-07,
          9.79535457e-07, 5.09607787e-07, -6.64505762e-07,
          -4.61013826e-07, -2.73008809e-05, -1.28230306e-06,
          1.37290699e-04, 1.45342186e-04, 2.14700602e-04, 7.73495558e-05,
          3.39140456e-07, 1.36062154e-04, 5.24546413e-05, 4.46717095e-05,
          4.16816874e-07, -1.62633413e-07, 3.11007895e-08,
          1.31809929e-06, -4.11146971e-07, -1.35871829e-04,
          -9.33875199e-05, 1.36247923e-04, 1.39677795e-04,
          2.13003601e-04, 6.88183791e-05, 1.45626495e-06,
          -1.48417139e-05, -2.81928278e-05, 8.07578317e-07,
          -8.38051392e-07, -4.92454376e-07, 6.80654921e-07,
          -2.61600940e-06, 2.19036650e-07, -1.04811435e-04,
          -1.35305119e-04, -3.90708417e-04, -1.63400415e-04,
          -7.50263571e-05, -3.97492101e-07, 8.13413294e-07,
          -1.31222750e-05, -1.51298473e-05, 1.46840847e-07,
          7.36849159e-08, 1.20764355e-06, -5.89117292e-07,
          3.46477168e-06, 2.43991622e-07, 4.55608955e-07,
          -1.38636504e-04, -2.71955098e-04, -3.44458211e-04,
          -1.63239310e-04, -7.28470113e-05, -1.42922136e-05,
          7.43152632e-05, 4.30732086e-07, 9.91705974e-07,
          -2.37973700e-06, 1.51615859e-06, 9.14718498e-07,
          -1.36698588e-06, -6.89011443e-08, 7.63619937e-07,
          -8.28682403e-08, -1.36428600e-04, -3.40504455e-04,
          -1.65355770e-04, -3.41279265e-05, -1.24927692e-05,
          9.23410698e-05, 2.37606764e-05, 8.76918989e-07,
          -2.67587012e-07, -4.89916374e-07, -1.94389102e-07,
          -8.58682540e-07, 1.12506120e-06, -2.98263075e-07,
          -8.78552328e-07, -1.03650666e-04, -2.12704719e-04,
          -1.30528570e-04, -5.54442086e-05, -1.11859072e-05,
          3.11837648e-05, 1.30141461e-06, 1.44456760e-06,
          -7.78831975e-07, -5.37537915e-07, 8.23818198e-07,
          5.34497133e-07, -3.67161164e-07, -1.00685565e-06,
          1.07761844e-06, -2.77351376e-07, -5.04621823e-07,
          1.36334575e-06, 5.57508486e-07, -3.09012165e-07,
          4.01928247e-07, -1.54400959e-06, -3.22265166e-08,
          8.80183336e-07, 1.04188075e-06, -1.06582058e-06,
          1.40096986e-07, -1.81950429e-06, 1.57700856e-06,
          5.87109696e-07, 2.86102659e-06, -5.64354252e-07,
          -3.92384777e-07, -5.15645468e-07, 5.83878034e-07,
          7.76933007e-07, 3.75802159e-07, -1.87837230e-07,
          -1.31682634e-06, 1.19891922e-06, 6.50358800e-07,
          -7.03297530e-07, 2.92991558e-07, 5.38333211e-07,
          2.89268769e-07, -8.93578772e-07, -2.88453066e-07,
          8.31671016e-08, 8.65163429e-07, -2.15820478e-06,
          -6.10251163e-07, 3.92264752e-07, 1.83370744e-07,
          -6.74264626e-08, 3.36908585e-07, -1.69406589e-20,
          -1.69406589e-20, -1.69406589e-20, -1.69406589e-20,
          -1.69406589e-20, -1.69406589e-20, -1.69406589e-20,
          -1.69406589e-20, -1.69406589e-20, -1.69406589e-20,
          -1.69406589e-20, -1.69406589e-20, -1.69406589e-20,
          -1.69406589e-20, -1.69406589e-20, -1.69406589e-20,
          -1.69406589e-20, -1.69406589e-20, -1.69406589e-20,
          -1.69406589e-20, -1.69406589e-20, -1.69406589e-20,
          -1.69406589e-20, -1.69406589e-20, -1.69406589e-20,
          -1.69406589e-20, -1.69406589e-20, -1.69406589e-20,
          -1.69406589e-20, -1.69406589e-20 ]
      - [ -2.59009823e-07, 3.55561042e-07, 8.25545328e-07,
          -1.94490121e-06, 5.06203833e-07, 3.69523519e-07,
          -9.16964325e-07, 5.61577229e-10, 6.12430767e-07,
          -2.18050832e-06, 5.57819703e-07, 8.32208343e-07,
          -1.87366140e-06, 9.54344841e-07, -7.35170431e-07,
          -1.46293542e-06, 2.14977126e-06, -8.45896238e-07,
          -4.06575815e-20, 5.78484276e-07, 9.58048986e-07,
          4.93925114e-08, 1.34326751e-06, 3.27627589e-07, 1.01191642e-06,
          1.39082044e-06, 7.55989447e-07, -1.56933140e-06,
          -2.72842698e-07, -2.30971432e-06, -3.96843063e-07,
          -2.99900717e-06, -6.90818865e-07, -1.22476479e-06,
          -2.18731287e-07, -9.96351091e-08, 3.63409163e-06,
          1.10193483e-07, -1.45382970e-07, -1.19912272e-06,
          1.13145506e-06, -2.17511365e-06, 6.42555307e-08,
          -7.34969348e-08, -1.26486626e-07, 5.35059201e-07,
          3.12585200e-07, 4.45346956e-07, -1.86343755e-06,
          1.74400071e-07, -6.30452803e-07, 1.15034463e-05,
          1.33438004e-06, -1.38064161e-06, 1.88602780e-06,
          8.97441112e-07, -1.25221703e-07, -3.36014466e-07,
          9.63899538e-07, -3.16947830e-06, -1.67411611e-06,
          -8.25377953e-08, -2.28464046e-06, 1.48930326e-06,
          1.25628561e-04, -3.20309628e-05, 1.37662486e-04,
          6.02778437e-06, 4.10936336e-05, 2.07919962e-04, 4.35332126e-08,
          -1.53117674e-06, 2.79527126e-06, 2.39795014e-07,
          7.08600567e-07, 7.38824440e-07, 9.64063588e-07,
          -1.00882325e-07, 9.60420366e-05, -4.27215746e-05,
          1.38798729e-04, -1.91650770e-06, 1.47084484e-06,
          7.79780567e-06, 4.18510645e-05, 2.08835569e-04, 2.63500829e-06,
          -2.35619473e-06, 1.03284158e-07, 1.23737266e-06,
          -1.30804150e-08, -1.46375805e-06, 8.86500584e-06,
          8.77764614e-05, -4.25868420e-05, 4.75747441e-07,
          2.76264268e-06, 0., -7.79342445e-05, 4.18278141e-05,
          -1.39488664e-04, -3.94540422e-07, 1.53107680e-06,
          -1.90731066e-06, 1.19063304e-06, 3.59044122e-07,
          -8.13788574e-07, 7.71246221e-07, -1.07328029e-04,
          -4.34351859e-05, -9.37600726e-06, -7.71149789e-05,
          -7.19598611e-05, -2.11117163e-04, -1.74836707e-04,
          -1.63821853e-04, -5.05718617e-07, 1.17145999e-06,
          2.58550330e-07, -1.58341243e-06, 1.17268485e-06,
          -7.09506367e-07, 2.88844285e-06, -8.10615820e-05,
          -2.08082769e-04, 8.69172363e-05, 6.89325534e-05,
          6.36010227e-05, -2.07620775e-04, -3.71732429e-04,
          -1.65451915e-04, -4.43032222e-05, -1.37376901e-07,
          2.79656206e-07, -4.06575815e-20, -1.04274068e-06,
          2.35457287e-06, -4.09241665e-07, -4.33469650e-05,
          -2.08620680e-04, 1.14163675e-04, 2.34532956e-04,
          1.89988976e-04, 1.06706580e-06, -2.41916612e-04,
          -1.65812657e-04, -8.05169257e-05, -2.11870699e-07,
          1.30653621e-06, 1.14268437e-06, 1.36370284e-06, 1.76440813e-06,
          -6.91163621e-07, -4.07462976e-05, -1.81715906e-04,
          1.15256742e-04, 2.31105179e-04, 1.81773852e-04,
          -3.55611592e-05, -1.64477955e-04, -1.36501447e-04,
          -6.47593988e-05, -2.03220083e-07, 6.19770731e-07,
          1.49211974e-06, -3.13559440e-07, -1.15316845e-06,
          1.08977531e-06, -2.06000172e-04, -2.08474186e-04,
          -1.43556363e-05, 2.63303315e-04, 2.37968023e-04,
          1.29516397e-04, -1.64014491e-04, -1.39384749e-04,
          -6.56997290e-05, 8.19811774e-08, 1.49211974e-06,
          5.66301424e-07, -1.01232774e-06, 1.14794773e-06,
          2.05544052e-06, -2.06924771e-04, -3.71247908e-04,
          -1.16273834e-04, 7.16077484e-05, 2.70980265e-04,
          1.63244098e-04, -1.62837881e-04, 4.24134960e-05,
          -9.16923818e-05, 6.90033403e-07, 2.11731219e-07,
          1.44625130e-06, -2.87373723e-07, 4.51080467e-07,
          -5.89804529e-07, -2.06358731e-04, -3.72052833e-04,
          -1.66263868e-04, -1.60898999e-05, 1.63779565e-04,
          1.65574515e-04, -1.64217272e-04, 4.32397865e-05,
          -9.40985701e-05, 2.88962428e-06, 5.65513801e-07,
          2.79832534e-06, 4.09909603e-07, -2.75706475e-06,
          -4.36426184e-08, -2.05512784e-04, -3.69282934e-04,
          -1.63966382e-04, -7.12916153e-05, 1.34571848e-04,
          3.19303326e-05, -1.37792595e-04, 4.24584505e-05,
          -7.97703469e-05, -1.30609328e-08, 2.32578850e-06,
          -7.51025254e-07, -7.50861091e-07, -5.93173127e-07,
          1.64284882e-06, -2.06560464e-04, -3.72250885e-04,
          -1.65976409e-04, -6.97145006e-05, 1.34650152e-04,
          3.12581433e-05, -1.37280062e-04, 4.29582615e-05,
          -8.10126148e-05, 1.13040255e-06, 2.95118838e-07,
          1.58367970e-06, 5.12575866e-07, 7.80727817e-07,
          -6.25689509e-08, -2.05139600e-04, -3.71824775e-04,
          -1.66945436e-04, -2.77825020e-05, 1.33843248e-04,
          7.93456275e-05, -1.64040379e-04, 4.21567056e-05,
          -4.54049987e-05, 8.55094058e-08, -4.96697453e-07,
          1.00975548e-07, 2.55034195e-07, -1.51889481e-06,
          -4.71944333e-07, -1.95055094e-04, -1.66020865e-04,
          -1.83599201e-04, -1.30995249e-04, -1.26290175e-07,
          -1.32538707e-06, 2.17035249e-05, 4.48959872e-05,
          2.02782118e-07, -7.31922057e-07, 1.11651468e-06,
          1.27300564e-06, -8.61406249e-07, 1.92903417e-06,
          -5.03496665e-07, 2.57576230e-05, -4.34885224e-05,
          2.69105403e-05, 1.50956430e-06, -1.01189300e-06,
          2.28777776e-06, 4.26518127e-05, -6.80451103e-06,
          -3.18453772e-07, 2.62336727e-07, -1.15487421e-06,
          -4.19680362e-08, 4.09085459e-07, -1.71984982e-06,
          1.13349165e-06, 2.66066982e-05, 1.12093207e-04, 1.65004501e-04,
          1.96783981e-06, -1.03818149e-06, -6.63621904e-05,
          4.35635993e-05, -2.96442558e-05, -7.95251310e-07,
          -3.27640493e-07, -8.97955886e-07, 4.25397019e-07,
          5.12164490e-07, -1.16074625e-06, 2.98435339e-07,
          4.50991621e-07, 3.65204432e-05, 5.67104144e-05, 1.34472284e-04,
          -9.10035960e-05, 4.19546632e-05, -6.44895335e-05,
          -3.15663710e-05, 2.53303301e-06, -7.53808933e-07,
          -6.85400153e-07, 1.84989528e-06, -1.56299308e-07,
          -6.46887628e-08, -3.41473850e-07, -1.03728996e-06,
          4.30934222e-07, -4.46566986e-07, 1.50904168e-06,
          -3.84603396e-07, 8.15225917e-07, -1.27660212e-06,
          -4.13594350e-08, 1.47509695e-06, -3.39677456e-07,
          6.02658588e-07, 2.75717895e-07, 1.84341866e-06, 7.27123165e-07,
          -1.72515945e-06, 1.52866761e-07, -9.73954229e-07,
          1.09808877e-06, -9.46817408e-07, 1.62891268e-07,
          -1.05584559e-06, 6.34053208e-07, -2.26601344e-07,
          -1.79530328e-08, 2.16115905e-06, -7.12259691e-07,
          2.31169997e-06, 4.08563068e-08, -3.10911474e-07,
          4.74094463e-07, -1.02270371e-06, 2.20566676e-08,
          -1.94228210e-06, 5.73088982e-07, -1.87332193e-06,
          5.95345625e-07, 1.45530635e-07, 2.73234804e-07,
          -2.17722103e-07, -3.85436067e-07, 1.80616053e-06,
          -8.37652465e-07, -4.06575815e-20, -4.06575815e-20,
          -4.06575815e-20, -4.06575815e-20, -4.06575815e-20,
          -4.06575815e-20, -4.06575815e-20, -4.06575815e-20,
          -4.06575815e-20, -4.06575815e-20, -4.06575815e-20,
          -4.06575815e-20, -4.06575815e-20, -4.06575815e-20,
          -4.06575815e-20, -4.06575815e-20, -4.06575815e-20,
          -4.06575815e-20, -4.06575815e-20, -4.06575815e-20,
          -4.06575815e-20, -4.06575815e-20, -4.06575815e-20,
          -4.06575815e-20, -4.06575815e-20, -4.06575815e-20,
          -4.06575815e-20, -4.06575815e-20, -4.06575815e-20,
          -4.06575815e-20 ]
      - [ 4.35023338e-07, 5.37919902e-07, 9.97769405e-08,
          -2.60275215e-06, 1.29759565e-06, 8.95141397e-07,
          -2.54418819e-06, 1.74421388e-07, 1.62405638e-06,
          -3.71869373e-06, 1.54849181e-06, 1.72116665e-06,
          -1.28087561e-06, -8.57694488e-07, -1.37459335e-06,
          -2.55734221e-06, 2.27831424e-06, 7.84833901e-07,
          8.21873471e-07, 7.35018546e-07, 1.25405063e-06, 7.23289418e-07,
          -4.32101473e-07, 7.61762976e-07, 1.63949366e-07,
          -8.89305113e-07, 8.55886242e-07, -4.13634370e-06,
          3.88449166e-07, -2.67832479e-06, 1.07760570e-06,
          -3.66532367e-06, -1.92766720e-06, 5.46051297e-06,
          -2.52424843e-06, 6.52025918e-08, 2.20746415e-07,
          1.37370944e-06, -1.16804586e-06, 3.27066959e-06,
          -1.51872598e-07, -4.41362681e-06, 2.50871864e-07,
          -3.10157043e-06, 2.86810473e-06, 1.09677785e-06,
          2.26315308e-07, 2.19026629e-06, -4.37955714e-06,
          1.59028070e-06, -2.74051530e-07, 1.58620526e-06,
          1.91186857e-07, -2.17499746e-06, 1.68829411e-06,
          1.59641434e-06, -4.71263490e-07, -8.87828321e-07,
          -5.59340037e-07, -8.23047594e-06, -4.98870406e-07,
          -4.14459834e-07, -4.51883534e-06, 4.74292801e-06,
          -1.62349068e-06, 1.58348521e-05, -9.26982102e-05,
          1.11709426e-06, -1.81290288e-05, 3.49279202e-04,
          1.94841263e-07, -4.19376875e-07, 5.78455229e-06,
          7.21299557e-07, 1.19732988e-06, 1.18930370e-06, 3.35803452e-06,
          -9.22309709e-07, -4.19435253e-07, 1.59770243e-05,
          -1.16851079e-05, -4.38219240e-06, 4.48412175e-06,
          -2.32626553e-06, -1.60495856e-05, 3.45268985e-04,
          2.70606483e-06, -3.07555820e-06, -6.98429631e-07,
          -2.10874518e-07, -8.53464940e-07, 8.83152950e-07,
          6.97314078e-07, 2.17655524e-05, 4.41299417e-05, 1.81983251e-06,
          2.60378420e-06, -1.46936975e-06, -1.83088836e-04,
          -1.60625677e-05, 6.40405779e-05, 4.71500716e-05,
          5.16608088e-06, -1.67118492e-06, 3.46226943e-06,
          -2.10064763e-06, 1.71560885e-06, 5.25526787e-07,
          -1.15853472e-04, -6.00377243e-05, -3.25876300e-07,
          6.58081774e-07, -2.04730823e-04, -3.97268916e-04,
          -1.04828505e-04, -1.70106796e-04, -5.83080146e-05,
          6.31832279e-07, 4.35583360e-07, -1.95251300e-06,
          1.87044577e-06, -1.13724604e-06, 1.63116943e-06,
          1.42666258e-05, -3.15682148e-04, 2.61637237e-04,
          -1.96895908e-05, 3.06021633e-07, -3.38662619e-04,
          -6.99236756e-04, -3.66056396e-04, -1.45306229e-04,
          5.27118232e-07, 2.76939477e-06, -8.30249462e-07,
          3.57124941e-06, 1.30935962e-06, -1.26814678e-06,
          1.51352742e-05, 1.68669635e-06, 2.58092099e-04,
          -1.58078692e-05, 1.25507169e-04, -2.89851916e-04,
          -7.03924743e-04, -3.65910761e-04, -2.70402408e-04,
          1.13831788e-06, -8.79642130e-07, 1.71397369e-06,
          1.94800168e-06, 7.96959398e-07, 1.08957613e-06,
          -2.94834936e-05, 1.14474892e-06, 2.61030713e-04,
          3.31751653e-04, 2.87920760e-04, -3.56062774e-05,
          -5.79988759e-04, -3.63894389e-04, -2.35065600e-04,
          -1.77445611e-06, 9.03696218e-07, 4.16569804e-07,
          6.41708141e-07, -9.57349812e-07, -1.10676740e-06,
          1.79156996e-05, -5.06355491e-07, 2.87486124e-04,
          3.38831596e-04, 3.08250397e-04, 2.39382280e-04,
          -2.31600032e-04, -2.90084950e-04, -2.37594606e-04,
          7.08402808e-07, 2.01274611e-06, 3.75772117e-07,
          -3.07778532e-06, 6.72712940e-06, 1.19552260e-06,
          6.11481009e-05, 3.11273266e-06, 3.31923395e-04, 3.75573902e-04,
          4.42031975e-04, 2.60647124e-04, -1.37423252e-04,
          -1.40516850e-05, -2.36641034e-04, 6.13678537e-07,
          4.48928222e-06, 1.12562510e-07, 1.89467028e-06,
          -3.40427800e-06, 2.35611788e-06, 1.77057427e-05,
          -5.93800041e-06, 3.34468758e-04, 3.71245726e-04,
          5.95770660e-04, 2.63139576e-04, -3.87414093e-06,
          1.33548638e-05, -3.24350520e-04, -5.00186388e-07,
          3.12074150e-07, 3.25738779e-06, 3.49407571e-07,
          -4.62683374e-06, 2.79685355e-06, -8.36088875e-05,
          -6.00966530e-07, 3.99820146e-06, 7.70586048e-05,
          1.77741109e-04, -3.20537256e-05, 2.91138946e-07,
          -1.31442921e-05, -1.14412323e-04, 3.63426079e-06,
          -3.80331727e-07, 4.33119993e-07, -1.80927714e-06,
          1.78346909e-07, 3.90538480e-06, -8.79908912e-05,
          -9.55587097e-07, -1.67886792e-05, 7.45387879e-05,
          2.91317083e-05, 4.51747910e-05, 1.66328732e-07,
          -1.74662346e-05, -1.12603731e-04, 1.09602263e-06,
          8.73407032e-07, 1.59713500e-06, 1.98474891e-06, 1.59081566e-08,
          9.89569912e-07, 1.69883260e-05, 7.26817291e-07,
          -1.41335113e-05, -1.40342190e-05, 3.48483741e-06,
          1.48049212e-05, 7.69087706e-07, -1.39522563e-05,
          1.65620695e-05, -7.33780780e-07, 2.82886708e-06,
          -3.08599010e-06, -1.44416776e-06, -1.42071224e-06,
          2.06620328e-07, -1.55057030e-04, 2.53039529e-04,
          2.52288214e-06, 1.29330132e-07, -1.83059535e-06,
          2.04515845e-06, 3.33627599e-04, -1.67168528e-05,
          1.19840806e-04, -1.48499305e-06, -4.98055819e-08,
          -3.21771267e-06, -1.56040494e-06, 3.12382758e-06,
          -2.80121617e-06, 2.76446353e-05, 1.63737695e-05,
          -8.35911633e-05, 1.95015309e-06, -2.52872860e-06,
          -5.92373567e-07, 1.11932546e-04, 3.45524721e-04,
          -6.77475327e-07, 2.16511944e-06, 1.69831321e-06,
          6.77957860e-06, 2.52491850e-06, -1.09480789e-06,
          1.01733633e-06, -1.78580558e-06, 6.33681193e-05,
          6.22913722e-05, 2.89225682e-06, 0., 7.38929812e-05,
          -1.84466335e-05, 7.24131605e-05, 4.17756883e-06,
          -1.24337942e-06, -2.60592913e-07, -2.80237691e-06,
          1.93273036e-06, -6.72228225e-06, -2.62555034e-07,
          2.08751203e-06, 8.81411779e-07, 3.72335817e-05, 5.80021042e-05,
          4.85413220e-05, -1.96056462e-05, -5.15160391e-05,
          -1.75203377e-06, 1.45821878e-06, 1.36530423e-06,
          -2.23984011e-06, 2.01731929e-08, 6.21825166e-07,
          2.47109006e-06, 4.49124900e-06, -5.26604845e-06,
          -8.15541767e-09, 3.53122346e-06, 1.46290063e-06,
          1.09441132e-07, -3.59190039e-07, -7.40213068e-07,
          -9.86029022e-07, 2.33146989e-06, 1.18197818e-06,
          1.41262660e-06, -2.45297679e-06, -8.78646233e-07,
          1.46961440e-07, -1.46565043e-07, 1.31701165e-06,
          -4.11178462e-07, 1.65455140e-06, -4.29746979e-06,
          1.80761492e-06, 6.34940136e-08, 2.62564669e-07, 1.80912343e-06,
          -5.21228594e-06, 8.46150044e-07, 2.18450123e-06,
          5.47078002e-07, 7.66533617e-07, -4.01751595e-06,
          1.41484486e-06, -4.13792941e-06, 2.05070705e-06,
          -1.95858820e-06, 1.03305933e-06, -4.17234469e-06,
          1.11394577e-07, 5.04635352e-07, 2.78237394e-07, 4.29074635e-06,
          -1.75196192e-06, -7.62114723e-07, 1.92441189e-06,
          7.45388994e-20, 7.45388994e-20, 7.45388994e-20, 7.45388994e-20,
          7.45388994e-20, 7.45388994e-20, 7.45388994e-20, 7.45388994e-20,
          7.45388994e-20, 7.45388994e-20, 7.45388994e-20, 7.45388994e-20,
          7.45388994e-20, 7.45388994e-20, 7.45388994e-20, 7.45388994e-20,
          7.45388994e-20, 7.45388994e-20, 7.45388994e-20, 7.45388994e-20,
          7.45388994e-20, 7.45388994e-20, 7.45388994e-20, 7.45388994e-20,
          7.45388994e-20, 7.45388994e-20, 7.45388994e-20, 7.45388994e-20,
          7.45388994e-20, 7.45388994e-20 ]
      - [ 1.65255074e-07, 3.81187633e-08, 3.62912971e-07,
          -9.52892492e-07, -4.33151079e-08, -3.90570904e-07,
          -3.66879398e-08, -6.95312750e-08, -3.36011610e-08,
          6.56419203e-08, -1.00745027e-07, 1.92753248e-07,
          -3.57299257e-07, -8.96862886e-08, -3.93439848e-07,
          4.64537322e-07, -1.95648848e-08, -5.24446477e-07,
          3.92355375e-08, -2.61081908e-07, 6.54960161e-07,
          4.61294860e-07, -3.29417361e-07, 1.91482263e-06,
          7.81501853e-07, -3.36130654e-07, -2.05617184e-07,
          5.68776670e-07, 2.50838048e-06, -9.25109418e-07,
          3.24452316e-07, -1.82862379e-06, 7.86383964e-07,
          -1.38994366e-07, -5.38118172e-07, 2.26655493e-06,
          -7.17549469e-08, 6.36329219e-07, 1.65473139e-07,
          -9.67000801e-07, 1.71961585e-06, -9.61259801e-08,
          -9.07263313e-07, -1.49064348e-07, -1.43871077e-07,
          1.31841045e-08, 9.09545506e-08, 6.94347364e-07,
          -1.43032480e-06, 1.49652749e-06, 1.93874968e-07,
          1.74175824e-07, 2.54820407e-07, 3.08796371e-05, 3.20777253e-05,
          3.01911987e-05, 5.98252598e-07, -1.52213161e-07,
          6.56238171e-07, -1.22928930e-06, 3.02182201e-07,
          -2.43758848e-07, -1.09274004e-06, 7.88354782e-07,
          9.02139291e-05, -4.66684214e-05, 9.39868332e-05,
          2.63890379e-05, 1.26093277e-04, 1.59810093e-04, 1.23316539e-04,
          4.01941179e-05, 4.92331253e-07, -3.56426284e-07,
          -3.22758410e-07, -4.95691211e-07, 1.18087462e-06,
          4.97928774e-08, 8.51567020e-05, -5.51604307e-06,
          8.03378498e-05, -8.60806892e-07, 1.11984184e-06,
          2.50581943e-05, 1.46526421e-04, 1.60340671e-04, 1.24525148e-04,
          -9.41561780e-07, 2.92584389e-07, 2.60053810e-07,
          -2.04383355e-07, -7.93137431e-08, -1.50430466e-07,
          -2.84702292e-05, -4.65564735e-05, -1.18346725e-04,
          8.55641588e-07, -4.79813309e-07, 2.66872291e-07,
          1.32646237e-04, 8.00273046e-05, 9.38349331e-05, 6.73718716e-08,
          -4.60894455e-07, -1.62942470e-07, -5.11521478e-07,
          -6.66733399e-07, 6.83547583e-08, -1.45661557e-04,
          -1.46479651e-04, -2.01678777e-04, -2.02056544e-04,
          -2.87031471e-05, -7.58308233e-05, 5.36936313e-05,
          4.70420782e-05, -2.60930705e-07, 2.36700856e-07,
          -2.37264501e-07, -6.94069286e-07, -3.01112379e-07,
          6.16089494e-07, -4.14832311e-06, -1.47187311e-04,
          -2.60331464e-04, -1.17954361e-04, -3.46244124e-05,
          5.39230714e-05, -4.78025577e-05, -1.42345103e-04,
          -8.11925420e-05, -5.57032899e-06, 1.35923153e-06,
          -6.55343158e-09, 4.90326215e-07, 6.26566361e-07,
          1.08556560e-06, -3.50001369e-06, -1.45369660e-04,
          -2.59467197e-04, -1.13207519e-04, -3.54532713e-05,
          9.97605894e-05, -1.48577801e-05, -1.03733488e-04,
          -8.07351389e-05, -3.54364638e-05, -3.85976620e-07,
          2.64817658e-07, 6.01615284e-07, 8.86637395e-07,
          -2.00940462e-07, -3.95326879e-06, -1.46604230e-04,
          -2.57836451e-04, -1.14047638e-04, -3.55417869e-05,
          6.55217227e-05, 4.75171291e-05, -8.88986979e-05,
          -8.05388772e-05, -3.61919774e-05, 1.75751765e-07,
          1.50930930e-06, 7.83287646e-07, 1.75344184e-07, 2.46225682e-06,
          7.34533558e-07, -1.46808117e-04, -2.59824708e-04,
          -1.12709029e-04, -4.09369350e-05, 6.74101320e-05,
          4.77429749e-05, -1.35326016e-04, -1.12773152e-04,
          -3.63452127e-05, 1.67747999e-07, 4.00942383e-07,
          6.32702495e-07, -1.51140597e-07, 8.07504421e-07,
          1.76733337e-07, -1.47159852e-04, -2.59793393e-04,
          -1.13832430e-04, 4.56515809e-05, 1.31539491e-04,
          2.72651450e-05, -1.96976907e-04, -1.12945214e-04,
          -5.55568695e-05, -1.54466591e-07, 1.21862786e-06,
          5.91678429e-07, 2.37299400e-06, -1.13667477e-06,
          8.73886066e-08, -1.45565326e-04, -2.60349043e-04,
          -9.90734916e-05, 6.39012869e-05, 2.60558649e-04,
          1.32671703e-05, -2.29187950e-04, -1.12331094e-04,
          -5.56869090e-05, 9.87307430e-07, 1.91946754e-07,
          -1.43943865e-07, 9.40021749e-08, -5.03016402e-08,
          1.09326993e-06, -1.47350554e-04, -2.59624387e-04,
          -9.68057211e-05, 6.46058761e-05, 1.68756640e-04,
          7.62517175e-06, -1.76189438e-04, -1.13141650e-04,
          -5.16342470e-06, 3.31837242e-07, 1.17110267e-06,
          8.82945983e-07, -2.37863276e-07, 1.16787771e-06,
          -8.74483521e-06, -1.46935403e-04, -2.60458793e-04,
          -1.35208638e-05, 6.48996574e-05, 1.02403443e-04,
          8.43214093e-06, -1.76783768e-04, -1.12617781e-04,
          -4.33412379e-06, -2.93769659e-07, 5.36560094e-07,
          -1.79057356e-08, -1.77432156e-07, -7.23552205e-08,
          -1.84174827e-08, -1.46528677e-04, -2.32570601e-04,
          -6.52117960e-05, 9.48019588e-05, 1.01561396e-04,
          7.30355941e-06, -2.05868753e-04, -1.13917034e-04,
          -6.26228393e-06, 9.54380880e-07, -4.60067440e-07,
          -7.74645628e-07, 3.12692464e-07, -1.48897675e-06,
          4.17366493e-07, -9.54179122e-05, -1.19033044e-04,
          -1.19176031e-04, 4.32915868e-07, -9.95031733e-05,
          -2.16914894e-04, -1.18051765e-04, -1.13139686e-04,
          -1.89497584e-07, -8.89452451e-07, 4.23436319e-07,
          -1.12753241e-06, 6.98132112e-07, -4.31934325e-07,
          -7.34077510e-09, -9.46281580e-06, -4.68541293e-05,
          -4.18072377e-05, 2.16310787e-06, -1.00963014e-04,
          -2.15070380e-04, -1.13532922e-04, -6.32721731e-06,
          5.12591157e-07, -1.56419389e-06, -5.53858797e-07,
          6.57158239e-07, -1.33702804e-06, 4.41902529e-07,
          -1.68593920e-06, 6.36685968e-07, 1.41624992e-06,
          -4.72070569e-05, 1.31959598e-06, -1.00532023e-04,
          -8.04380979e-05, -1.13580470e-04, -4.99422049e-06,
          -5.83008102e-07, -4.56556137e-07, -4.31440697e-07,
          -2.02352510e-07, 9.93386720e-07, -5.04467664e-07,
          1.13523040e-08, 8.90747458e-08, -1.59266406e-07,
          2.64850740e-07, -1.35608076e-04, -1.22636222e-04,
          -1.13315698e-04, -3.52468414e-05, -6.92596223e-06,
          7.82985637e-07, -6.52891970e-07, -8.62504734e-09,
          -8.03132821e-07, -3.62100877e-07, 3.55838552e-07,
          -3.12896191e-07, -4.83671499e-07, 6.97302539e-07,
          -1.06843299e-06, -1.77440839e-07, 6.82976292e-07,
          -3.77425607e-07, -5.24205689e-07, 8.66122889e-07,
          -4.41190366e-07, 1.87145488e-07, -9.46524949e-07,
          -7.93422942e-07, 1.40603277e-06, -6.03053991e-07,
          -2.61462361e-07, 3.18984661e-07, 6.16204943e-07,
          -6.29890053e-07, 3.64282187e-07, -1.14865600e-06,
          -1.27467658e-07, 9.32738942e-07, -1.64102204e-07,
          -1.77627055e-06, 9.24840606e-07, 5.51496768e-08,
          1.18051787e-06, -2.29565671e-07, 1.05150946e-06,
          -4.05492159e-07, -8.77703314e-07, -7.26917563e-07,
          -3.11671016e-07, -8.01649946e-07, 9.36894196e-07,
          3.40976243e-07, -8.80764787e-07, 1.48609836e-08,
          3.72012607e-07, -1.04603134e-06, -1.44915461e-07,
          -2.51410967e-07, 2.71050543e-20, 2.71050543e-20,
          2.71050543e-20, 2.71050543e-20, 2.71050543e-20, 2.71050543e-20,
          2.71050543e-20, 2.71050543e-20, 2.71050543e-20, 2.71050543e-20,
          2.71050543e-20, 2.71050543e-20, 2.71050543e-20, 2.71050543e-20,
          2.71050543e-20, 2.71050543e-20, 2.71050543e-20, 2.71050543e-20,
          2.71050543e-20, 2.71050543e-20, 2.71050543e-20, 2.71050543e-20,
          2.71050543e-20, 2.71050543e-20, 2.71050543e-20, 2.71050543e-20,
          2.71050543e-20, 2.71050543e-20, 2.71050543e-20, 2.71050543e-20 ]
      - [ 2.93261735e-07, 5.90920195e-07, 2.93425984e-07,
          -1.16797048e-06, 4.85938017e-07, 8.91446291e-07,
          -1.32144226e-06, -5.00771080e-07, 3.46307054e-08,
          -1.79931391e-07, 3.46307054e-08, 3.01022283e-07,
          -3.66167768e-07, 2.62135728e-07, -1.56509770e-07,
          -4.84888005e-07, 3.90288477e-07, 1.44839908e-06,
          1.85700833e-06, -3.19662149e-07, -2.86825383e-07,
          1.72146372e-06, -3.04899146e-07, -1.82959117e-19,
          3.68689797e-07, 3.71527129e-08, -8.72092869e-07,
          1.47475919e-06, -5.28527323e-07, 8.24627932e-07,
          5.86687747e-07, -1.60054026e-06, -7.92378614e-07,
          1.30114563e-06, -4.98371662e-07, -1.82959117e-19,
          2.48482229e-06, -2.47738797e-07, -1.28863505e-07,
          -6.43146791e-07, -1.82959117e-19, 1.19238962e-06,
          5.04401321e-09, -1.57895761e-06, -4.47750438e-07,
          5.46762124e-07, 2.38516321e-07, -2.70515073e-07,
          -1.74205752e-06, 5.44031082e-07, 1.63929781e-06,
          -7.35083574e-07, 1.46712992e-07, 1.14070008e-06,
          6.02044565e-07, -1.41767907e-06, 4.37951201e-07,
          -1.11018528e-06, 3.68689797e-07, 1.62021274e-06,
          -1.29149544e-06, 2.36449728e-06, -1.95577445e-06,
          -1.55250333e-07, 2.40943507e-07, 6.13104294e-06,
          -1.50902097e-05, -8.03845160e-06, -7.85161319e-06,
          7.61282934e-07, -3.79277196e-07, -1.64575169e-07,
          -1.75815458e-07, 6.36675281e-07, 3.68689797e-07,
          7.81791186e-07, -1.82959117e-19, -8.44446561e-07,
          -2.19199592e-08, 6.13104294e-06, -3.79989397e-05,
          -1.58027888e-06, 9.16385432e-07, -7.92302581e-06,
          -6.13104294e-06, -1.75815458e-07, -1.82959117e-19,
          -2.60523443e-08, -1.28600072e-06, -1.75815458e-07,
          -1.68164860e-07, -1.86198093e-07, 2.51822848e-06,
          4.52641470e-05, 6.20614901e-06, -2.15159616e-06,
          1.31844774e-06, -9.70267280e-08, -6.69712051e-07,
          -6.10080360e-06, -8.14366867e-05, 3.18081163e-07,
          -1.82959117e-19, 7.42423595e-07, -1.79869524e-08,
          -1.67915198e-06, 1.62017409e-06, -5.98325130e-07,
          -1.53612578e-04, -8.57762643e-05, -6.08994924e-07,
          1.05873994e-08, 9.13602707e-05, 3.75674233e-07,
          -1.02467449e-04, -5.68329278e-06, -4.60507617e-05,
          9.03066905e-07, -5.55092640e-07, 4.38879283e-07,
          -4.62620903e-07, -2.62009257e-06, -3.03006971e-08,
          -1.53791640e-04, -3.14013130e-04, 8.83683606e-05,
          2.82122317e-04, 1.74768284e-04, 8.43170492e-05,
          -2.69381737e-04, -6.23181177e-06, -1.18740660e-04,
          2.28049629e-07, 2.26703179e-07, 2.65938229e-06, 4.12973634e-07,
          -3.88816403e-07, -1.03268167e-06, -1.57136092e-04,
          -3.10187257e-04, 1.69054503e-04, 2.80991633e-04,
          4.06743115e-04, 2.72951642e-04, -1.94836335e-04,
          -5.77246465e-06, -2.60539295e-04, 8.81413087e-07,
          2.39041037e-06, -4.05848510e-07, 9.48951310e-07,
          3.31436354e-06, -8.50609354e-07, -2.16527638e-04,
          -3.10664182e-04, 1.67456237e-04, 2.78781081e-04,
          1.78459683e-04, 1.31192050e-04, -1.51350861e-04,
          -2.03328120e-04, -2.74176826e-04, -9.98133842e-08,
          1.23087273e-06, 1.07780863e-06, 2.49821142e-07,
          -3.13254259e-06, 4.40292865e-07, -2.14588144e-04,
          -3.13472410e-04, -2.75065668e-05, 3.39824765e-04,
          3.73859802e-04, 1.77643815e-04, -1.50212276e-04,
          -2.75972910e-04, -3.16687248e-04, 1.62239849e-06,
          1.64930350e-06, -2.94764641e-06, -6.85424823e-07,
          -1.30519516e-06, 3.07569576e-06, -2.83388392e-04,
          -3.12452350e-04, -3.13338642e-05, 3.42310348e-04,
          5.15319756e-04, 2.74109625e-04, -2.12558065e-04,
          -1.51590066e-04, -3.07782728e-04, -7.20209073e-07,
          1.17543971e-06, 1.35714254e-06, -1.49277440e-07,
          -3.18649859e-06, 2.34271145e-08, -2.25869808e-04,
          -3.13603465e-04, 2.81233428e-04, 3.29837465e-04,
          5.52106008e-04, 2.73820478e-04, -2.06233512e-04,
          -3.65011147e-06, -2.58651184e-04, 7.34811294e-07,
          8.63630191e-07, 1.11439078e-06, -1.27387136e-06,
          -1.93913206e-06, 2.15015370e-06, -3.70379312e-05,
          -4.47709652e-07, 2.85950984e-04, 2.79864646e-04,
          2.58276705e-04, 2.00435912e-04, -1.05917525e-06,
          -5.29220188e-06, -2.19318114e-04, 1.61101116e-06,
          8.70155077e-07, 2.42427177e-06, -2.39837703e-07,
          -1.22234724e-06, 4.43026835e-07, -3.66345230e-05,
          2.73150988e-07, 5.28085729e-05, -7.17584999e-06,
          2.58713379e-04, -2.60147826e-05, -1.57975740e-06,
          -5.26372560e-06, -1.46434468e-04, 7.32867534e-07,
          3.83187107e-05, 2.06903053e-07, 1.36308790e-06, 6.68668861e-07,
          8.74676630e-07, 7.86213604e-06, -1.24390544e-06,
          6.16448451e-05, -3.41783789e-06, -6.67255736e-05,
          -6.72195165e-05, 1.32284626e-07, -6.34725984e-06,
          2.59354929e-05, 7.46652586e-05, 3.65020715e-05, 5.54248913e-07,
          -3.83236426e-07, -2.52704723e-07, -6.61813544e-07,
          3.77832953e-06, 3.20555642e-04, 2.78214520e-06,
          -2.80837034e-04, 8.29099861e-07, 1.27052564e-08,
          1.99593720e-04, -7.00210376e-06, 6.13603843e-05,
          7.74884711e-07, 5.67465179e-07, -4.31088729e-08,
          1.54845065e-06, 2.90049798e-06, -5.55202178e-07,
          2.91012169e-04, 7.96062377e-05, -3.06980979e-07,
          1.67699875e-06, -2.01700186e-06, 1.45656452e-06,
          1.19938617e-04, 1.79491486e-04, 3.24290777e-05,
          -4.51423887e-07, 4.19340950e-07, 1.77316542e-06,
          4.05801444e-07, -3.90173739e-07, 2.29484016e-07,
          6.47144843e-05, 2.88481475e-04, 3.19546642e-04, 4.89877607e-07,
          -4.99004273e-07, 1.12085596e-04, -6.71605494e-06,
          1.05586805e-04, 8.11154095e-08, 1.30421753e-07, 5.02196258e-07,
          -4.06631472e-07, 1.17888339e-06, -4.58584600e-06,
          1.19901188e-06, 3.46307054e-08, -9.09554387e-07,
          9.45826541e-05, 1.98168025e-04, 8.03690345e-05, 7.12194960e-05,
          -3.08601157e-05, -7.52518172e-05, 9.13593055e-07,
          9.52135281e-07, -4.04133459e-07, 9.75931357e-07,
          -1.20048037e-06, 1.19514027e-06, -1.58375781e-06,
          9.51488985e-08, 2.22488347e-06, -8.03369119e-07,
          2.43066552e-06, -1.41869816e-06, -5.29091551e-07,
          -2.04582625e-06, 1.03062143e-06, 1.36115136e-06,
          -6.52488666e-07, -1.14726822e-06, 3.96725710e-07,
          1.26476743e-06, 1.54490976e-06, 6.77071228e-07, 1.68232901e-07,
          -1.00165266e-06, -1.82959117e-19, -2.28240060e-06,
          8.79450567e-07, 1.73104593e-06, 1.11476561e-06, 8.08686764e-07,
          -2.57458646e-06, 9.50503988e-07, 8.64685774e-07,
          1.14855834e-06, 1.50341862e-06, -2.75933212e-06,
          3.46431329e-06, -2.79404549e-06, -5.88984165e-07,
          -2.25154417e-06, 6.92614108e-08, -2.29907550e-06,
          2.37719576e-07, -1.14459954e-06, -3.70374153e-07,
          1.57380077e-06, -1.64011624e-06, -9.79057745e-07,
          8.52773610e-07, -1.82959117e-19, -1.82959117e-19,
          -1.82959117e-19, -1.82959117e-19, -1.82959117e-19,
          -1.82959117e-19, -1.82959117e-19, -1.82959117e-19,
          -1.82959117e-19, -1.82959117e-19, -1.82959117e-19,
          -1.82959117e-19, -1.82959117e-19, -1.82959117e-19,
          -1.82959117e-19, -1.82959117e-19, -1.82959117e-19,
          -1.82959117e-19, -1.82959117e-19, -1.82959117e-19,
          -1.82959117e-19, -1.82959117e-19, -1.82959117e-19,
          -1.82959117e-19, -1.82959117e-19, -1.82959117e-19,
          -1.82959117e-19, -1.82959117e-19, -1.82959117e-19,
          -1.82959117e-19 ]
      - [ -5.76195703e-07, 1.75778223e-06, 2.72666193e-06,
          -3.42303929e-06, -3.01781597e-07, 3.23483187e-06,
          -2.15628506e-06, 3.34960132e-05, -1.54159996e-19,
          -1.55511873e-06, -2.58466457e-07, 9.45298552e-07,
          8.12644714e-07, -8.45985141e-07, 1.67978317e-06,
          -1.76787296e-06, -5.89020431e-07, 1.79682004e-07,
          4.80701965e-06, -2.36997494e-06, -1.54276870e-06,
          9.24594133e-07, 1.43609782e-06, 2.65926275e-07,
          -4.88561625e-07, 1.16517708e-06, -5.37537062e-07,
          -1.91093136e-06, 4.75854250e-07, -2.05334322e-06,
          1.98979023e-06, -4.42451255e-06, -1.05895033e-07,
          -4.62129179e-07, -1.23026587e-06, 4.38966026e-07,
          -6.53727227e-07, -7.24746030e-07, -1.01649810e-07,
          1.41640999e-06, -1.71836191e-07, -2.70494888e-06,
          1.79850167e-06, -6.71478801e-07, 5.56871043e-07,
          -1.13443139e-06, -5.48029902e-07, 5.14091198e-07,
          -1.24395683e-06, 6.68547364e-06, -1.06905873e-06,
          1.07380527e-06, 1.22983897e-06, -1.76746642e-06,
          3.87705171e-07, 1.96790006e-06, -4.88561625e-07,
          -3.28113742e-07, -4.88561625e-07, -1.29904174e-06,
          -2.63179982e-06, 2.07944026e-06, -1.07198184e-06,
          -5.29635315e-07, 3.75728159e-05, -8.28820794e-06,
          1.32893008e-04, 3.79418634e-05, 1.17610152e-05,
          -6.04275442e-07, 4.55562997e-07, 1.78411176e-06,
          -3.14108377e-07, 3.51849877e-07, -1.30727608e-06,
          1.66880500e-06, 4.00475784e-07, -1.76132528e-06,
          1.06722428e-06, -6.70320605e-06, 1.45411788e-04,
          7.51910761e-07, 1.94135418e-06, 7.53760105e-05, 7.73191459e-06,
          -5.29259694e-07, 5.75167689e-07, -6.98928204e-08,
          7.94975222e-07, -4.81820770e-08, -6.71228463e-07,
          7.71794475e-07, -2.06085360e-06, 2.02541443e-04,
          5.61125598e-05, -1.01614216e-06, 2.51063557e-06,
          -2.92649418e-07, 4.27672177e-07, 7.62699638e-05,
          -7.95449523e-06, 9.85952465e-06, 3.09241415e-07,
          3.32840955e-07, 8.02833881e-07, -1.99917940e-06,
          2.69126735e-06, -8.74368993e-07, -5.33971797e-06,
          1.42373377e-04, 2.56429007e-06, -2.95461541e-06,
          8.26022660e-05, 7.25163488e-07, 1.24048485e-04, 6.95243216e-06,
          -7.80712362e-05, 1.82668330e-07, -6.84719680e-07,
          3.93090716e-07, -1.53016202e-07, 1.22281074e-06,
          -1.32028335e-05, -9.29519410e-06, 8.73593137e-07,
          -5.75431186e-05, 5.86566675e-05, -6.49258873e-05,
          -1.01750165e-05, 1.71657882e-06, 8.00880844e-06,
          -1.04765240e-04, -6.45551950e-08, -3.72304754e-07,
          -8.33221861e-07, -9.08241802e-08, -2.20541051e-06,
          6.60794612e-05, -8.57405121e-06, -4.61562564e-07,
          -4.39297182e-05, 6.55202166e-05, -4.04217133e-07,
          -4.90964430e-06, 3.97746987e-07, 6.55913846e-06,
          -7.88106991e-06, 5.32351180e-07, 5.39184100e-07,
          -4.28777099e-07, 4.05110040e-06, 9.26736277e-07,
          6.82086247e-05, 1.57465984e-05, 1.32348896e-06, 2.74336693e-04,
          6.51698201e-06, 4.67065802e-05, -4.86062381e-05,
          7.14846976e-07, 8.31836405e-06, -6.50637458e-06,
          -6.67123004e-07, -2.97192946e-06, 7.07483764e-07,
          6.71458409e-08, -2.08832375e-06, 1.27693363e-06,
          -8.29260080e-06, -1.23382938e-06, 2.81214830e-04,
          3.33540112e-04, 3.91402398e-04, 2.96886545e-04, 8.85766042e-07,
          9.00977375e-06, -5.15404918e-06, -2.10462673e-07,
          1.12038833e-06, -3.42848665e-07, -1.56913075e-07,
          -3.62979506e-07, 1.05068978e-06, -1.72278014e-04,
          -3.47631401e-04, 3.27039714e-04, 3.28842521e-04,
          5.14215149e-04, 2.50807032e-04, -9.32238038e-07,
          7.97628854e-06, -1.98009129e-05, -1.77950341e-07,
          -9.29470161e-07, -2.10144592e-07, -1.12573184e-06,
          -9.39404799e-07, 2.28825411e-06, -3.30786919e-04,
          -4.31940192e-04, -1.73954595e-05, 3.31790332e-04,
          5.79849875e-04, 2.50532874e-04, -7.00176372e-07,
          6.43486192e-06, -4.93111183e-05, -1.38360875e-07,
          6.56779321e-07, -3.13336187e-07, 1.62017869e-07,
          -3.47331934e-07, -8.57008686e-09, -4.17583884e-04,
          -6.70745620e-04, -1.74885397e-04, -2.36308551e-04,
          1.43980196e-05, 1.86241421e-04, 1.54728227e-07, 9.10172093e-06,
          -6.24256136e-05, -7.92253786e-07, 7.19454988e-07,
          -7.40430323e-07, -1.21807739e-06, 1.84961766e-06,
          -2.91274191e-05, -4.21853474e-04, -6.72484864e-04,
          -3.42065527e-04, -2.34522187e-04, 1.63118784e-05,
          4.33628770e-07, -8.63551577e-07, 8.03745479e-06,
          -9.65097934e-05, 1.48197933e-06, -1.54159996e-19,
          -1.32200773e-06, 2.25504573e-06, 8.10335337e-07,
          -2.27162445e-06, -3.28584982e-04, -6.71949063e-04,
          -3.42126412e-04, -2.59138586e-04, 2.56381842e-04,
          2.76251492e-04, -3.20778345e-04, 7.32841545e-06,
          -2.29770649e-05, 8.28218674e-07, -4.33451049e-07,
          -7.21513004e-07, -7.89664966e-07, -4.69140514e-06,
          1.67900225e-06, -2.23882584e-04, -2.47995107e-04,
          -3.49747395e-04, -6.60942678e-05, -3.55038708e-07,
          -2.94893471e-06, -6.62588500e-05, 1.17149448e-05,
          8.74675322e-07, -2.84855741e-06, 1.51819893e-06,
          1.47200717e-06, -5.29960744e-07, 1.17860202e-06,
          -1.85022873e-06, 6.49299238e-07, -1.25846171e-04,
          1.05013038e-04, 3.73161697e-06, 6.61652507e-07, 6.10344114e-06,
          7.12785095e-06, -3.67022985e-05, -2.12651639e-06,
          1.90469905e-06, -1.16452566e-06, 1.39735107e-07,
          -5.84424185e-07, -2.54766428e-06, 1.78190959e-07,
          9.40530299e-07, 2.27237935e-04, 3.04782443e-04, 2.57788315e-06,
          -4.87474199e-06, -7.28918967e-05, 9.37469940e-06,
          -6.44602842e-05, -2.15681268e-07, -2.57586476e-06,
          -1.63494781e-06, 2.12368400e-06, -3.70147660e-07,
          -3.24402163e-06, -6.12716519e-07, 1.18960872e-06,
          -1.07184690e-06, 1.98582202e-04, 2.38716922e-04,
          -7.03727346e-05, 6.46123408e-06, -1.06333522e-04,
          -6.80492449e-05, 4.69573024e-06, -8.75832541e-07,
          -5.13826933e-07, 1.47750598e-06, -2.46911867e-07,
          -1.21889215e-07, 3.09433040e-06, -2.62750996e-06,
          1.08730580e-06, 1.35986875e-06, -3.18133280e-05,
          -3.06954462e-05, 1.49185701e-06, -2.66940492e-06,
          -2.69992206e-09, 1.93101937e-06, -8.48049808e-07,
          2.74573222e-06, 9.65037430e-07, 1.40973941e-06, 2.17806914e-07,
          -3.53605878e-06, 1.51759082e-06, -2.73494038e-06,
          1.81687858e-06, -8.62562217e-07, 9.25523409e-07,
          -2.07401740e-06, 1.55319276e-06, -1.19985282e-06,
          -3.55920236e-07, 3.51497101e-06, -3.75950123e-07,
          3.61697744e-06, 7.21945739e-08, 1.58917089e-06, 1.22858421e-06,
          -1.61840433e-06, -6.35767947e-07, -1.24422695e-06,
          -2.44339702e-07, -3.20526919e-06, 1.84563100e-06,
          -2.70070643e-07, 8.90678848e-07, -7.82745076e-07,
          1.94187336e-07, 3.37629444e-06, -1.34736933e-06,
          -1.54159996e-19, -5.96295919e-08, -1.54159996e-19,
          -1.54159996e-19, -1.98765306e-08, -1.54159996e-19,
          -1.98765306e-08, -1.54159996e-19, -1.54159996e-19,
          -1.54159996e-19, -1.54159996e-19, -1.54159996e-19,
          -1.54159996e-19, -1.54159996e-19, -1.54159996e-19,
          -1.98765306e-08, -1.54159996e-19, -1.54159996e-19,
          -1.54159996e-19, -5.96295919e-08, -1.54159996e-19,
          -1.54159996e-19, -5.04863874e-06, -1.54159996e-19,
          -1.54159996e-19, -1.54159996e-19, -1.54159996e-19,
          -1.54159996e-19, -1.54159996e-19, -1.54159996e-19 ]
      - [ -1.23001098e-06, 3.39367853e-06, 3.32903966e-07,
          9.32699322e-07, -1.81606561e-06, -1.03937532e-06,
          -8.83386349e-07, -1.41122116e-04, -2.33506739e-07,
          -5.05407058e-07, -2.33506739e-07, 1.21979519e-06,
          2.15507498e-06, -5.58367788e-07, 2.21390724e-06,
          -5.58463626e-07, -2.10813269e-07, -9.19269993e-08,
          1.97996002e-07, -2.58718927e-07, 1.39003510e-06,
          -3.08155973e-06, 7.94276787e-07, 0., -5.58367788e-07,
          3.35748211e-07, 0., -8.34179957e-07, -1.99611719e-07,
          9.28229760e-09, -8.26265989e-07, -1.10390781e-08,
          1.05701781e-06, -3.00885927e-06, 3.71989768e-06,
          -4.55391813e-07, -4.73066535e-07, -9.01540091e-07,
          2.66136158e-06, -5.99272767e-07, 0., 5.79009509e-07,
          1.98109683e-06, 6.03504873e-07, 1.66850697e-07, 4.64788798e-07,
          -1.21895141e-06, -2.03863647e-06, 5.74217211e-06,
          -3.43986380e-06, 1.36225719e-06, 4.59944531e-05,
          -1.29690068e-06, -2.44953746e-08, 1.98822431e-06,
          -3.37389110e-07, -8.72687565e-07, -4.80911694e-07,
          -3.07051010e-07, 5.09198662e-06, -3.37512688e-07,
          1.54890074e-06, -4.59189778e-07, -1.37667666e-06,
          2.89134972e-04, 3.24222667e-04, 1.73743116e-04, 2.35068379e-04,
          2.08623736e-04, 1.30299540e-07, -3.91184019e-09,
          3.47139189e-06, 0., 1.95867869e-06, -1.04319133e-06,
          5.91729076e-07, -1.46051912e-06, 5.40106839e-06,
          2.88515643e-04, 3.17470229e-04, 1.77737966e-04,
          -3.96294297e-07, -2.46808241e-07, 1.83045893e-04,
          1.45048427e-04, -1.44273497e-06, -2.29594889e-07,
          3.69707504e-06, -2.29594889e-07, -3.91184019e-09,
          1.61811715e-06, -4.89414788e-06, 2.43914627e-07,
          1.93725922e-04, 1.80773000e-04, 3.38879045e-06,
          -1.20863160e-06, 2.22911399e-06, 1.82661854e-04,
          2.02582887e-04, 1.46387256e-05, 8.87110389e-07,
          -4.80911694e-07, 2.96633539e-06, -4.16334132e-07,
          -1.39398484e-08, -9.83878522e-07, -2.90002362e-07,
          -4.59189778e-07, -1.01918624e-04, -2.42481954e-04,
          -2.63627415e-04, -3.12873453e-05, 1.82030068e-04,
          2.67443480e-04, 2.67033145e-04, 5.56169013e-08, 3.42979070e-06,
          -4.80911694e-07, 8.66877429e-07, 6.14389648e-07,
          4.90417563e-07, 5.71253281e-07, -1.33148137e-06,
          1.18106789e-06, -3.24204768e-04, -3.65933898e-04,
          -2.68031145e-04, 2.94183148e-04, 2.67418829e-04,
          2.67680909e-04, -9.53618041e-07, 2.36855453e-06,
          -2.25130378e-07, 4.80482413e-07, -1.57004990e-06,
          3.85613426e-08, 5.71253281e-07, -1.44717603e-06,
          -1.46088070e-07, 1.92326502e-06, -2.66276271e-04,
          -2.62697489e-04, 1.37251729e-04, 2.17818175e-04,
          2.68297328e-04, -3.07468753e-07, -1.73977995e-07,
          1.03894604e-06, 4.19359048e-06, 2.63506604e-06,
          -1.42715670e-08, 3.43009151e-06, -1.43652449e-06,
          -2.08523375e-06, 6.77049172e-07, -2.60665722e-04,
          -2.68173171e-04, 1.40284959e-04, 1.56870563e-04,
          1.41823093e-05, 5.01824445e-07, 9.99627446e-07, 3.84794731e-07,
          5.59260371e-08, -4.80911694e-07, -1.05593767e-06,
          1.96137492e-07, 5.78090794e-06, 8.53771098e-07,
          -2.55588770e-06, -1.33564317e-04, -2.67977040e-04,
          6.35578408e-06, 1.30207671e-04, 8.34705020e-07,
          -9.92608648e-07, 1.66850697e-07, -1.08100679e-07,
          2.18791274e-06, -2.00007207e-07, 2.36265441e-06,
          -2.61677224e-06, 1.13586941e-06, -2.52792660e-07,
          3.91414187e-06, -1.37837065e-04, -2.64053233e-04,
          3.45340850e-05, -5.78054023e-05, 0., 4.52383119e-06,
          -3.54207799e-07, 1.74825232e-06, 1.90391404e-06,
          -2.12985219e-06, 0., 3.03130651e-06, -1.73222554e-06,
          -1.11949464e-06, 2.88256444e-04, -3.54527765e-05,
          -1.31362671e-04, -2.14672793e-04, 5.00493059e-07,
          -5.64248978e-07, 8.94679090e-07, 5.59260371e-08,
          1.16740114e-06, 1.72482760e-06, 4.12526970e-06,
          -7.58470776e-07, 2.68412236e-06, -5.55406814e-07,
          -2.14102852e-06, 2.27343044e-04, 9.96537856e-05,
          -1.88739956e-04, -2.17064458e-04, 1.56951114e-06,
          2.19235162e-07, 1.33901062e-06, 1.88031481e-06,
          -1.41960328e-07, 3.09898769e-06, -4.27172125e-07,
          3.41791065e-06, -7.17044259e-07, 6.37401627e-07,
          2.89080868e-04, 3.70450638e-04, -7.89215919e-05,
          -1.90613166e-04, -2.30442107e-04, 1.41512737e-06,
          2.10586177e-06, -5.21981406e-07, 1.75416483e-06,
          3.03225988e-06, -2.23385450e-06, 5.33103091e-08,
          1.21268135e-06, -1.95231951e-06, 2.87638075e-04,
          2.87446688e-04, 4.30055836e-04, -7.72344210e-05,
          -3.31079355e-04, -2.30645906e-04, 3.27111024e-06,
          -2.10828989e-06, 2.40231884e-06, -2.27522855e-06,
          -8.59829186e-07, 3.78987721e-07, 2.88983347e-06,
          9.05032664e-07, 2.36242613e-07, 2.89161195e-04, 5.50334284e-04,
          2.32041639e-04, -6.00086896e-05, -1.90410967e-04,
          -3.33919917e-04, -5.23329027e-06, 5.56169013e-08,
          1.25954941e-07, -1.87964235e-06, 3.89703609e-06,
          1.03871514e-07, 5.32520062e-07, 1.28748945e-06,
          -3.57877070e-07, 2.25139258e-04, 2.31408470e-04,
          1.10009598e-04, -2.20553102e-06, 5.72688214e-06,
          -1.87042402e-04, 3.35619843e-05, -7.77882349e-07,
          -1.03867171e-06, 7.45156058e-07, 1.54703048e-06,
          3.73577166e-07, -1.90813307e-06, -2.99086025e-07,
          1.47762262e-06, 1.04732353e-04, 1.09072222e-04,
          -4.57161968e-06, -2.47656112e-06, -1.87245277e-07,
          -1.49031212e-06, -2.87336414e-04, 3.16726546e-05,
          1.62547585e-05, -4.34725189e-06, 3.09357006e-06,
          -4.58010618e-06, 9.43252360e-07, 1.51559630e-06,
          -2.75609341e-06, -6.11432406e-05, 4.95352178e-05,
          1.09024673e-04, 3.59969044e-06, 1.27513977e-06,
          -2.87273084e-04, -5.02063704e-05, 1.34850109e-06,
          -6.90301192e-07, -4.93968969e-07, -1.49212326e-06,
          9.25337019e-07, 1.34636821e-07, 4.96296870e-08,
          -1.27225553e-06, -6.50123752e-07, -6.05515343e-05,
          -1.53689666e-06, -4.48865389e-09, -2.04001731e-06,
          -8.76723643e-05, -3.00497481e-06, -6.04606385e-07,
          -2.07395473e-07, 1.96715246e-06, -9.99720555e-07,
          5.50307414e-06, 2.18949566e-07, 8.72044438e-07,
          -1.21748735e-06, 2.20407514e-06, -1.45184595e-06,
          5.82863208e-07, -3.44562352e-07, 2.78584196e-07,
          2.28770585e-08, 2.28263502e-07, 2.43574618e-07, 2.89701802e-06,
          -2.47873209e-06, 6.23496874e-07, -1.53385361e-06,
          4.90099353e-07, -8.25473990e-07, -1.42059764e-06,
          -2.34695605e-07, -1.34764036e-06, 3.54730133e-07,
          2.81810230e-07, 1.02594424e-06, -3.44562352e-07,
          -7.76142144e-07, -3.33572444e-07, -3.40385054e-06,
          -1.10242063e-07, -1.17123716e-06, -1.91575418e-06, 0., 0., 0.,
          0., 0., 0., 0., 0., 0., 0., 0., 0., 0., 0., 0., 0., 0., 0., 0.,
          0., 0., 0., 0., 0., 0., 0., 0., 0., 0., 0. ]
      - [ -1.49049993e-06, 4.65728618e-07, -2.08973916e-06,
          1.90655203e-06, -3.83351062e-06, 1.63372556e-06,
          1.55510679e-06, -1.60574826e-04, -1.27170938e-06,
          -9.49987850e-07, -1.27170938e-06, 2.86429653e-08,
          4.06672598e-06, 2.92192908e-07, 8.22465495e-07, 6.41667020e-06,
          -1.61540106e-06, -2.13219118e-06, 3.82405233e-06,
          -2.41058342e-06, 3.00943952e-06, 9.45957868e-10,
          -1.08684685e-06, -1.91294887e-07, -1.84827775e-06,
          8.99873214e-07, 8.63003606e-07, -9.01982219e-07,
          5.16836906e-07, -1.16704973e-06, -3.98148723e-06,
          3.56061946e-06, 7.77353080e-07, -2.32068805e-06,
          4.02590422e-06, 1.19262472e-06, -3.51252629e-06,
          2.93717176e-06, -6.91228195e-07, 3.72948023e-07,
          -4.14463500e-07, 2.17489173e-06, 2.41999874e-06,
          1.50893493e-06, 1.99866736e-06, 3.91450476e-06,
          -1.51171923e-06, -2.24379255e-06, 1.22968274e-07,
          -4.62355229e-06, 7.66390826e-07, 5.92431036e-07,
          3.29026193e-07, 1.30579167e-06, 1.01376042e-06, 2.83023337e-06,
          -5.70427176e-07, -3.40680430e-07, -1.93732171e-06,
          7.41573604e-06, 1.03817729e-06, -3.87066757e-06,
          1.84411681e-06, 1.79312292e-06, -6.44497777e-05,
          4.12749592e-04, 2.70273740e-04, 1.72325090e-04, 5.02595321e-05,
          3.89420302e-06, -2.08757842e-06, 3.33741900e-06,
          -4.14463500e-07, 1.53608357e-06, -2.23609277e-06,
          7.25527372e-09, -6.07937295e-07, 1.51285735e-06,
          -6.56453049e-05, 3.53138603e-04, 2.43650356e-04,
          -1.54688780e-06, 1.83597876e-06, 1.44910664e-05,
          2.85246642e-04, -4.48156612e-07, -3.10780024e-06,
          6.78943343e-06, -1.64124117e-06, -2.08757842e-06,
          -1.01058447e-06, 1.05790161e-06, -1.64552853e-06,
          -1.30880100e-04, 1.37178838e-04, 5.30725174e-06,
          -3.81218888e-06, -3.62455296e-07, 2.33966915e-04,
          2.35015905e-04, 1.74602610e-04, -4.16823184e-07,
          -3.40680430e-07, 3.85026397e-06, 2.66675147e-06,
          -9.59386057e-07, -8.22599020e-07, 1.91052709e-06,
          -2.61424680e-06, -2.15234089e-04, -3.83971957e-04,
          -1.90615421e-04, -4.63664765e-06, 1.30060303e-04,
          2.71134544e-04, 3.21383210e-04, 2.20093466e-06,
          -8.87005740e-08, -1.49385542e-07, 1.15334262e-06,
          -2.32101996e-07, 4.55584939e-07, -1.46672915e-06,
          -2.14296012e-08, 3.15731018e-06, -3.95581592e-04,
          -5.49314893e-04, -3.21925269e-04, 2.84900569e-04,
          3.22588312e-04, 3.24258435e-04, -2.68977419e-06,
          -1.70889712e-06, 3.92196625e-07, 3.01161663e-07,
          -2.92722149e-07, 4.74423388e-07, 5.01232648e-07,
          8.29010276e-07, -5.94530547e-07, 1.53880203e-04,
          1.71283391e-05, 1.55187013e-06, 1.28165717e-04, 4.05951840e-04,
          3.20232648e-04, -8.97990958e-07, -1.02017032e-06,
          -6.88536545e-07, -6.72641022e-07, 2.37569211e-07,
          7.13947657e-07, 2.82149517e-06, 2.40903501e-06,
          -3.62694823e-06, 4.75619861e-04, 5.34883693e-05,
          -1.79852543e-06, -2.21252558e-05, 2.47497665e-04,
          1.84335079e-06, 3.09241068e-06, -1.40556699e-06,
          2.82113433e-06, 2.41989778e-06, 2.42344208e-06,
          -3.99289456e-06, 8.54284565e-07, 8.74550835e-07,
          6.43447042e-04, 4.57231014e-04, 5.04684693e-04,
          -2.36056007e-06, -9.94441289e-05, 7.99107656e-05,
          5.50904417e-07, -1.28765703e-06, 6.01021441e-07,
          -3.94252129e-06, -7.21518290e-07, 3.75205491e-06,
          -1.68493727e-06, -5.05404842e-06, 9.14758914e-07,
          2.30232006e-04, 5.84079884e-04, 1.38112897e-04,
          -1.38582823e-06, -1.89851798e-05, 1.50378721e-04,
          1.04759359e-07, 2.82214614e-06, 1.52585199e-06, 8.95358369e-07,
          -2.00218915e-06, -2.16918943e-06, 4.01942452e-06,
          4.85346163e-06, -1.69081284e-06, 2.75046204e-06,
          2.50178535e-04, 1.34506437e-04, 1.94147015e-06, 3.98004253e-04,
          1.25635808e-04, 4.62906382e-06, -2.89302739e-06,
          3.39982819e-07, -7.05052514e-07, 5.21083450e-07,
          5.64390859e-07, 1.99089214e-07, 1.50887547e-06, 2.77222921e-06,
          -3.42217299e-06, -5.27010561e-05, -9.39412566e-05,
          -2.31641636e-04, 3.95304203e-04, 1.32951711e-04,
          3.23385902e-04, -3.81371848e-07, 5.25528776e-06,
          -2.23314123e-06, 6.30780107e-07, 3.43292292e-08,
          1.37766824e-06, 6.26892358e-07, -4.97667179e-06,
          -1.30285855e-06, 7.51035884e-07, -2.05792065e-04,
          -2.30542530e-04, 3.95872572e-04, 2.18595633e-05,
          3.20308027e-04, 1.24735234e-04, -1.50136236e-06,
          1.67246506e-09, 1.36860729e-06, 1.90232129e-07,
          -1.26195104e-07, -1.98956832e-06, 8.79133495e-07,
          -4.30035379e-06, 1.04757862e-06, -1.28583226e-04,
          -3.20987456e-04, 3.96330841e-04, 1.66012280e-04,
          3.20506719e-04, 1.18584613e-19, -3.43216539e-06,
          -2.05547508e-06, 2.10016242e-06, 1.15802800e-06,
          2.50916855e-06, -8.83511916e-07, 5.84692998e-07,
          1.10759959e-06, -2.94710335e-04, -2.94097874e-04,
          -8.58416740e-07, -2.00170348e-06, -2.49737612e-04,
          3.27857997e-04, 3.70270470e-07, -2.63397465e-06,
          1.92335051e-06, 1.26170028e-06, 1.03032824e-06, 1.78898233e-06,
          -3.17492209e-06, -1.45498848e-06, 1.70431391e-04,
          2.12754370e-04, -1.42485135e-06, 7.53270069e-06,
          5.94992116e-06, -2.50864599e-04, 6.83111784e-06,
          -3.51231165e-06, -1.04517414e-06, 1.13365661e-06,
          -1.28650697e-06, 2.00587237e-06, -4.31974883e-07,
          2.50239646e-06, -3.96418909e-05, 2.11846927e-04,
          3.20435674e-07, -3.34808828e-06, -7.49976152e-07,
          -4.17536357e-04, -6.40577055e-04, -5.74189064e-04,
          -4.89373306e-05, -5.54677490e-06, -3.82589775e-07,
          -2.09150608e-06, -1.92588504e-06, 5.01648401e-06,
          -6.39333052e-07, 7.61079804e-08, 6.12110525e-05,
          2.14228246e-04, 4.46871091e-08, -3.33900214e-04,
          -6.38233090e-04, -4.75346518e-04, -1.22521087e-04,
          -4.66794445e-05, -4.34663298e-06, 7.36074867e-07,
          4.60066349e-06, -1.81993880e-06, -2.30240016e-06,
          1.73348064e-06, 2.07428366e-06, -7.26218559e-06,
          -1.34904221e-05, -6.88204600e-05, -6.46773842e-05,
          -6.30012073e-05, -7.13570580e-06, 4.97548029e-08,
          4.14612850e-06, -2.64726054e-06, 2.63906531e-06,
          1.65659060e-06, 6.98727717e-06, -3.43083485e-07,
          2.44697662e-06, 1.77711775e-06, 2.54215820e-06,
          -1.38337691e-06, 5.59262162e-07, -3.11122420e-07,
          -1.12534201e-06, 1.23215784e-06, 8.06755565e-07,
          -2.67712494e-07, 3.61020284e-06, -3.48763638e-06,
          5.89946376e-06, -3.43960528e-06, 2.61521063e-06,
          -1.29937189e-06, 2.16170719e-07, -5.26472718e-07,
          -5.23665562e-07, 2.95169207e-06, -4.94973619e-07,
          9.37525385e-07, 2.60227807e-06, -9.63053822e-07,
          -4.38842108e-06, -1.56281999e-06, 3.00061515e-06,
          -3.25480937e-06, 1.18584613e-19, 1.18584613e-19,
          1.18584613e-19, 1.18584613e-19, 1.18584613e-19, 1.18584613e-19,
          1.18584613e-19, 1.18584613e-19, 1.18584613e-19, 1.18584613e-19,
          1.18584613e-19, 1.18584613e-19, 1.18584613e-19, 1.18584613e-19,
          1.18584613e-19, 1.18584613e-19, 1.18584613e-19, 1.18584613e-19,
          1.18584613e-19, 1.18584613e-19, 1.18584613e-19, 1.18584613e-19,
          1.18584613e-19, 1.18584613e-19, 1.18584613e-19, 1.18584613e-19,
          1.18584613e-19, 1.18584613e-19, 1.18584613e-19, 1.18584613e-19 ]
      - [ 1.05634126e-06, 8.36622860e-07, -1.12340842e-06,
          1.36328833e-06, -9.76496494e-07, -8.53897745e-07,
          1.18691025e-06, 2.08863057e-07, -7.55329310e-08,
          7.83046019e-08, 3.32036802e-06, 4.65513767e-06, 1.59130309e-07,
          3.01559275e-08, 7.11718485e-07, 4.52015541e-07,
          -1.06255186e-06, 3.80064921e-06, 1.39367251e-06,
          -1.68910992e-06, -5.72274303e-07, 3.81447052e-08,
          5.33351022e-06, 3.30107525e-07, 5.81396364e-07, 6.96942209e-07,
          1.95355994e-07, 2.79481839e-07, 3.00696696e-20,
          -2.75084489e-07, -9.43760654e-07, 2.21289540e-07,
          1.44938895e-06, -9.19927004e-07, 2.82227262e-07,
          1.96651308e-06, -7.39618315e-07, -1.97398822e-06,
          1.89078975e-07, 2.55660808e-07, 4.44913155e-08, 9.60056497e-08,
          5.40730070e-07, 1.97008756e-08, 1.90066530e-07, 1.05000322e-06,
          6.57646126e-07, 9.60249622e-07, -3.55871606e-07,
          -1.34867196e-06, -6.71512680e-07, 1.86236105e-06,
          -2.76154168e-07, -3.70813012e-07, 5.85557132e-07,
          8.54083851e-07, -7.34229815e-08, 4.01228334e-07,
          -1.87170230e-07, 1.16698902e-06, -8.04918102e-07,
          -4.20883765e-07, 6.04376353e-08, -2.06842833e-06,
          3.08672043e-06, -1.66717496e-06, -1.13219765e-04,
          2.59807421e-05, -1.52971970e-05, 6.41011065e-05,
          3.63910112e-05, 4.45822053e-07, 5.77063064e-09, 6.35242486e-07,
          -7.05730141e-09, -6.96597695e-08, 7.83451867e-07,
          8.36622860e-07, 2.24234350e-06, -6.93264519e-05,
          -9.93792491e-05, -6.16937614e-05, -6.22249863e-05,
          8.97836944e-05, 6.44514657e-05, 6.41562510e-05, 5.43549618e-07,
          -1.25516920e-07, 1.02981130e-06, 3.59731672e-07,
          -2.10213011e-06, -1.29767307e-06, 1.77292293e-06,
          -9.67425194e-07, -9.45775828e-05, -3.43157386e-04,
          -6.42621089e-05, -2.82329324e-06, 9.04472254e-05,
          1.42235469e-04, 6.43748863e-05, 7.10961558e-07, 6.03843944e-07,
          3.24132486e-07, 3.63823176e-08, 2.60799538e-06,
          -1.95036773e-06, -6.58996044e-07, 9.66867674e-07,
          -6.82461323e-05, -9.24556516e-05, -6.48083660e-05,
          1.07302685e-06, 9.04625849e-05, 1.43369412e-04, 6.44438333e-05,
          1.03785942e-06, 1.45684538e-07, 9.36234912e-08, 9.65167374e-07,
          1.58248156e-06, -2.30388810e-06, 4.37540734e-07,
          -7.87891224e-07, 9.23726816e-07, -8.90175124e-06,
          -3.35630375e-07, 9.62884769e-07, 8.91490708e-05,
          6.43557796e-05, 6.54026589e-05, -1.23966856e-06,
          1.50400001e-06, 3.00696696e-20, -1.15963644e-06,
          -2.18286777e-06, 2.10686630e-06, 2.47837033e-06,
          6.94952575e-08, 3.13023133e-06, 1.02397935e-04, 2.30948863e-04,
          -2.04026264e-06, 8.90585798e-05, 6.45097898e-05,
          6.39756036e-05, 1.08201175e-05, -2.65066575e-07,
          1.53672636e-06, 1.80419647e-07, -8.43875057e-07,
          -9.59242016e-07, -5.69291558e-07, 1.09177286e-07,
          1.05426232e-04, 1.06770451e-04, 2.33893152e-04,
          -1.28030365e-06, 8.79134896e-05, 6.00289095e-05,
          6.28931812e-05, 1.25018487e-05, 1.08287963e-06, 9.98174983e-07,
          3.24480311e-07, 1.51396614e-06, -9.34619948e-07,
          1.36753761e-06, 2.77139043e-06, 2.82837311e-04, 1.08807297e-04,
          1.97633461e-04, -4.81264542e-05, 5.08533230e-05,
          6.10305578e-05, 6.44530664e-05, 1.28826650e-05, 2.08694374e-07,
          -1.04496144e-06, 2.35804990e-07, -3.25164137e-07,
          7.05129537e-07, -3.30138005e-06, 2.68015265e-06,
          2.84580048e-04, 6.38224301e-05, -8.40907742e-05,
          -6.27635745e-05, 4.99198104e-05, 6.44438333e-05,
          6.44316096e-05, 1.16789181e-06, 1.29115335e-06, 5.36920538e-07,
          2.48917490e-06, -1.08034965e-06, 2.30839555e-06,
          5.70162968e-07, 2.83949368e-04, 3.44684115e-04, 6.40838116e-05,
          1.88021309e-04, -4.87002399e-05, 9.25459462e-05,
          1.88060003e-04, 6.34542739e-05, -7.63876869e-07,
          2.35764401e-06, 2.96774402e-07, -6.10637926e-07,
          6.56416205e-07, -6.37512017e-07, 3.61022694e-06,
          2.81002955e-04, 3.47916386e-04, 2.55856168e-04, 1.86229401e-04,
          -9.27902644e-10, 8.87394999e-05, 1.86829478e-04,
          6.88628570e-05, 6.38746060e-05, -7.39002601e-08,
          -2.42046696e-07, 1.46006619e-06, -6.03146134e-07,
          6.34259436e-07, -3.21497168e-07, 2.82971305e-04,
          3.47610243e-04, 2.56932311e-04, 1.86726975e-04,
          -2.66227183e-08, 9.23048065e-05, 1.67036997e-04,
          3.46017856e-04, 6.66398482e-05, 3.56642363e-06, 2.48341905e-07,
          -1.66271107e-07, -9.16189379e-07, 1.06590994e-06,
          -1.03105901e-06, 1.35966718e-06, 2.84923037e-04,
          2.78516178e-04, 2.54727376e-04, -1.35778191e-06,
          8.99124934e-05, 1.66400830e-04, 6.79026925e-05, 6.41449369e-05,
          -1.98408725e-06, 8.17371472e-07, 3.79530860e-07,
          1.52703967e-06, -1.80447756e-07, 2.53213898e-07,
          -9.04471108e-07, -6.81637744e-07, -8.89232615e-05,
          -6.27509216e-05, -3.30484340e-06, -6.65810873e-08,
          9.08260045e-05, 6.65739644e-05, 1.73760398e-07, 1.80821746e-06,
          -5.69143253e-07, -1.26340808e-06, -7.26723215e-07,
          2.69859743e-06, 4.09696941e-06, -2.07794002e-07,
          -6.94718328e-05, -1.14281444e-04, -2.67377967e-04,
          -6.14290984e-05, -5.26753956e-06, -1.92367108e-04,
          5.73481011e-05, 9.78749085e-07, -1.75055746e-07,
          1.80614268e-06, 2.06467780e-06, 1.52496909e-06,
          -3.70098633e-06, 8.30697644e-08, -2.13290923e-06,
          -8.89902294e-05, -3.48325208e-04, -2.63810653e-04,
          -6.44438333e-05, -1.97708709e-06, -8.24824820e-05,
          -1.95887114e-04, -1.50938824e-04, -9.61629326e-07,
          1.23246366e-06, -2.44502235e-06, -1.87992941e-06,
          1.06879918e-06, 6.69130657e-07, 5.58611468e-08, 8.34472530e-07,
          -9.03297114e-05, -3.46713379e-04, -2.49310775e-04,
          -6.11354480e-05, -1.73836452e-04, 2.63863370e-07,
          -1.58845936e-07, 2.36555570e-06, -1.64360267e-06,
          1.57522334e-06, -9.62047920e-07, 1.64257813e-06,
          4.09591905e-07, -1.11452937e-06, -5.60846217e-07,
          -6.86255953e-05, -2.58065029e-06, -2.18664900e-06,
          -2.64273831e-06, -5.63716685e-06, -5.55334452e-07,
          -3.44720206e-06, 4.26544517e-07, -1.91501741e-07,
          6.18756417e-07, 9.35163882e-07, -2.63371180e-06,
          9.74226623e-07, -1.20607899e-06, 1.39031476e-06,
          1.56726333e-06, -1.04729793e-07, -1.06859352e-06,
          -2.01717484e-07, 1.08379606e-06, 6.93697245e-07,
          2.13100975e-06, -1.87921387e-06, -3.05677872e-07,
          9.84524490e-07, -4.70598081e-07, 9.96147276e-10,
          1.20071127e-06, -1.47567016e-06, 2.16059037e-09,
          -4.68357285e-07, -9.02981981e-07, 7.87588021e-07,
          1.71195700e-06, -3.58435585e-07, 3.11935537e-07,
          -1.64735025e-06, -9.04795797e-07, 1.36312360e-06,
          -1.04329581e-06, 3.00696696e-20, 3.00696696e-20,
          3.00696696e-20, 3.00696696e-20, 3.00696696e-20, 3.00696696e-20,
          3.00696696e-20, 3.00696696e-20, 3.00696696e-20, 3.00696696e-20,
          3.00696696e-20, 3.00696696e-20, 3.00696696e-20, 3.00696696e-20,
          3.00696696e-20, 3.00696696e-20, 3.00696696e-20, 3.00696696e-20,
          3.00696696e-20, 3.00696696e-20, 3.00696696e-20, 3.00696696e-20,
          3.00696696e-20, 3.00696696e-20, 3.00696696e-20, 3.00696696e-20,
          3.00696696e-20, 3.00696696e-20, 3.00696696e-20, 3.00696696e-20 ]
      - [ 8.99365261e-07, 5.12032784e-07, -1.71534907e-06,
          1.78225901e-06, -2.58914611e-06, -8.96324480e-07,
          9.88688271e-07, -8.04185390e-07, 1.20398761e-06,
          -2.25851841e-06, 8.69438907e-07, 2.16757462e-06,
          1.82959117e-19, 4.88423666e-07, 1.82959117e-19, 1.80073613e-07,
          1.11484655e-06, -1.08444362e-06, -3.25286067e-07,
          1.18601474e-06, 1.43703892e-06, 1.09791770e-07, 3.73036573e-06,
          3.23360013e-07, 1.94763379e-06, 2.20330730e-06, 1.80598693e-06,
          -5.83885026e-07, 4.84131363e-07, -2.24670998e-06,
          -2.65302924e-06, 1.78225901e-06, -1.54000816e-06,
          -7.59800116e-07, 9.79707124e-07, -1.17771299e-06,
          -1.50742869e-06, -1.25552754e-06, -3.79029302e-07,
          -6.27763768e-07, 1.46443404e-06, -1.89198101e-06,
          2.63061702e-06, 1.34904633e-06, 1.37322013e-06, 3.82408558e-07,
          1.45488366e-06, -5.38088841e-07, -3.61488742e-06,
          -2.00158024e-06, -2.22697327e-06, 3.60924474e-07,
          8.19485820e-07, -1.76104936e-06, 3.87368118e-06,
          3.46085972e-06, -8.83134248e-07, 5.44121576e-07,
          -2.12667985e-07, -1.20172342e-06, -1.36827543e-06,
          -1.83032375e-06, -1.28385159e-06, 2.82016140e-06,
          1.55409813e-04, 1.65262987e-04, 1.36856048e-04, 2.73020676e-04,
          1.24151367e-04, 2.84508686e-04, -3.79029302e-07,
          1.17493744e-06, 4.58023624e-06, 4.97468989e-07, 2.27632654e-06,
          -1.08077336e-06, -2.28354997e-06, -4.31959197e-05,
          -4.43794597e-05, 1.65158795e-04, 1.67903476e-04,
          -2.82205320e-07, -5.50956713e-07, 3.02653149e-04,
          2.85162154e-04, 2.84876936e-04, 5.94089433e-05, 1.58179702e-07,
          -1.22778744e-07, 8.24630206e-07, -3.66509632e-08,
          1.03026150e-06, 1.23724988e-06, -1.57445120e-05,
          -5.33452221e-05, 2.00606451e-06, -4.76109108e-07,
          -8.44932231e-07, 2.00730865e-05, 2.82198162e-04,
          -1.27691806e-06, -1.05724325e-06, 5.59688397e-06,
          1.88918079e-06, 1.92446100e-06, 2.14185911e-06,
          -1.62994283e-07, 6.01866248e-07, 6.76822092e-05,
          -2.25033659e-06, 2.18921501e-04, -3.03862180e-04,
          -3.07441311e-04, -1.85867670e-04, 4.16908661e-05,
          1.00997011e-06, 1.36811127e-06, 1.17415368e-06, 6.45811326e-07,
          1.17459786e-06, 4.19066964e-07, -1.45339345e-06,
          3.81079712e-06, 1.15360344e-04, 1.56823662e-04, 3.39637249e-04,
          -3.71575588e-04, -3.71116417e-04, -3.52402509e-04,
          2.50278958e-06, 1.27513556e-06, -1.38645817e-07,
          -1.94822019e-06, 1.49591335e-06, -9.44109388e-07,
          -3.11034292e-08, 2.40353484e-06, 5.57806004e-07,
          1.52856286e-04, 3.68838169e-04, 5.28765260e-04, 7.41032491e-05,
          -3.33883538e-04, -6.77268981e-05, 1.22737692e-04,
          -1.13143892e-06, -9.76346470e-08, -6.86701469e-07,
          -4.97329211e-07, 2.92536379e-06, 2.89790705e-07,
          1.64632627e-06, 7.67579934e-07, 1.54090303e-04, 3.72930197e-04,
          3.97744618e-04, 7.90862177e-05, 2.35519224e-06,
          -6.74033217e-05, 1.47773040e-04, 3.06510560e-06,
          4.93311518e-06, -1.22975268e-06, 9.15565806e-07,
          3.40949509e-06, -2.65567991e-07, -2.30623641e-07,
          1.31230445e-06, 4.52954628e-05, 2.10563492e-04, 2.37604560e-04,
          2.28700635e-04, -1.60248203e-06, 3.06299189e-04,
          1.46353850e-04, -2.84801672e-07, 7.61798958e-07,
          1.82959117e-19, -1.24287885e-06, 2.35036123e-06,
          1.54446855e-06, -1.29219143e-06, 1.04052299e-06,
          2.67888322e-06, 4.39534342e-05, 1.38782489e-04, 6.93012553e-05,
          -1.62317451e-06, 2.98612285e-04, 2.75232713e-04,
          2.83284724e-04, 4.36349637e-06, 3.15262469e-06,
          -2.30617005e-07, -5.01549835e-07, -4.81525092e-07,
          4.36935352e-06, -2.30876935e-06, -1.31520594e-07,
          5.76505272e-07, -1.18006130e-06, -1.67574733e-04,
          -2.80200242e-04, 2.63314432e-04, 2.24935429e-04,
          2.83514295e-04, -2.83834879e-06, 7.93765230e-06,
          1.20712275e-06, 5.82726443e-06, 3.08756199e-07,
          -5.67593645e-07, 2.89547984e-07, 1.31795616e-06,
          2.45672231e-06, 8.57711882e-07, -2.11464998e-04,
          -2.27120763e-04, 1.63893157e-04, 2.24086165e-04,
          2.84191425e-04, 5.12868428e-06, -1.30055855e-06,
          3.66258041e-06, -1.44862611e-06, -1.19512379e-06,
          -7.93064103e-08, 2.21054825e-06, -2.45360206e-06,
          1.40334305e-06, -6.52723429e-07, -2.55801016e-04,
          -2.27692290e-04, 1.65061356e-04, 7.86411474e-05,
          2.83870293e-04, 1.36018411e-06, 1.13045837e-06,
          -8.92326568e-08, 1.22099163e-06, -1.45396280e-06,
          2.38162988e-06, -1.27446833e-06, 1.69417979e-06,
          -1.06030552e-06, -3.68266086e-07, -1.34513946e-04,
          -2.83050525e-04, 3.06935777e-04, 1.36494957e-04,
          2.83154950e-04, 1.82959117e-19, -2.29689613e-06,
          -1.37533789e-06, 2.35590301e-06, 2.03227978e-06,
          -4.97079725e-07, -2.74463832e-06, 2.44237299e-07,
          6.05644600e-05, -1.15904644e-04, -2.43925810e-04,
          -5.21397112e-07, -2.77528738e-06, -6.64467152e-05,
          2.88791431e-04, -9.10387030e-07, -1.67438498e-06,
          2.02347337e-06, 2.90497974e-06, -1.88978515e-06,
          3.25532119e-06, -1.27167732e-06, -9.98102842e-05,
          4.88585574e-05, 1.95927423e-04, -1.46836351e-06,
          4.69661654e-06, 4.37242579e-06, -9.63237399e-05,
          -5.92230499e-05, -3.05611775e-06, -7.47742206e-07,
          -9.17958062e-07, -2.76588730e-06, 1.90725473e-06,
          -2.70612895e-06, 3.90401556e-06, -1.04227845e-04,
          6.91550449e-05, -1.22734423e-06, -1.51323638e-06,
          -8.85495751e-07, -3.73232528e-04, -3.69074929e-04,
          -3.79705074e-04, -6.56122324e-07, -1.55421310e-06,
          1.82959117e-19, -3.28194858e-08, -2.76159471e-06,
          5.00426768e-06, -1.09709379e-06, 1.37523045e-06,
          -9.83487480e-05, 7.26354046e-05, 3.07851246e-06,
          -3.74352327e-04, -3.67968227e-04, -3.30656709e-04,
          -1.26397092e-04, 2.58111913e-06, -3.63932895e-06,
          7.48794093e-08, 2.97589531e-06, 4.85269936e-07,
          -2.83106800e-07, -1.40408616e-07, 1.36449853e-06,
          1.03999275e-06, -1.91963181e-06, -1.29462496e-04,
          -1.32985951e-04, -1.30155953e-04, -4.87768557e-06,
          -1.26338080e-06, 4.13927182e-06, -1.39841711e-06,
          1.76209164e-06, 3.16903288e-06, 4.33464129e-06,
          -2.93638482e-06, 2.28826411e-06, -4.28942059e-07,
          -6.93520130e-09, -5.22382607e-07, 1.25876613e-06,
          1.85500016e-06, -9.53118786e-07, 6.30443651e-07,
          1.82959117e-19, 9.78383468e-07, 4.17634237e-06,
          -3.87398450e-06, 5.44907471e-06, -7.64122490e-07,
          1.93194523e-06, -2.16712647e-06, 1.83212046e-06,
          -1.06547134e-06, -3.19798801e-07, 7.84410531e-07,
          -1.93781887e-07, -2.73327370e-08, 2.97060114e-06,
          -2.32693924e-06, -2.99485896e-06, 3.66296831e-07,
          2.25677536e-06, -1.91865206e-06, 1.82959117e-19,
          1.82959117e-19, 1.82959117e-19, 1.82959117e-19, 1.82959117e-19,
          1.82959117e-19, 1.82959117e-19, 1.82959117e-19, 1.82959117e-19,
          1.82959117e-19, 1.82959117e-19, 1.82959117e-19, 1.82959117e-19,
          1.82959117e-19, 1.82959117e-19, 1.82959117e-19, 1.82959117e-19,
          1.82959117e-19, 1.82959117e-19, 1.82959117e-19, 1.82959117e-19,
          1.82959117e-19, 1.82959117e-19, 1.82959117e-19, 1.82959117e-19,
          1.82959117e-19, 1.82959117e-19, 1.82959117e-19, 1.82959117e-19,
          1.82959117e-19 ]
      - [ 9.62517674e-08, 5.49891332e-08, 2.34909092e-09, 1.86621719e-06,
          -2.94521499e-07, -2.59603723e-07, -1.15326338e-06,
          5.61743718e-07, 1.33129902e-06, -1.23189261e-06,
